{
    "layers": [
        {
            "weights": [
                [
                    -0.4248875288213024,
                    0.13051238691566988,
                    -0.2602833242022794,
                    0.36993136579209074,
                    -0.27527615930055493,
                    1.0817946886105028,
                    0.20173943332067967,
                    0.3122001602464706,
                    0.510733211485366,
                    -1.4028300924136006,
                    0.8370354784759569,
                    -0.46788478414036244,
                    -0.7460025186358851,
                    -0.7970317581083075,
                    -1.0603343974615105,
                    0.3450551843189875,
                    0.6383582964541785,
                    0.480743136218822,
                    0.1417355771832946,
                    0.35331879581610415,
                    -0.5037375100943593,
                    0.12446212250754998,
                    -0.6807444285936528,
                    -0.2252949560118449,
                    -0.584452870696972,
                    0.513214822385507,
                    -1.0384213359988514,
                    -0.6486662367919799,
                    0.6869851311882588,
                    -0.33486836326519837,
                    1.171503095019896,
                    -1.4420705698176648,
                    -0.4156113729307027,
                    0.41911918660521696,
                    0.6304356058981194,
                    0.04236811340762471,
                    -0.2659427644163307,
                    0.39940870759525293,
                    -0.22373430600199304,
                    -0.6116588826139747,
                    0.26859088494425515,
                    -0.8649049848039692,
                    0.580026009293358,
                    0.777517047999246,
                    -0.8396117173846075,
                    -1.3020279534123276,
                    -0.20169221020966835,
                    0.7137443927177316,
                    -0.5355421022069095,
                    1.047753417025542,
                    0.9298936979017896,
                    1.2913499341813872,
                    -1.1575879991596445,
                    -0.1643610673243187,
                    -0.2361365996465511,
                    -0.5678167273259996,
                    0.3568537824360233,
                    0.6976864681637001,
                    0.561336037119987,
                    0.6885596108622485,
                    -0.6744558583896834,
                    -0.616745670510124,
                    -0.6704121544425604,
                    -0.24035798861538007,
                    -1.5087534626959371,
                    -0.3379429181546076,
                    1.5634878267795427,
                    -0.8898207276568535,
                    0.8257647724621557,
                    -0.8507267720815901,
                    -0.3759422237155093,
                    -0.42177295315897145,
                    -0.223699401329313,
                    0.15885386656903047,
                    0.6150818896781935,
                    -0.2199518763293838,
                    0.17307130059263115,
                    0.2768637934977632,
                    0.8974625297155808,
                    -0.5323613848702518,
                    -1.3454047078816924,
                    1.5333269254872277,
                    -0.7123139217466082,
                    0.8512575254003847,
                    0.09812598728807098,
                    0.22485927333460826,
                    0.1918514421045903,
                    -0.005746420506415289,
                    0.19974989617512445,
                    0.5617996352701204,
                    -0.46976145035389805,
                    -0.044431169067946905,
                    0.29047262212652325,
                    -1.6302234454504085,
                    0.43444734863694445,
                    0.17365613912335004,
                    0.1927626434369962,
                    -1.3452534710649073,
                    0.7943224709408774,
                    1.0047434609287196,
                    -0.7159953000237673,
                    -2.22086793889556,
                    0.2836535062878664,
                    0.6677907777293006,
                    0.6995678137017655,
                    -0.7687472584122746,
                    -1.1925612852283143,
                    -0.567999875647005,
                    -0.7067167502010483,
                    0.9241803963047621,
                    0.3656513802244695,
                    -0.3184952979087578,
                    -1.2110661682846038,
                    0.5210312497593121,
                    0.5407223766548863,
                    0.037195664790203864,
                    -0.9277286389293605,
                    0.2022596018867707,
                    0.15095867823746417,
                    0.1293966434765158,
                    -0.3088369838760783,
                    0.5219900540136799,
                    0.13562422590553405,
                    0.033442592702622176,
                    -0.18213452927887674,
                    0.10474568888740984,
                    1.1603105482439062,
                    -0.8894847206863321,
                    -0.30756088610993043,
                    -0.7776632279182568,
                    0.09075394473523755,
                    0.8447242611667588,
                    -1.303874938496183,
                    -0.5079426179438535,
                    -1.50471867282949,
                    -1.239939475313742,
                    -0.8204401377421411,
                    -0.8012308800898169,
                    -0.7552592707081943,
                    0.5218397907636874,
                    -0.6977164165520312,
                    0.07368639741087284,
                    -1.8320498161176588,
                    -0.9880182902790895,
                    -0.6233295846408783,
                    -1.1343287465675063,
                    0.7537889272343494,
                    -0.2335649724778397,
                    -0.42781452855273394,
                    -0.13467546204451736,
                    0.14462861526249998,
                    -0.21260979891342452,
                    -0.9678722878798991,
                    0.15811649815079967,
                    -0.7678435055186332,
                    -1.618520870797677,
                    -0.12520684873096696,
                    -0.20230554324960387,
                    -0.028698804009470023,
                    0.36555836033837,
                    0.33552733738417256,
                    -1.876347859665652,
                    0.5920147335419285,
                    -0.09136656372006981,
                    -1.0888963870954438,
                    0.46023673582893393,
                    -0.10398939807105953,
                    -0.9331235825646226,
                    -1.209107174248625,
                    -0.22088518801595747,
                    -0.44787031866770677,
                    0.27538681109988505,
                    0.04727510314401967,
                    1.2105533162450797,
                    -0.5311921589180942,
                    1.4822408266804254,
                    0.0948103725193754,
                    0.5759572014760862,
                    -0.14489769859573448,
                    -0.2651636336929506,
                    0.5379125368227466,
                    -0.7534459206223378,
                    -0.3902921199502835,
                    0.866871521364818,
                    -1.5410718642968508,
                    -0.8588225732947916,
                    -0.06648705562938736,
                    -0.6740641815684066,
                    -0.947906495964126,
                    -1.0929937819724835,
                    -0.5443376462855931,
                    0.24048661676831926,
                    -0.9417454166709908,
                    0.42107631213547153,
                    -1.4916058991545085,
                    -0.030148606338158756,
                    -0.17351652396110318,
                    -0.8401810325310641,
                    0.5067594754424923,
                    -1.4294275002196803,
                    -0.09953566628259826,
                    0.2425056229165917,
                    0.6525378966294345,
                    -1.2704391251909195,
                    0.3989683660053994,
                    1.611823897200718,
                    0.602486630427013,
                    1.2046911538538718,
                    -0.07599395343213308,
                    0.5271469285808678,
                    -1.5448237420659614,
                    -2.8759745976040745,
                    -0.29183262510556685,
                    -0.40943742208681266,
                    -1.0450709992160672,
                    -1.1842887615976858,
                    -0.9509087234856127,
                    -1.2300397844584179,
                    -2.079723297971569,
                    -2.0124472956566026,
                    -1.6980021094620208,
                    -0.2511617394337685,
                    -1.7199408687156477,
                    0.0044933733907463,
                    0.38501531606005535,
                    -0.6368870119656951,
                    -0.09099912312914853,
                    0.6021294189399792,
                    0.39396994010549774,
                    0.2881966524906182,
                    -0.9248716780880172,
                    0.8492794432833715,
                    -2.3552362584913644,
                    -0.6925356211470157,
                    -1.2738394438760139,
                    -0.7848235148784647,
                    0.7332796417989605,
                    0.04291196565629114,
                    -1.5576923983811644,
                    -0.7614568163500549,
                    0.04710087118098747,
                    -1.9804304301166855,
                    -0.8531022684236328,
                    -0.42717510880652143,
                    -1.1093931631090685,
                    -0.8585290245455175,
                    -1.5868372320446154,
                    -0.581393176736472,
                    -1.809584124978853,
                    -0.5145657772720686,
                    -0.5904627778301003,
                    0.08811912562354032,
                    0.6029479870446524,
                    0.5685942364216047,
                    0.6412421342948194,
                    -0.5364119027676406,
                    0.7736680256882356,
                    -0.902327404547464,
                    -0.610545541883687,
                    0.3274312015516885,
                    -0.8910312268228195,
                    0.45470707179509146,
                    -0.6129726923456995,
                    -0.10694428987544134,
                    0.30722306161234064,
                    0.6819555869936277,
                    1.5393901137181585,
                    0.11325666867028986,
                    -0.5084972412837274,
                    -0.8001245556203741,
                    -1.2746585199357703,
                    -0.019785643014452285,
                    -0.2826789016210989,
                    -1.2392629339659846,
                    -0.3161499347319592,
                    -0.5481006047953741,
                    -2.4390643104145844,
                    0.11958525346623479,
                    0.23987666971055363,
                    -0.6161937774964181,
                    0.7897525406352112,
                    0.029593637139608133,
                    0.0011644148767118814,
                    -2.1854766895574698,
                    -0.2986643663840809,
                    0.5190357329543532,
                    1.1459827280784656,
                    -0.17751447379341093,
                    -0.0278936036501539,
                    0.2952390060559067,
                    -0.6029459418351786,
                    0.8081240480257039,
                    -0.17415852269717005,
                    0.4166566834144102,
                    0.4670212244590868,
                    0.46710504208476017,
                    0.11915624511633867,
                    0.6541727802163657,
                    1.082679088175138,
                    -0.9840534366937865,
                    -1.3198366449316088,
                    0.0958102077369434,
                    -0.8069916869484123,
                    -0.5023660221565172,
                    -0.14403588535042042,
                    -1.5778449908997563,
                    0.8566015895069922,
                    0.3964619672511467,
                    0.2621841178409418,
                    -0.41366115471880854,
                    0.32522816104780394,
                    -1.3708600909884767,
                    -1.8606512965730166,
                    -0.16438591224281687,
                    0.46730645255543685,
                    -0.4899664334828118,
                    0.1193115870948325,
                    1.2335620864895824,
                    0.34685151407098874,
                    -0.4697969372502952,
                    -0.05070971661768201,
                    -0.617913718641461,
                    0.6853736161412013,
                    1.0122067502879564,
                    0.1524707092899686,
                    -0.5383840586809369,
                    0.04154432424848122,
                    -0.19073797918463695,
                    -0.4197947774226102,
                    0.03935923197647178,
                    -0.15306249739837963,
                    -0.5897452889811016,
                    -1.6972300150876725,
                    0.4852056898573777,
                    0.7490490791079631,
                    -0.38685115097776795,
                    -0.024890357468745693,
                    0.310585916860086,
                    0.07482676934586066,
                    0.18822546272586554,
                    -1.2855779744470162,
                    0.3944327146315371,
                    -0.9714037091455793,
                    1.1867563758780382,
                    0.13983583209989472,
                    0.24322477105439805,
                    1.4794947795975744,
                    0.040315722525792824,
                    -0.6361089185526104,
                    0.48772321522631285,
                    0.08319203213268035,
                    -0.040506186908905444,
                    0.6903494089513259,
                    1.4267372324902343,
                    0.045014770984269814,
                    0.4779856779614122,
                    0.45404170800606547,
                    0.4705722176822915,
                    0.2556495665587831,
                    -1.7430477883186664,
                    0.3606866569482508,
                    -0.9672190003974823,
                    -0.48780880229704476,
                    -1.2689745055748296,
                    -0.38073746510188833,
                    -0.1472241244840811,
                    -0.09948717633685925,
                    0.7848882492852352,
                    0.4401031653965899,
                    -0.17343837639214923,
                    -0.43811536167602105,
                    -0.8005842809368374,
                    0.16428966543209989,
                    -1.2058451006441822,
                    -0.16216923504558142,
                    1.0220717204123824,
                    0.3625857860390995,
                    0.6358868532506294,
                    -0.19186071524080345,
                    0.24330725611340318,
                    -0.10173030892813942,
                    -0.834680088625343,
                    0.24105677530314523,
                    0.8165079738660448,
                    -0.8701562562665466,
                    0.9776340412414445,
                    0.3183946609167044,
                    1.0801539658758694,
                    1.8226351241650611,
                    -1.7859242373077346,
                    -0.38317422390165046,
                    -0.621238028880763,
                    -0.8710790759493696,
                    -0.023627950309862936,
                    0.8293559481072846,
                    0.6327891185239654,
                    -0.1538065696076626,
                    1.5344571857513383,
                    -0.5446909097303705,
                    -0.3525188173759236,
                    -0.4163270342704306,
                    -0.06629783187757327,
                    -0.21023664098424497,
                    1.1610087131455193,
                    0.16268588756485283,
                    -0.3189983144816786,
                    0.9683443037279891,
                    0.4121991165611285,
                    0.8564233228781923,
                    -0.9252671293916376,
                    2.42881706651068,
                    -0.29089978522186727,
                    -0.3419049553746057,
                    0.18424072515179657,
                    0.43391192916317894,
                    1.2606132173581999,
                    -1.000537796303168,
                    -1.0579930030154827,
                    0.2143036602674058,
                    0.3515479409714979,
                    0.24669863891485153,
                    -0.9342588779470945,
                    0.23412739381404404,
                    -0.9390954691308581,
                    -0.5480441958731905,
                    -1.3613383111837951,
                    -0.44449648305178924,
                    0.5764287739271002,
                    -1.9088343335781335,
                    0.1068195641977536,
                    -0.3974694987480685,
                    0.3781891636722961,
                    -0.06357497661844823,
                    0.07444634975953474,
                    0.04946038604509712,
                    -0.8803190513703733,
                    0.7750634701346382,
                    -0.37527741172826096,
                    0.5684961207885715,
                    0.6504983384220642,
                    -1.427342782806831,
                    -0.30978445088295,
                    1.4335506509376301,
                    0.9508170717347565,
                    0.1818831180739954,
                    0.42978494202075185,
                    0.7301253697582797,
                    0.119572427993578,
                    0.39891679261132595,
                    1.0004717503723424,
                    1.2355786603049783,
                    0.23458883672052566,
                    1.0020756895240623,
                    0.510818300974388,
                    -0.7414746250087266,
                    -0.8527182259577253,
                    0.11044550784017569,
                    -0.10651575507932426,
                    1.3835453540288458,
                    0.5826541632447274,
                    0.3197498159790472,
                    0.04133074934156645,
                    -0.05126231962444018,
                    -0.19601109587402207,
                    0.8915449730454367,
                    -0.14773265164793933,
                    0.10823575385528629,
                    0.14952986231026183,
                    0.08107046392576772,
                    -0.06271088578242665,
                    1.1892161744329657,
                    1.5263916872741503,
                    1.2924638421203447,
                    -0.1039536316933459,
                    -0.21289985812100215,
                    -1.253213074575999,
                    0.09196458971748102,
                    0.04955405270172583,
                    0.35181806808568683,
                    0.45779725774606816,
                    -0.9988648876690549,
                    0.0677301356943128,
                    -0.6359469869926263,
                    0.37635673940902203,
                    -0.5032996252258747,
                    1.4834501346385685,
                    0.455305687019063,
                    -0.7477105990741109,
                    0.6404345631964179,
                    0.4833182692017661,
                    0.26316408879838077,
                    0.7325535636974717,
                    0.8896746791507881,
                    -0.16911924931526315,
                    -0.13938517540510154,
                    -0.1680967436414305,
                    1.962574531376955,
                    -0.1927511565858532,
                    0.045314933942099775,
                    1.1923165674424265,
                    0.2861727414401434,
                    -0.566071459592235,
                    1.6634105227018603,
                    0.09869744405893426,
                    -0.3262246817738184,
                    0.2811402417274113,
                    1.47943377852566,
                    -0.2537179666593543,
                    -1.0052518046581516,
                    0.9716949271393212,
                    1.0028196493987624,
                    0.6895794416317622,
                    0.6859446335755873,
                    1.3417576287467872,
                    -0.750339897986894,
                    -0.5825757449915916,
                    1.2233587769096022,
                    0.0421034943286568,
                    -1.1187864673808159,
                    -1.3555455774081517,
                    1.4803319311481047,
                    1.0493818892134879,
                    2.1795480374112906,
                    0.6789455477149476,
                    0.3499625283383117,
                    0.6528499475999183,
                    0.2724994600039799,
                    1.576732048236615,
                    0.3240697666234513,
                    0.5361292584502197,
                    -0.6723102708986621,
                    0.7419393072152464,
                    0.11634392956520294,
                    0.6802321358323287,
                    -0.9156115713419476,
                    0.8474808937062341,
                    0.3305813126250796,
                    -2.057850262918075,
                    0.28585624747665367,
                    -1.1561118017662337,
                    1.2037821554675,
                    -0.08310687210842836,
                    1.1179746690876013,
                    0.1288364650332618,
                    -0.06809108287583798,
                    1.3197445520681603,
                    0.44539074730954226,
                    0.3197450509500352,
                    0.09342513775694301,
                    -0.06498206553286165,
                    0.540797047527288,
                    1.2439828248704494,
                    0.39612826607077806,
                    -0.6821511212110266,
                    0.10977424833686876,
                    -0.35087588336294606,
                    -0.6543763685861803,
                    0.21902788648163807,
                    -0.04729094995631684,
                    -0.13904798808573718,
                    -0.5399623969421894,
                    1.3805329641676765,
                    1.7272883516909272,
                    -1.3446744827762418,
                    0.6539070284724811,
                    -1.0310151424076468,
                    0.10769409351622464,
                    1.1847932748780607,
                    0.34489555593277127,
                    -1.0280607420404,
                    0.7741880710102894,
                    -0.6631620450889288,
                    0.695698130034809,
                    -0.021711466955281,
                    0.4231254401602044,
                    -0.7811425107866031,
                    -0.33361098248556,
                    0.6984363101904133,
                    0.26367364387243064,
                    0.6119066961498549,
                    1.1678374706280266,
                    0.889788408868925,
                    -1.214679288981624,
                    0.8239605417460713,
                    -0.390124891605538,
                    0.5861622897391994,
                    0.3631585890120329,
                    1.4401489345331837,
                    -0.011486168128151132,
                    -0.4126362646702269,
                    -0.061586804874397195,
                    0.6541087060198135,
                    0.423091434398603,
                    0.40018152096596826,
                    -0.08673850066711582,
                    0.3543138898105992,
                    0.07884292452071222,
                    -0.34405819141067434,
                    0.2506770060487553,
                    -1.1480373993225599,
                    0.5002317091226446,
                    1.4557074541749209,
                    -0.6853080195673577,
                    0.960759872417799,
                    0.8478288507208805,
                    0.40692872201218583,
                    -0.3928414972371315,
                    0.07693677978954341,
                    1.3807431441237406,
                    1.7438059769388499,
                    -0.019754090918599084,
                    0.4489743926571641,
                    -0.0720939680131292,
                    0.2917473183144726,
                    0.41302736975407495,
                    1.2394125457649054,
                    0.07601915825553866,
                    -0.039096604577524,
                    0.8146592347276024,
                    -0.20955252332822608,
                    0.09650022630208484,
                    1.6928257606829407,
                    0.3875538046340196,
                    1.1832052327206226,
                    0.11532040410360125,
                    -0.32094084945699597,
                    -0.03798241904040519,
                    0.08819135657066997,
                    0.009951127864826303,
                    -0.8854458008755521,
                    -0.008136798923359645,
                    0.6176078835934413,
                    0.5475947418705559,
                    -0.15136567470207793,
                    -0.7257530672074137,
                    0.9859324597854175,
                    0.2562590391296098,
                    1.0272895487364035,
                    1.6047171408255774,
                    -0.8350576332343607,
                    1.4448333468196337,
                    0.6119298398157438,
                    0.8958155571893844,
                    -0.32814151335397235,
                    0.15760475194940543,
                    0.4635323404705224,
                    1.5250155036107247,
                    0.8067299522239645,
                    -1.525749672506487,
                    1.1785204861245875,
                    -1.8485292323625713,
                    0.48350054187195923,
                    -0.9966957008511621,
                    0.7327658680041228,
                    0.8530896003044133,
                    -0.7020232816190749,
                    -0.08044182537471024,
                    0.713823377231532,
                    -0.3400417836255687,
                    -0.1996600731652053,
                    -0.7553796258562852,
                    1.0564828340268868,
                    -0.6132910144576753,
                    -0.11979124194598245,
                    1.3428837535918503,
                    0.5022506585685056,
                    1.148269925533058,
                    1.5244387739214074,
                    0.7771779071513828,
                    0.4414143518286748,
                    0.6191315074627176,
                    1.2140247587108488,
                    0.08095956095215916,
                    -0.14204741839489032,
                    -1.201578538171676,
                    0.7571885785353731,
                    0.2433779610271983,
                    -0.7438969431670082,
                    0.7741144507217155,
                    0.7875504775294967,
                    -0.029081669619065453,
                    -0.0029842416226041977,
                    -1.3359503503097725,
                    -0.8432640992217731,
                    -0.2968674718331349,
                    -0.5552000324214964,
                    0.5204264139816719,
                    1.248638712942535,
                    1.271108602765056,
                    0.39455491571334533,
                    -0.284180556594839,
                    -0.17670429229754725,
                    1.1637321556557483,
                    0.2643009521615138,
                    0.5890239939498496,
                    0.38264263390292147,
                    0.3906060872847882,
                    0.9035186806038114,
                    -0.2628715223448573,
                    -0.4293578130783775,
                    -1.0405803351658367,
                    -0.5244806476396687,
                    -0.18475392684428754,
                    0.45311714900793953,
                    1.0007320065390297,
                    0.12121571881367095,
                    -0.337164002170348,
                    -0.732739033723182,
                    0.37655860489614,
                    -0.03214279147065772,
                    0.2803549446387918,
                    0.7759606687999925,
                    -0.08755857550641019,
                    -0.05903513983002091,
                    -0.3698078564128166,
                    0.0011079541522629084,
                    -0.35991608895909327,
                    -1.2825804548459436,
                    -0.4006965867265707,
                    0.9153951833349804,
                    0.21989592256052426,
                    0.35404467728604816,
                    0.7089460906691188,
                    -0.3608719606747039,
                    -0.46953698366380403,
                    -0.48631335068929843,
                    -0.27450410878778586,
                    -0.1640139988096014,
                    1.3182055196139275,
                    1.5792027613091784,
                    -0.7719289658420605,
                    -0.5251050527907725,
                    0.3026167743002572,
                    0.4999705451185267,
                    1.039189544229053,
                    0.6090627437294486,
                    0.043943797191212046,
                    -0.15283781093207108,
                    0.5656104641765608,
                    0.9764079127370839,
                    -1.55444459910155,
                    -0.9580475158953787,
                    0.4368235681559376,
                    1.3013515340475468,
                    -0.37661076037423113,
                    -0.17147187453685353,
                    -0.27334559311712525,
                    -0.3268484342071891,
                    -0.3123540699887561,
                    0.30554251605197275,
                    0.5176534210405348,
                    0.994520654950689,
                    -0.4296941313520984,
                    -0.3791075993738321,
                    -0.03133883067137331,
                    -0.4277921116838148,
                    -0.4793308605427749,
                    0.1923010541904717,
                    0.7879508296871434,
                    -0.2654546523255,
                    1.2193124329042078,
                    0.5087369140446969,
                    0.08582467974003362,
                    -1.0463673353924168,
                    0.04455595390401172,
                    0.9499883983832205,
                    -0.18244114926776767,
                    -0.027965808293759584,
                    -0.9803898019825072,
                    0.940750297881407,
                    -0.6712668186955267,
                    0.37165662317906145,
                    0.6850770398639695,
                    0.0506222430006429,
                    0.08739712703380784,
                    0.5435229671031306,
                    -0.4565088646354443,
                    0.13604639764716608,
                    0.8496572022143752,
                    -0.5718727293335665,
                    -0.6506352448127678,
                    -0.4049951637775722,
                    -1.0176208631887869,
                    -0.04985639199155027
                ],
                [
                    -0.6503902189504279,
                    -0.8731313464200104,
                    -0.1445233341759828,
                    -0.2256779372270241,
                    -0.7060966788188769,
                    0.04506685698600509,
                    0.37547267737769285,
                    -0.6730916720377159,
                    -0.7398857709494928,
                    0.24276627811203078,
                    1.0646030834740732,
                    -0.8827906026106215,
                    0.04069758202922925,
                    0.837736520855538,
                    -0.17054209084373823,
                    0.03988345278636923,
                    0.05263746400738442,
                    0.22827050119922215,
                    0.9903123826222429,
                    0.9427962882955953,
                    0.7574645058274004,
                    -0.8931618721110008,
                    0.04058342170657116,
                    0.15749073720008785,
                    -0.4788024407305236,
                    0.05121243762610992,
                    -0.08080974777621419,
                    0.6005961164331157,
                    -0.494087395423457,
                    -0.21559165889659967,
                    -0.4139517750205737,
                    -0.2261271776363031,
                    -1.110784386040435,
                    -0.1295606489234311,
                    1.4913103945414274,
                    0.9207197042208775,
                    -0.2064290379721448,
                    -0.9005879943914696,
                    0.6721403238483936,
                    -0.8713050392511316,
                    -0.035493973277844766,
                    1.4990389798541046,
                    -0.7152159232498936,
                    1.414678848339495,
                    0.298984126237328,
                    0.3225570643440028,
                    0.752646226950898,
                    -0.4684799835859087,
                    0.06930938806099293,
                    2.043707777451287,
                    -1.6318993136844846,
                    0.23064041358945597,
                    -0.09701483222070052,
                    -0.675844138132506,
                    0.6868052964630064,
                    0.8464468042075696,
                    -0.11730248542381955,
                    -0.2315961681712413,
                    0.2366058301399801,
                    0.6124889404513834,
                    0.03591446496086161,
                    -0.9029427367957819,
                    -1.0992493571938595,
                    -1.259830274832287,
                    0.5656950856589247,
                    -0.714541379150003,
                    0.9318841747689443,
                    -0.13555249893232682,
                    -0.18862962518354165,
                    0.817909410193297,
                    -0.11736639297911934,
                    -0.9784725993736259,
                    0.6739464626858125,
                    1.3075012167423008,
                    -0.4944140448320176,
                    0.06539534328878759,
                    0.15488709745662466,
                    0.2593383340040398,
                    0.08392185806960456,
                    -0.15751745268136005,
                    0.495648454805155,
                    -0.23443512778228565,
                    -0.3931156037326736,
                    -0.57988495721033,
                    -0.5995240915220854,
                    0.5282757401745927,
                    -1.7349302707464982,
                    0.4409523145485387,
                    0.9841357810282999,
                    0.041482843276977606,
                    -0.8158985704956196,
                    -1.220521253807748,
                    -0.1252423092256885,
                    -0.34761173623460734,
                    0.6170928960887241,
                    -0.10108622330757923,
                    -2.024433723409868,
                    -1.230656486139584,
                    -0.2328978229123977,
                    0.1262096260969827,
                    -1.1815100650076888,
                    -0.31172677580098,
                    -0.026299313073620392,
                    0.46132039122768237,
                    -0.04630850610346738,
                    -0.5485137501346249,
                    0.733430550964513,
                    0.3542879673087336,
                    1.2706055861824501,
                    0.801003785846825,
                    0.3962144411026702,
                    0.16535053806846017,
                    0.7656432489866102,
                    0.7780028878677304,
                    0.6449799610627754,
                    -0.27577370850783955,
                    0.9283774437628614,
                    2.239106822913982,
                    0.7082322294422235,
                    0.007535546932485219,
                    0.0579110546084345,
                    -0.12780253033553882,
                    -0.9725624163177038,
                    0.348813293128943,
                    1.1504745711166922,
                    0.8617143491155874,
                    -0.8540220832800293,
                    -0.5582158595562697,
                    -0.7373057354107342,
                    0.899144190153929,
                    1.4303723004958782,
                    1.0750087833686122,
                    -0.7285970532633634,
                    -0.8788988924290309,
                    -0.004431531948033716,
                    0.6715341339668233,
                    0.6740016693553607,
                    -0.05468435380144453,
                    1.6104318810012703,
                    -0.40816594416484964,
                    -0.27635052154845813,
                    -0.9818940088748718,
                    0.5399198579623699,
                    -1.298079245841849,
                    -0.12387795339648995,
                    -0.47901566182651156,
                    0.5808274323005796,
                    -1.6747167692830085,
                    1.0914034887216217,
                    0.6647937093321425,
                    0.1787982639556935,
                    -0.16010790688367932,
                    0.5107709967725411,
                    1.1310110219322893,
                    -0.08239209928491054,
                    1.103348622682641,
                    0.798423941085876,
                    -0.2764815893546061,
                    -0.7418109249154754,
                    -1.3519135424754818,
                    0.12993873625935431,
                    0.6895412368415442,
                    1.7633188889493931,
                    0.5407795154596534,
                    0.42228735261066885,
                    1.0651546014494642,
                    0.5489428025957817,
                    -0.20080972242489933,
                    1.6350854386518998,
                    -0.336589450960312,
                    0.11990184016584829,
                    -0.33347678613233794,
                    0.31011131848499823,
                    0.6742583911181623,
                    -0.3859301597391467,
                    1.567312144523855,
                    -1.2318884695674173,
                    -0.695478958408583,
                    -0.48026394511466597,
                    -0.059716812358362854,
                    -0.201470697616665,
                    -0.7115968769902178,
                    0.023727151168862416,
                    -0.8925169684249733,
                    -1.1646005923968614,
                    1.283505204478948,
                    1.3753192068565177,
                    -0.04263225195925914,
                    -0.8975927932208891,
                    0.4738063449494969,
                    0.5367523264704268,
                    -0.295063127510059,
                    -0.06074914282419341,
                    0.16107721827440757,
                    1.0148290380682337,
                    -0.1843711512363674,
                    -0.47449065983334565,
                    -0.032422279556070015,
                    -0.8960093241119752,
                    -0.4753028877001435,
                    -0.27344390957460785,
                    0.4179333400895038,
                    -1.3771606874635758,
                    -0.012870475303634908,
                    1.8656870078064596,
                    -0.27144360526591155,
                    1.3389426089937597,
                    -1.5744736103671209,
                    -0.4531656829465516,
                    0.8683687007762635,
                    -0.9602373180049789,
                    -0.1441509195894853,
                    -0.7419118545630882,
                    0.4538212324130916,
                    0.6356628698821,
                    -0.8509317109868971,
                    0.9733895157184419,
                    0.2355600571010546,
                    0.7685230157860128,
                    -0.3216633149013758,
                    0.7303279653601321,
                    -0.24409603301237434,
                    -0.16444792303143113,
                    0.9343525377483791,
                    0.7169414934303272,
                    0.4517661020016583,
                    -0.33728615836940695,
                    -0.03218075343960207,
                    0.3869330579794874,
                    -0.13729687217217346,
                    -0.7342745332874874,
                    0.7350655848813561,
                    -0.13876397050031408,
                    0.1751314359412825,
                    0.5692747014071935,
                    1.6821282400076862,
                    0.47991071908607474,
                    1.26125039865172,
                    -0.2870608894715113,
                    -0.6941837320710179,
                    1.074727884603172,
                    0.9147822848765814,
                    -1.4832922990883133,
                    -0.8745108254197147,
                    0.21865420102624294,
                    -0.07815609396462347,
                    0.37548789170591224,
                    0.015531682632380294,
                    -0.49544863928061383,
                    -0.12191031872202249,
                    -0.031801327999176815,
                    -1.998151036427534,
                    1.4749945527968038,
                    -0.07910761459368883,
                    -0.6909676898882331,
                    0.24118867804537714,
                    0.008925789659476368,
                    0.11032801884529053,
                    0.022878324255122855,
                    0.08369002118611829,
                    0.5982825859089842,
                    -1.2381489625407869,
                    -0.8304451340484851,
                    1.229416447048761,
                    0.7266209991410212,
                    -0.49836589349452604,
                    0.48185253085697755,
                    1.7603214194971168,
                    -0.17028106973856902,
                    -1.5033520613993114,
                    0.9721002438256585,
                    -0.6270012230818321,
                    -0.9218799771438914,
                    1.1633715012428676,
                    0.7764811195895828,
                    1.4784266092916012,
                    -0.10898073761632382,
                    0.9697118738471355,
                    -0.04413572265749645,
                    -0.38524039001942495,
                    0.7201610547137752,
                    -0.43901697808477014,
                    1.4173315828074518,
                    1.065857279238863,
                    -0.06310416096814689,
                    0.7504238931652,
                    -0.2675316085075327,
                    -0.34697025527247655,
                    -2.4018467103169727,
                    -0.2513727942855167,
                    -0.350595449526728,
                    0.24959196604295114,
                    -0.7402644137830964,
                    0.03643245963492814,
                    0.5587962980562023,
                    0.051518380645062686,
                    1.6337066005266994,
                    0.44293028598675055,
                    0.13841950786779011,
                    -0.5819973276963285,
                    1.443568913803549,
                    -0.24115879983305133,
                    -1.0312312531497243,
                    0.5890584200593565,
                    -0.6891228926585439,
                    -1.4477711570195992,
                    -1.9652923202359767,
                    -0.10774722646418716,
                    1.2584193810245656,
                    0.5770258640167499,
                    0.4390370554502255,
                    -0.38156865877184515,
                    0.6265591693295243,
                    -0.5634536266062599,
                    0.5184676193752135,
                    0.39208157016048484,
                    1.7631904661137257,
                    0.7995046306683937,
                    -0.19949040932721585,
                    -0.5770501512757332,
                    -0.03633371041944971,
                    -0.8423690501456016,
                    -0.5808568726874735,
                    0.06929525525113168,
                    0.42951422126435773,
                    0.9996021764944499,
                    -0.4768188478601597,
                    -0.4490787212648678,
                    -1.894000453606718,
                    -0.08775698221641973,
                    -1.1591892001941244,
                    0.12814654355581748,
                    -1.1544610148700607,
                    1.5826320445475885,
                    -1.865232316575999,
                    0.5297497335464021,
                    0.346522552327137,
                    -0.8926303303619574,
                    -0.9198561115612879,
                    0.10740550638924973,
                    -0.6813286946273102,
                    0.49920305648481783,
                    -0.5730308307490738,
                    0.27374193148044595,
                    -0.6872357565046349,
                    0.6605979150063352,
                    -0.6667408090639616,
                    0.5367861922607654,
                    -0.07085797802980665,
                    -0.3787943793718716,
                    -0.004215795088233837,
                    -0.5511855473296163,
                    -1.4015125581936068,
                    -0.9567041483126384,
                    -0.35098382536757217,
                    -0.282161798831564,
                    -2.1430183336806543,
                    -1.4292187119375053,
                    0.08845758858287707,
                    -1.0996817856797538,
                    -0.2851536682347148,
                    -0.4431300300472162,
                    -0.23959416400281905,
                    0.7323338055751546,
                    0.035178599836926346,
                    -1.0628620109442921,
                    0.4180807505860396,
                    0.8131173846246412,
                    0.19163078552486415,
                    -0.8439345164986438,
                    0.8171897181741253,
                    -1.0153790996807406,
                    1.1120802604299902,
                    1.6222645216228186,
                    0.025869351824070543,
                    -0.9386552710570667,
                    0.22128413815278894,
                    0.4425264938767961,
                    0.03345319760254197,
                    -0.16393019527063407,
                    -0.033605802846099306,
                    -0.22267743513001995,
                    0.19249970040383724,
                    -0.6162155592093508,
                    0.5239015830168388,
                    -0.14074823229828629,
                    0.2839948742098577,
                    -1.3991084804233083,
                    -0.32206747091136395,
                    -0.389538478655899,
                    0.3367920584912063,
                    -0.21966790428819563,
                    -0.10052302913361441,
                    -0.8638556492704407,
                    -0.26871088586722125,
                    -1.0322143559146493,
                    0.733902139809405,
                    -0.07926071416356834,
                    0.8566059325564396,
                    -0.29710624308614875,
                    1.1679973270820407,
                    -1.210099568083739,
                    -1.6671302689882979,
                    1.4506158561104066,
                    -0.32397709631692745,
                    -0.527886791103712,
                    -0.34928106453378077,
                    -0.2570887879021663,
                    0.9468342655732388,
                    0.8228442383442158,
                    0.6491575372927836,
                    -0.194549912557875,
                    -0.7007345327236882,
                    0.16531844531454915,
                    -0.9107149253236072,
                    -0.2021783095872754,
                    -0.8050747865880794,
                    -0.025473279366745826,
                    -0.7101642456282087,
                    -0.8185296967477024,
                    -0.26383586303586515,
                    0.7457535477032611,
                    -0.2638168740552532,
                    0.2068379589716287,
                    -1.3234374794080797,
                    -0.7284781786687725,
                    -0.4842919469438005,
                    -1.9405399243288282,
                    0.3610455447460377,
                    -0.10604333555633645,
                    -0.25474670114089565,
                    -0.3921136880701999,
                    -0.6813734602057987,
                    -0.5351766505809029,
                    -0.8393446467247466,
                    0.033305174889254135,
                    -1.0838730730457138,
                    -1.1100389639141992,
                    -0.1680606289561386,
                    -1.0529914467778316,
                    0.8843407847607343,
                    -0.3086151184654085,
                    -0.6104172280426776,
                    -0.27686271360902054,
                    -1.0023731677832546,
                    0.0991249749452565,
                    -1.6768885209818905,
                    0.1014254911814883,
                    -1.16814564976785,
                    -1.4291330482824727,
                    0.25437710274874814,
                    0.990608219213687,
                    0.8163715593894326,
                    -0.6633027398422396,
                    -0.8645072821702631,
                    0.4195964676113263,
                    -0.8079322193538266,
                    1.0487161437576709,
                    -1.00204712354082,
                    -1.072796649229936,
                    1.5346107753327451,
                    0.2521210339461507,
                    0.9044083605083074,
                    1.2814597765929467,
                    -0.16417971585301167,
                    0.24298056163370946,
                    0.25690505177535455,
                    0.910568031947495,
                    0.5355198512209072,
                    0.19784889868195446,
                    -1.2637718782414593,
                    -0.8603041492169501,
                    0.5021664105801493,
                    -0.9402547346742236,
                    -0.2942350893704344,
                    -0.5481410233527644,
                    -1.1965961515849042,
                    -1.723502250927444,
                    -0.7399282856308289,
                    0.4920718847469987,
                    -0.16986390098265677,
                    0.38450174684367555,
                    -0.6638905155508521,
                    -0.11282121421442927,
                    0.8978033921804748,
                    0.7380249368676227,
                    0.01781141730966142,
                    -1.5552997312045214,
                    -0.018475259651629543,
                    -0.07898291142819652,
                    -0.40888619729439873,
                    -0.24969239325530035,
                    1.2953929929769403,
                    -0.4477698614736924,
                    0.32244121311611146,
                    -0.009699432118369537,
                    -1.214416729632292,
                    -1.107587743503331,
                    0.6037964429152956,
                    -1.5936232720626233,
                    -0.5920283041368928,
                    0.02651218438182655,
                    -1.0427565838979391,
                    -1.1374032337137072,
                    -0.12302543408929853,
                    0.0025455466445001994,
                    1.4055052347844066,
                    -0.7417573965398474,
                    -1.8444265220560512,
                    0.5691269409592317,
                    -0.08518036370071279,
                    1.3449416578804725,
                    0.7967326571729524,
                    -1.3752650135065099,
                    -0.4761043397588191,
                    0.8044706687414479,
                    -0.5763951174754751,
                    -0.44566742510606105,
                    -0.48516557017829165,
                    0.14376426136704726,
                    -1.1122159905521791,
                    0.09400024353707755,
                    -0.9519848694466448,
                    -0.07417571499049301,
                    0.03882276004104005,
                    -0.2650620873977885,
                    -0.42775622213811176,
                    0.5337226532347386,
                    0.646532815887778,
                    0.02008021686141538,
                    0.8784156300600847,
                    0.36268161355310496,
                    -0.8973311521328483,
                    -0.5429825869055638,
                    -1.059702571224171,
                    -0.8582911415138397,
                    1.5074691150412534,
                    0.5121028801494164,
                    0.5427931494824206,
                    -0.966766804641444,
                    -0.06368576268371985,
                    -0.3188347093849165,
                    -1.5569822123632862,
                    0.38427109331397297,
                    1.0316118321083603,
                    -1.0795088371992125,
                    0.25401027850401786,
                    1.36930006535684,
                    1.2295347307006579,
                    0.4585600042937616,
                    0.5060258466317776,
                    1.5681753943680814,
                    -0.7659352568962126,
                    -0.2081064673079501,
                    0.3277183491446779,
                    0.11873407576784124,
                    0.17356364388610682,
                    1.865499950318784,
                    0.04743031623512489,
                    0.007025412114767916,
                    -0.11720670628529718,
                    1.7436485800238195,
                    0.09887092368956793,
                    1.1931449449704161,
                    1.3469101969851174,
                    -0.53669562001235,
                    0.7370948053596016,
                    -0.2947291482406762,
                    0.3227553602254151,
                    0.11201378074199073,
                    0.13530914333724367,
                    -0.6604773618512864,
                    -1.4900334889159543,
                    1.5978746798220902,
                    1.5946773017893385,
                    0.28832916241209766,
                    0.9197714962507312,
                    1.0021864978764707,
                    1.0870981813357223,
                    0.4455726182730475,
                    -0.4493915718298965,
                    -0.274419159735062,
                    -0.7603919196017214,
                    -0.4795516536119831,
                    -1.5425183452353226,
                    -0.4313171711959284,
                    -0.08238452078947579,
                    0.5214821418668405,
                    0.43501339009531104,
                    0.36804248498887476,
                    -1.266986441612136,
                    -0.19185185506984145,
                    0.8916635964566569,
                    -0.2974301559564212,
                    -0.48167038396849915,
                    0.19746631472347384,
                    0.09662660968633596,
                    -1.0857478423380793,
                    -0.05754010797554901,
                    0.26361801801562107,
                    -0.18964396896265864,
                    -0.47626349221840003,
                    -1.0043046864381353,
                    -0.21087091032650057,
                    -2.77921690582559,
                    0.08933154656444948,
                    0.4319243927317339,
                    -0.03922308335974076,
                    -1.1978293232906794,
                    0.6487505419125041,
                    1.1594334923856797,
                    0.12920628650482904,
                    -0.13791736303114002,
                    1.1035534105996092,
                    0.30124835528635235,
                    0.174815593322582,
                    -1.1107744734126788,
                    -0.04243804459807036,
                    0.3467948357345409,
                    0.564175894112313,
                    0.23438495429960107,
                    0.1084573856679407,
                    0.29433568495973716,
                    0.8867607740844753,
                    0.48336787083538424,
                    -0.9473696709329475,
                    -0.9530055618704507,
                    -0.1752340610930741,
                    -0.7802488152128471,
                    -0.2542789166395914,
                    1.3461339752515245,
                    0.8818368815871643,
                    -0.0521696736216644,
                    0.26351976050901954,
                    -0.3700933435482081,
                    0.09423370005402797,
                    0.8288066285768786,
                    1.2956452077744098,
                    0.7662298236136995,
                    -0.12224853934332332,
                    -1.9295347989202758,
                    0.14303213648230587,
                    -0.0697066416589933,
                    -1.116578078827442,
                    -0.3705062266679636,
                    -0.6783038244933229,
                    0.6730326582294219,
                    0.339924033936767,
                    1.1963684484565014,
                    0.21131169474703856,
                    0.14021243478190054,
                    0.030083095805399272,
                    0.9754403300133683,
                    -0.03842461754381309,
                    0.5539136754431793,
                    -0.6541318783580629,
                    0.33516644132889445,
                    0.19349567858503258,
                    -1.1413752892443352,
                    0.09579476577435514,
                    -1.164465343889662,
                    -1.2601756700170599,
                    0.5084834538288108,
                    0.08966942686463514,
                    0.13377249900833743,
                    1.7193087868873966,
                    -0.48287026804761946,
                    -0.7360535085868338,
                    -1.8244343490400485,
                    0.23288724799016,
                    -0.21876271211355572,
                    -0.08185946022130237,
                    -0.9919735301136329,
                    0.8013183970902621,
                    -0.4222079366864433,
                    0.058411664530505135,
                    2.064986730614713,
                    0.7379161780351683,
                    0.3641074849137213,
                    -0.5229243764137168,
                    1.414742602625568,
                    0.15326120909789936,
                    1.2362675559843046,
                    0.4309779417327358,
                    -0.7578347967451995,
                    -0.002348489748962849,
                    -0.18645142440621784,
                    0.7850648077967355,
                    0.4559788944331523,
                    -0.627497194817296,
                    -0.18472123386702602,
                    1.0058177021114771,
                    -0.14199688921908654,
                    0.2690271337712755,
                    0.8795727068739032,
                    -0.26155182479790173,
                    0.5604212444948861,
                    0.8956367094404343,
                    -0.5505111249920976,
                    0.33050818400720255,
                    0.0864754489610712,
                    0.21138705591747753,
                    0.2354984176370175,
                    1.5815889746972913,
                    0.11518012760722014,
                    0.15798812121290173,
                    -0.5917273043099853,
                    -0.9529548450484253,
                    -1.377339953028317,
                    0.16575710890224846,
                    0.7857702820672243,
                    0.8762822295581203,
                    0.20813963759765847,
                    -0.8546359558539466,
                    -0.28634223002697623,
                    -1.4168066218852113,
                    0.4569193210367349,
                    -0.2664130702033551,
                    -0.1634002613510806,
                    -0.10339820250515822,
                    0.23780144075353105,
                    0.2339327707123556,
                    -0.7682143761535775,
                    0.09527016811526451,
                    0.034660156004642555,
                    0.37699921595231084,
                    1.0083647714256083,
                    -1.0531851079035515,
                    0.5012246891335846,
                    1.0987474509478716,
                    0.9870946399953705,
                    1.5602195998822894,
                    1.222825446070914,
                    1.2972387919183093,
                    1.4954261347384856,
                    1.362792872283658,
                    -0.832207346370502,
                    0.5304174154127109,
                    0.46615878309163933,
                    2.1976642869023815,
                    -1.871482111235935,
                    -1.0906343505343838,
                    -0.655082002023339,
                    0.11316132913125217,
                    0.43318356010101294,
                    -0.6244194482937626,
                    0.2245225378957374,
                    0.5791605618834671,
                    0.2731526259154322,
                    -0.9047013049893917,
                    -0.4416220344347203,
                    -0.5436039757292201,
                    0.935226375520015,
                    0.381947564860795,
                    -0.04081694497339213,
                    -0.47525779163095044,
                    -0.20415426426647784,
                    0.6264761807608925,
                    0.13790277349917457,
                    1.7800913622431052,
                    1.6647623315584554,
                    -0.3846675707066259,
                    1.4067998746925596,
                    1.0093657749865805,
                    0.4871830620256278,
                    0.1963087084337667,
                    2.1112537969011154,
                    0.293818687513021,
                    0.4132619377665511,
                    -0.12129754078395495,
                    0.454653270581243,
                    0.19326187393370206,
                    0.2791343035055987,
                    -0.35360152342950707,
                    0.586603040090584,
                    0.6278554109671713,
                    0.3387804861742949,
                    1.1566316047665406,
                    -1.369399257993378,
                    0.5801620703866663,
                    -1.5272541484662165,
                    0.1343853132388235,
                    0.29271795260827455,
                    0.19042975802453013
                ],
                [
                    0.049372395726067476,
                    0.08165738719119922,
                    -0.8142719154328489,
                    -0.17080646531969715,
                    0.29732822371564144,
                    -0.43300358878945644,
                    -1.1797243998691658,
                    0.1501246413080945,
                    -0.3024028526178998,
                    0.3383449420150538,
                    0.1647796707141248,
                    -0.6029873734070863,
                    0.12677074060181423,
                    -0.7321038209452715,
                    -0.8957237239130078,
                    0.6890903579200134,
                    -0.4082227604502282,
                    0.13235005188663018,
                    -0.4351024101618527,
                    -0.3485552622952974,
                    -0.8327473396094834,
                    1.637902400003822,
                    -0.4635737441585261,
                    -0.5128033962364908,
                    -0.6194083448082044,
                    -0.4208638814983491,
                    -0.07777212721970365,
                    -0.18326801817351465,
                    0.6550744167128433,
                    0.4664860232263367,
                    0.21340933070822085,
                    0.005966229124387271,
                    1.2236390102051402,
                    -0.35192856677949097,
                    0.5464748492149732,
                    -1.315376406131835,
                    -0.8264259476312908,
                    0.6967019601283945,
                    1.5614533753780597,
                    0.30969185974289604,
                    -0.23542240275112405,
                    -1.4152204942343887,
                    0.544030294371759,
                    -1.1365203718627717,
                    0.47100267096434517,
                    -0.17341920882674275,
                    -0.4884330379429017,
                    -0.5703485469658613,
                    0.8559020457054433,
                    1.0704368859126692,
                    0.6010158468297822,
                    -0.4903940398340766,
                    -1.8645076588835414,
                    -0.310779886654495,
                    0.0011114673560445737,
                    0.0559519608966284,
                    -0.5770276292372056,
                    -0.7164127528502425,
                    -0.02210043764167765,
                    0.7425664329439094,
                    1.5153517714295583,
                    -0.12323396767479898,
                    -0.46375084083318696,
                    -0.39269073312552794,
                    0.0848560153170035,
                    0.8105841198508863,
                    0.11322388092457199,
                    -0.17256623196433948,
                    -0.009450205625171596,
                    0.7849987850328398,
                    -1.0959627924694264,
                    1.3623718446294866,
                    1.0097518491669641,
                    0.45603307176894925,
                    0.02111323944808775,
                    -0.5532642939366127,
                    -0.4536217814068954,
                    0.04396774961026109,
                    -0.4132923922204501,
                    -0.0033105764126336685,
                    -1.0403023146961594,
                    0.9685995183669981,
                    0.868645406762973,
                    0.7006872039345972,
                    0.5360706821418909,
                    -0.06888585284024938,
                    -1.59239890822081,
                    -0.7566564603394206,
                    0.852363555852176,
                    -0.5037073879357139,
                    -1.445170364593589,
                    -0.48231423630996684,
                    -0.04816484881370933,
                    0.03956583215304084,
                    0.35589017178617155,
                    0.03152971470572825,
                    -0.7813230103936168,
                    0.4659248232660049,
                    -0.212832278573694,
                    0.46501753198484636,
                    -0.28331161580732767,
                    0.3458385268013001,
                    -0.29621639936156596,
                    0.07777756911041331,
                    0.4385491125383097,
                    0.32726523621645187,
                    0.04190964923033674,
                    0.17937561012400688,
                    -0.22114572144436478,
                    -0.7964135931768896,
                    0.537531459888047,
                    0.4071477492681593,
                    0.25861374739545456,
                    0.07810518253384564,
                    -0.9724859856843074,
                    -0.9975392414195613,
                    -1.0805278032392804,
                    -0.6487602154465434,
                    -0.6474085978754825,
                    0.10225551776473904,
                    -0.8214850114489417,
                    -0.6960730942266286,
                    -0.2375122387049848,
                    0.4142863115554393,
                    -0.7708721863910474,
                    -0.807015499282534,
                    -0.2274271321264641,
                    1.1099428289206679,
                    1.0837949793157693,
                    1.0036335364468494,
                    -0.38548851843726195,
                    0.33950129926537564,
                    -0.6113653461461532,
                    0.592731914191454,
                    -0.3333167412768964,
                    -0.019417052334701354,
                    1.2658346689958662,
                    0.41749147938488085,
                    0.014591492052043796,
                    0.31457715090222677,
                    1.6930604540534562,
                    0.29799391317708196,
                    -0.15371323903013273,
                    -0.31254166136155853,
                    -1.307297643058743,
                    -0.2991110443964606,
                    -0.14601995186227598,
                    1.4705691085263497,
                    0.31930109782886923,
                    1.3943885642705673,
                    0.4344315583124034,
                    0.6370163188124334,
                    -0.6576358850527244,
                    -0.93674037981684,
                    -0.1978344975245557,
                    -0.8297434518700825,
                    1.1094859922195193,
                    0.8069518212362995,
                    -1.0911098956501228,
                    0.9507698467309477,
                    0.312655145158764,
                    1.0096573180034685,
                    -0.03140422926578254,
                    -0.9042951887557745,
                    0.15708991300301758,
                    0.9356431911405119,
                    0.08527677948255492,
                    0.30418495205238,
                    -0.34505290137006844,
                    0.1534377561417016,
                    1.2936084742077927,
                    0.5559832226893155,
                    0.06361166234151149,
                    -0.9253320829861321,
                    -0.2250516197500464,
                    -1.0790428571611415,
                    -0.15484075800499272,
                    0.34756124324098214,
                    0.39344974295097335,
                    1.4464205689718104,
                    -0.16954766278517208,
                    -0.7510800740570781,
                    0.3912458348669314,
                    -0.27135929942970705,
                    -0.140024621935292,
                    -0.14329515213477476,
                    -0.42293660337730504,
                    -0.0907199171540952,
                    1.2528471217570907,
                    1.6807524129635003,
                    -0.5000918639632091,
                    -0.31596355425970324,
                    -0.8626993876173302,
                    -0.09865559782062915,
                    -0.40460283900060984,
                    0.09356080628360733,
                    1.7534884685428196,
                    -1.5705773316504745,
                    -0.34704126030965726,
                    0.5042155530111992,
                    0.08013896883083654,
                    0.6983141347107771,
                    -0.9711004425337737,
                    0.1535935007019155,
                    -0.16154830374701612,
                    0.14017289956569493,
                    -0.5184648437971127,
                    0.5172673348183422,
                    0.6109452902530395,
                    -1.299537500889259,
                    0.40545773474035407,
                    -0.17223202458744383,
                    0.3789705002878905,
                    0.017661105297408945,
                    1.6359844775829315,
                    0.6288823617618019,
                    1.1619790880620287,
                    0.2332315872219274,
                    -0.3082515140308668,
                    0.11440837681594344,
                    -1.0113451091241936,
                    -0.5422862470519361,
                    0.013274964530293337,
                    0.6436323713710115,
                    -0.6000844648095793,
                    0.4323474320325423,
                    -0.6715118690629158,
                    -0.6516197737272307,
                    0.5257988453895119,
                    -0.5563699680298348,
                    -0.2687977771993548,
                    -0.6102105676628928,
                    0.49395268767241163,
                    -0.07047230871477826,
                    0.9727544299275421,
                    0.21964341937026283,
                    -0.1377252440049873,
                    0.9960729942651316,
                    0.16782864667523495,
                    0.07380176268278633,
                    1.1867445646477572,
                    -0.069995241626571,
                    -0.3671582208050333,
                    -0.229770074757231,
                    0.846660308751667,
                    0.32538730509778113,
                    -1.3593731754812421,
                    0.19236173105342644,
                    0.6562328646040706,
                    -0.7373354571782209,
                    1.073447864872894,
                    -0.8404397007128275,
                    -0.11902744234945045,
                    -0.5073635258391518,
                    0.05100523578407949,
                    0.7614435474547773,
                    0.8119641523768918,
                    -0.0168801366677652,
                    0.12236595504205605,
                    -1.1895056629415341,
                    -1.3543578107217744,
                    -0.8954535769246847,
                    -0.4164242169666028,
                    -0.9019511641963288,
                    0.589808441608678,
                    1.8328075114769227,
                    0.21319672045329643,
                    -0.9171841957232553,
                    -0.38763915571221125,
                    -0.29852851590877627,
                    1.0673629136381593,
                    -0.450596596234977,
                    -0.912310962513151,
                    -0.15021298166000818,
                    -1.2042255767608687,
                    -1.0804145535366172,
                    -0.6728185985021378,
                    -1.0850098426906225,
                    -2.2362124449086704,
                    0.43509161573287075,
                    -0.7076068663085568,
                    -0.40584640025385116,
                    -1.7153914241972832,
                    -0.12886809994101642,
                    -0.13091667621228117,
                    -0.8521131410121929,
                    0.6428024029995991,
                    -0.47418355934736334,
                    -0.7828442486706725,
                    -1.1387102566319927,
                    -0.9207470898918977,
                    -0.923764118329555,
                    0.3111495009801196,
                    -0.09759181601980163,
                    -1.0759704518412985,
                    0.5057621218549682,
                    0.03034315542149755,
                    -0.18876435707049483,
                    -0.40091436579854295,
                    -0.04675063944061559,
                    -0.15436107703136165,
                    0.8442537403347534,
                    -0.5812476659861671,
                    0.0940549913790796,
                    -0.5013454269864708,
                    -0.13711712483841826,
                    0.8626650303789284,
                    -0.6922902277115902,
                    -0.07953362370857733,
                    -0.2149415374192846,
                    0.7810348238418744,
                    -0.29944547225532236,
                    -0.5955783315394846,
                    0.08965758815707008,
                    -0.6185095806022296,
                    -1.3047022483749129,
                    0.17111111253370923,
                    -0.690861967306313,
                    0.36453520297910263,
                    -1.5763666987148832,
                    0.11559836266312362,
                    -0.45571593604822447,
                    -1.2515182169149917,
                    -0.3875542118592595,
                    0.3358099094155301,
                    0.6818135343732559,
                    0.09183998685412105,
                    0.6560650612586385,
                    -1.690021854428202,
                    -0.11851606352549508,
                    0.5992146965347982,
                    -0.4828300150877169,
                    -1.1758618773769685,
                    -0.6262338839542599,
                    1.4243083225700028,
                    -0.48609692639660973,
                    -0.5177749118365382,
                    1.246743216860058,
                    -0.7753084698179856,
                    -1.1654634520121434,
                    0.10057923920506541,
                    -0.3218001989253063,
                    -0.5656684810730718,
                    -2.3203830871027598,
                    -0.09541819021899005,
                    -1.358192980547475,
                    -0.6813606354780823,
                    -1.1029682354592392,
                    1.7539420068057514,
                    -0.16897993446971374,
                    -0.9771895638846405,
                    -0.4260064191729163,
                    0.7778857762761175,
                    0.01603174498966481,
                    -0.7143184622029957,
                    0.2986610485076271,
                    -0.4343835740586969,
                    -0.11063398465370664,
                    -0.7238623696820157,
                    -0.7667322110067959,
                    -1.4355813759739986,
                    -1.1378172566198557,
                    -0.30469049993783326,
                    -0.12502389839781347,
                    -0.3714460406307713,
                    -0.5507615146536744,
                    -1.0544334389233085,
                    -2.1325662342396283,
                    -1.0767682471267837,
                    -0.5344253906375075,
                    -0.20627196546040483,
                    -2.4313448826292294,
                    -1.0949301653981394,
                    -0.9883949732737459,
                    -0.2645686620386554,
                    0.6873824185986197,
                    0.2525685397515783,
                    1.1474490892363145,
                    0.5936610692961768,
                    0.13109024870787583,
                    -0.24941715925875574,
                    1.1419428003842627,
                    -0.20873488198339057,
                    1.069525748446643,
                    0.4408618081124254,
                    -0.8390924102822835,
                    0.21180643128956547,
                    -1.6303372707111188,
                    -0.26626508849864533,
                    -1.1103585770286606,
                    0.05053204526615758,
                    -1.0337453769388147,
                    -0.4706105393154552,
                    -1.336120317635161,
                    -0.7633650525698324,
                    -0.3482652398023435,
                    0.1109302452368087,
                    0.633672923933682,
                    0.12827457404568066,
                    0.1621760896572086,
                    0.25173294444567335,
                    0.9106174024255371,
                    -0.7889590259816893,
                    1.2606386979082624,
                    -0.5377032620200874,
                    1.0572452640849634,
                    -1.043810483366096,
                    -0.4104573383478925,
                    -0.019641140442834916,
                    -0.12599678084826263,
                    -0.328512133287179,
                    -1.9164737660997062,
                    -1.271555576037287,
                    0.383926063218876,
                    -0.8047677035995691,
                    0.8055990331767767,
                    -0.9276989773679568,
                    -0.6027908073999294,
                    -0.16830269324086106,
                    -0.3086590426892324,
                    0.1146746204289186,
                    -0.09165610170887442,
                    -0.6503006876509827,
                    -0.5893280246523082,
                    -0.4750135550991764,
                    -0.6308000269730359,
                    -1.055151395679434,
                    -0.9332191307817957,
                    -0.1730467933283269,
                    0.5702979061677517,
                    0.8182945915631891,
                    -0.044794113051062616,
                    0.9427660274920937,
                    0.013645284949550996,
                    0.06214791414726213,
                    -0.6035213924351633,
                    -0.3941836203061265,
                    0.6438856616669795,
                    -0.6347842917479348,
                    -0.2785670909617735,
                    -0.5198414235920191,
                    -1.1526550808355116,
                    -0.45678643341515157,
                    0.40916613568591403,
                    0.2278408829335588,
                    -1.2176873799985926,
                    -0.7623681589318566,
                    -1.3363644142966804,
                    0.70602721840794,
                    -0.5748249216149753,
                    -2.2349243854843026,
                    -2.197310866803761,
                    -0.6028540694417284,
                    -0.9627770199609288,
                    -1.1959942150360228,
                    -0.38259432373329877,
                    -0.7231010085065199,
                    -0.0926985515699904,
                    0.34666836445037985,
                    1.194529437394385,
                    -1.9716984402628026,
                    0.023424191978333533,
                    0.14949293682520678,
                    0.5380930667961338,
                    -0.9019386556352247,
                    -0.79232134615784,
                    1.4620521321131101,
                    -0.2257118385971994,
                    -0.7012276794181704,
                    0.43242353047399734,
                    0.5515513694188915,
                    -0.6928686799038363,
                    -0.7267648721726508,
                    -0.3617628276304308,
                    -0.7551123181027638,
                    -0.8653996941679176,
                    0.6264153942903208,
                    1.1625903343780504,
                    0.05938142395006027,
                    -0.491879780557888,
                    -0.5573458381385349,
                    -1.5707983234963483,
                    0.020150570961776616,
                    2.117547108063456,
                    -1.3174741940301566,
                    -1.3312867616966828,
                    0.8162015485725493,
                    -0.42696829473040604,
                    0.05754498225961059,
                    -0.057972147079825655,
                    0.18959736912580183,
                    0.20201472309393323,
                    -0.5629001099576034,
                    -0.9965345761018216,
                    -0.6958890658699424,
                    -0.9362344556321202,
                    -1.6921045905401062,
                    1.3856000501669539,
                    -0.4582304230294063,
                    -0.2416248411914749,
                    -1.0511528417812375,
                    -0.796005183226734,
                    -0.39718364468665707,
                    0.021582165470653704,
                    -0.7619667632430255,
                    -0.4034051203328572,
                    -0.5569773420857684,
                    -0.38604798466902907,
                    0.016401755830461644,
                    -0.9932239612941063,
                    0.7993309075300157,
                    -0.5787947156357419,
                    0.7693552530856188,
                    -0.3002520719575904,
                    1.7253278440494777,
                    0.28451860270226575,
                    0.2776464539634662,
                    0.24018320538688434,
                    0.7631728196777,
                    -0.28577358228207,
                    0.7123357280502525,
                    -0.5781913314036832,
                    0.800894815238804,
                    0.07832922037399362,
                    -0.5015980539477952,
                    -1.6580699831571015,
                    -0.335318649460087,
                    1.150562606554426,
                    0.3641594882211583,
                    0.5770431662254442,
                    0.8296587034235994,
                    -0.5528883354882991,
                    -0.13461228322260696,
                    0.5955388803820499,
                    -0.5728115057520617,
                    -1.0573419305504141,
                    0.8073153629921022,
                    -0.545017940257034,
                    0.28825406522515684,
                    0.06033689981331285,
                    -0.25103179946043813,
                    -0.7641879837313926,
                    1.6381002291978795,
                    0.5291105980377815,
                    0.48032536171055695,
                    1.6834356371530241,
                    0.2670311085348654,
                    -0.011491681718932126,
                    -1.0981404524891871,
                    -0.9982703561623673,
                    -0.9185743156554775,
                    -0.30734527511379905,
                    -0.7359844510900382,
                    -0.5225239467996687,
                    -0.5687233354096003,
                    0.04296126847928151,
                    -0.9804596855386952,
                    -0.9189391999123789,
                    -0.64869488104984,
                    -1.4134722494570122,
                    -0.7454378273022295,
                    -1.0444792040858846,
                    -0.5671446402822736,
                    1.6980788487404526,
                    1.3404364788169225,
                    1.8868722297891993,
                    -0.5797963564096958,
                    0.8528104892244053,
                    -1.0792850131383496,
                    0.6201194556600835,
                    0.5177972125146176,
                    2.1719252547013297,
                    -0.04888328640189034,
                    -1.9394078006625828,
                    0.5140732975888487,
                    -1.0483094240761295,
                    0.4178437400677927,
                    0.029805969843121644,
                    -0.5876487780629933,
                    -0.40794771572813815,
                    -0.00855936551526615,
                    -0.4805683502426012,
                    0.7208650996305039,
                    -0.4670587254566739,
                    -0.5267006924579206,
                    0.4155975847962102,
                    -0.7126393414037964,
                    -1.5449172668542512,
                    0.8650849756431931,
                    -0.37796368873455544,
                    0.14361686888067968,
                    0.5391609307827145,
                    0.75009670807952,
                    -0.276674736160262,
                    0.22951198396025282,
                    -1.0826102716547255,
                    -0.07066431143061754,
                    0.438319227045977,
                    1.1563485482964302,
                    1.6925711480656047,
                    0.14848289749636068,
                    0.2758337993990717,
                    -1.1490314658140748,
                    0.8407593145760932,
                    -0.2787825847144301,
                    0.7232430555862469,
                    -0.576286383994471,
                    0.785466657162619,
                    -0.6920316907529603,
                    -0.7494173953571891,
                    0.7156214165157418,
                    -0.21011868729239655,
                    0.09166302046472691,
                    0.06985987695117023,
                    -0.09526568138515279,
                    -0.1840358635291897,
                    2.144087928768617,
                    1.077990881224422,
                    -0.030677779620726073,
                    -0.24489316112634027,
                    -0.3106113078993077,
                    0.8768708887802343,
                    -0.8145119770960902,
                    -0.45104032587014875,
                    -0.11162642570355304,
                    0.07065368468937337,
                    1.5360100940180623,
                    -0.21129309336647034,
                    -0.4094119492988898,
                    0.6921937161210587,
                    -1.367049220083892,
                    -0.18829512633121287,
                    -0.44798689656986085,
                    0.2322247147508817,
                    1.0594251531975702,
                    0.783663473611786,
                    -0.07011959008047461,
                    0.0853400091720538,
                    -0.23560381240166564,
                    -0.4526173256468061,
                    1.1054462770116606,
                    0.026678910569204732,
                    0.6748608262689872,
                    -0.6645233578754274,
                    1.0906682987453575,
                    -0.050002706914173724,
                    -0.2070616410027291,
                    0.7582543841223962,
                    -0.35426307082723935,
                    0.7178720718023817,
                    1.215091949404983,
                    -0.7823970881321771,
                    -0.3039126384373334,
                    -0.5585642726589204,
                    0.07445632747497397,
                    0.46462642800176507,
                    -0.06375283443753733,
                    2.301642152070139,
                    0.4360425761067352,
                    -0.43768891407881066,
                    0.0027311691271829086,
                    -0.34672063808128056,
                    -0.16464434216506288,
                    0.7586998677787673,
                    0.36393093699590123,
                    0.5465183281454125,
                    -0.2439328968312063,
                    1.0992912256259615,
                    0.18123938874810497,
                    1.0554287899791766,
                    -0.09194611011694155,
                    -1.0840120587972006,
                    -0.24952110688522702,
                    -0.19693585233146083,
                    -0.9852632861508727,
                    -0.4741198828001777,
                    1.9560770840880393,
                    0.29937337849668016,
                    -0.835027517337739,
                    1.84379534450192,
                    -0.8295418771766108,
                    -0.5752082798856805,
                    0.8967524641051968,
                    0.3386271911646559,
                    0.627858376408124,
                    0.21026522997959315,
                    0.09862155225903144,
                    -0.6998505262608881,
                    0.9711585937377769,
                    -1.3385576707524556,
                    0.10896093119328648,
                    -1.061334165741698,
                    -0.7086124504120462,
                    1.0628015314329768,
                    -0.23544128077787255,
                    0.6484982658320145,
                    -0.020011684115464334,
                    0.6887580173562216,
                    0.5444000371387231,
                    0.340823602677909,
                    -0.6386797412326995,
                    -0.5672185755359214,
                    0.23333647984746209,
                    0.5692101873752436,
                    0.5451249832744743,
                    1.2311504073592692,
                    0.4507389987653866,
                    -0.6106882837164975,
                    0.29517053243932195,
                    0.6468734030068873,
                    -1.0231068794908502,
                    -1.2438199371941563,
                    0.04209088840945566,
                    -0.2757742239689098,
                    -0.1762239956781161,
                    -0.006260357198159018,
                    0.8495121939641689,
                    0.8755276063775979,
                    0.15256117276262873,
                    -0.7725083809343652,
                    0.8998702800172738,
                    0.7901299218506413,
                    -0.2121583755277798,
                    -0.4003462448329113,
                    0.35549685768747,
                    1.3538065393797687,
                    -0.756686632948923,
                    -0.07582841427047436,
                    0.22507779608315073,
                    2.117557228068666,
                    0.008879717932725522,
                    1.5862976236813209,
                    0.388813577892216,
                    1.8871790689572778,
                    0.34185339990459485,
                    1.3154882781965278,
                    0.4122148656565556,
                    0.11554571606163663,
                    -0.958117568535351,
                    -0.7883156671416314,
                    1.0249113986517902,
                    0.8802771201057852,
                    0.23625859866257415,
                    0.2455771045965549,
                    -0.054058600568928854,
                    -0.5060584474225326,
                    0.2023163162022867,
                    0.5786514037550822,
                    -0.971800470457546,
                    3.1184418596985735,
                    -1.2096783983729085,
                    0.7877258844547622,
                    0.8111684952676472,
                    0.7948339941122552,
                    0.4160482771639628,
                    1.7664447796761351,
                    0.3968916725115787,
                    -0.45555121933327447,
                    0.3751369236759712,
                    1.0825755845557117,
                    0.12344745418112896,
                    0.39252564390587635,
                    -0.579440674742317,
                    -0.09026956071046646,
                    0.49788249921777367,
                    -0.22793862835603834,
                    0.7737250652611707,
                    -0.6349485779185731,
                    0.4423957507565122,
                    0.011304929192142573,
                    0.7432380735840965,
                    1.389172502950485,
                    0.44759122555504505,
                    -0.15464547403138454,
                    -0.33231094400495204,
                    0.18434058318877874,
                    0.15419790725896843,
                    0.22200402684535428,
                    0.2974611819788418,
                    -0.29598160014741165,
                    -0.08042999233066339,
                    -0.6898354134983182,
                    0.26285047047512883,
                    0.9363099902010711
                ],
                [
                    0.4964398282021653,
                    0.2995913678598352,
                    0.03442487367432165,
                    -0.6103708848334669,
                    -0.6023180276655214,
                    -0.3525535186824495,
                    -0.5117154011339808,
                    1.0729324313969757,
                    0.12939961415554346,
                    -0.18651030253411313,
                    0.5199852665967442,
                    0.749713652201032,
                    -1.883120063794312,
                    -0.41986400970470433,
                    -0.4830458651701833,
                    0.8972184558855015,
                    0.5723968932225494,
                    0.07358881912830449,
                    0.24258302407873844,
                    -0.34300252730663205,
                    -0.3118929999125077,
                    -0.13637528278608907,
                    -0.9385651942754187,
                    -0.12480756059610096,
                    -1.0466245644467616,
                    -1.2352022190020595,
                    -0.6608043635755946,
                    -0.19493006875127689,
                    0.7327161689397689,
                    -0.1632723371001161,
                    -1.6319221700813633,
                    -1.87313451606995,
                    -0.40633422686582027,
                    -0.9105470638695876,
                    0.21884140490072157,
                    -1.395372161241652,
                    -0.8016216895512868,
                    0.4555489348411727,
                    1.5026482100066498,
                    0.5188736739706318,
                    -0.19735072699409728,
                    -0.418749468565784,
                    -1.1635301079699505,
                    0.8039469720145855,
                    -1.2909269698067598,
                    0.5909491939908083,
                    0.08332423653956679,
                    -0.521304362084735,
                    -1.7213033784795622,
                    -0.7200207835720311,
                    -0.3676487807634228,
                    -0.1488346262035703,
                    0.9786292853394285,
                    -0.983383040339898,
                    0.3329619428723833,
                    -1.222660016759931,
                    0.11876289934294425,
                    -0.7359196843843051,
                    1.3709483474711788,
                    -1.007935687940557,
                    0.6752968764683874,
                    -1.0447281349547353,
                    -0.09590360656078736,
                    0.09331285278148584,
                    0.2197827380100475,
                    0.05666480127015757,
                    -1.142559211602508,
                    -0.14875775573575212,
                    0.9333173598534616,
                    0.1695089677028158,
                    0.02167196440444627,
                    -0.3304731297996163,
                    -0.03902835426596538,
                    0.09525892729937076,
                    -0.3095094553757555,
                    -0.6150251974714543,
                    0.2455242016521695,
                    1.303523322683352,
                    0.06405160145623887,
                    0.2253297518004695,
                    0.1650787131733294,
                    -0.47211242375592805,
                    -0.600727240323188,
                    -0.5686276052313703,
                    0.19766449188001772,
                    -0.7556305276389798,
                    0.39270699221799954,
                    -0.16584762088843102,
                    0.08528492899997688,
                    0.03802013263694137,
                    -0.8424693254287732,
                    -0.6582519344619643,
                    0.4901343258087905,
                    -0.3629480624217568,
                    -0.13436784653701073,
                    -0.6365244900399811,
                    -0.5599528483389317,
                    -0.17044646556737625,
