{
    "layers": [
        {
            "weights": [
                [
                    -0.7886779308319092,
                    0.8111749291419983,
                    -0.525885820388794,
                    0.398636132478714,
                    -0.3076035678386688,
                    0.21938712894916534,
                    0.8094637393951416,
                    -1.1093151569366455,
                    0.44809287786483765,
                    0.20875588059425354,
                    -0.3383053243160248,
                    -0.6728842854499817,
                    -1.4516680240631104,
                    -2.0423831939697266,
                    -2.4955661296844482,
                    1.109542727470398,
                    0.14947974681854248,
                    -1.4890612363815308,
                    -0.8286983370780945,
                    0.7414577603340149,
                    -0.16918623447418213,
                    2.2665903568267822,
                    -0.852032482624054,
                    -0.36992743611335754,
                    0.31234726309776306,
                    0.34155160188674927,
                    0.3034496009349823,
                    -0.41143038868904114,
                    0.8001082539558411,
                    0.5616924166679382,
                    -1.7445038557052612,
                    -0.004735040944069624,
                    0.068459652364254,
                    -0.27082931995391846,
                    -2.0256292819976807,
                    -0.16255410015583038,
                    0.787602424621582,
                    -2.174466848373413,
                    3.085230588912964,
                    -0.7087051272392273,
                    -2.1216347217559814,
                    0.03472433239221573,
                    -1.1812490224838257,
                    -2.020883798599243,
                    1.4625072479248047,
                    1.160653829574585,
                    1.455254316329956,
                    0.09386603534221649,
                    -0.4329330623149872,
                    -0.6704554557800293,
                    -1.5517195463180542,
                    -0.3922729194164276,
                    -0.7387668490409851,
                    -0.8931002616882324,
                    -1.7704113721847534,
                    -0.5833991169929504,
                    1.9777467250823975,
                    2.2484500408172607,
                    2.733267307281494,
                    -2.5258641242980957,
                    0.4190211594104767,
                    -1.206790566444397,
                    0.9178810119628906,
                    0.5392618179321289,
                    1.2831119298934937,
                    -1.488123893737793,
                    -0.6273999214172363,
                    -0.24953995645046234,
                    -1.252415418624878,
                    -1.9504103660583496,
                    1.1328654289245605,
                    1.381465196609497,
                    1.0374937057495117,
                    0.5190842151641846,
                    0.057851728051900864,
                    0.6683920621871948,
                    -0.7535827159881592,
                    -0.4459399878978729,
                    0.4379259943962097,
                    -0.771338939666748,
                    0.9933916926383972,
                    1.8693673610687256,
                    0.16373051702976227,
                    -1.9900332689285278,
                    -0.1333640217781067,
                    -0.8286036849021912,
                    1.4971246719360352,
                    -1.471264362335205,
                    -1.6355751752853394,
                    -0.0968032255768776,
                    -0.9628878235816956,
                    0.5967612266540527,
                    -0.5138727426528931,
                    0.6756163835525513,
                    1.1234519481658936,
                    -0.4673532247543335,
                    -2.638899087905884,
                    0.6200664043426514,
                    0.29024291038513184,
                    0.9249321818351746,
                    -0.4055651128292084,
                    2.0669431686401367,
                    -1.4357340335845947,
                    1.9017692804336548,
                    -0.39658254384994507,
                    -0.03680012375116348,
                    1.426194667816162,
                    -0.3021523952484131,
                    -1.9635646343231201,
                    0.6883838772773743,
                    -1.9034901857376099,
                    -0.5444202423095703,
                    -0.7421627640724182,
                    -0.6433791518211365,
                    -0.45916688442230225,
                    0.9225845336914062,
                    1.964874267578125,
                    0.9347537755966187,
                    -0.1646994799375534,
                    1.8093746900558472,
                    0.38506191968917847,
                    -0.17129990458488464,
                    0.9625492691993713,
                    1.0185461044311523,
                    -1.0294140577316284,
                    -2.8325746059417725,
                    -0.638404369354248,
                    0.7051827907562256,
                    0.6952414512634277,
                    0.24088001251220703,
                    0.15207329392433167,
                    0.46818235516548157,
                    0.8815433382987976,
                    1.4575797319412231,
                    0.42572328448295593,
                    0.422189861536026,
                    1.2684091329574585,
                    1.686118721961975,
                    2.1324174404144287,
                    -0.8627558350563049,
                    -1.8943910598754883,
                    0.1487065702676773,
                    1.5519460439682007,
                    -1.2666786909103394,
                    -0.2504657208919525,
                    1.3591655492782593,
                    -0.47868630290031433,
                    -0.39225324988365173,
                    0.36904212832450867,
                    0.3436472713947296,
                    0.2506364583969116,
                    -0.7471936941146851,
                    -0.9721099734306335,
                    0.321714848279953,
                    0.14801307022571564,
                    2.2615952491760254,
                    0.4956822097301483,
                    -0.04919563606381416,
                    0.3388139009475708,
                    -1.40851891040802,
                    -0.18640604615211487,
                    -0.91902756690979,
                    -0.5416658520698547,
                    -0.7471932172775269,
                    -0.4085090160369873,
                    0.4851839244365692,
                    0.6793767213821411,
                    1.0132107734680176,
                    1.2858232259750366,
                    -0.2237524539232254,
                    -0.6110090017318726,
                    -1.1504231691360474,
                    0.2175036519765854,
                    1.699877142906189,
                    -0.0368877649307251,
                    -0.2354864478111267,
                    -2.136190414428711,
                    1.7001124620437622,
                    -0.8722988367080688,
                    -0.6575766205787659,
                    -1.4422706365585327,
                    -0.9456208348274231,
                    -0.9306487441062927,
                    0.2997182607650757,
                    0.29761409759521484,
                    0.5258313417434692,
                    1.9050222635269165,
                    -1.1097358465194702,
                    0.6341196298599243,
                    -0.7205944061279297,
                    -2.0395102500915527,
                    1.5431323051452637,
                    -2.1832706928253174,
                    -0.3733653128147125,
                    -0.6821901798248291,
                    -2.968308210372925,
                    2.0465142726898193,
                    -0.19036076962947845,
                    0.9896624684333801,
                    0.5045925378799438,
                    -0.7793789505958557,
                    0.11209757626056671,
                    0.44465360045433044,
                    0.7850680351257324,
                    -0.9058966040611267,
                    0.34366458654403687,
                    0.057772234082221985,
                    0.031443022191524506,
                    -0.2661944627761841,
                    -0.9455258250236511,
                    1.4150806665420532,
                    -1.091531753540039,
                    -0.5817509293556213,
                    -1.650334358215332,
                    1.501844048500061,
                    -0.5997601747512817,
                    -1.859760046005249,
                    1.5317438840866089,
                    -0.5408654808998108,
                    0.7632176876068115,
                    -1.352053165435791,
                    1.7915147542953491,
                    2.288065195083618,
                    -0.5543066263198853,
                    0.15631797909736633,
                    0.6131831407546997,
                    0.8689972758293152,
                    1.36430025100708,
                    -2.5389404296875,
                    0.04020193591713905,
                    -0.005052086431533098,
                    -1.5528517961502075,
                    -0.31519338488578796,
                    0.05038824304938316,
                    -1.0723415613174438,
                    -0.7967746257781982,
                    0.30481410026550293,
                    1.2432299852371216,
                    0.16940881311893463,
                    -0.7253820896148682,
                    -0.26728659868240356,
                    2.380082845687866,
                    -1.147004246711731,
                    -0.8975765109062195,
                    -2.6925430297851562,
                    0.2959686517715454,
                    0.7057276964187622,
                    0.7873574495315552,
                    -0.5622925758361816,
                    -0.48121505975723267,
                    0.20284762978553772,
                    0.61126708984375,
                    -0.7782313823699951,
                    -0.21499672532081604,
                    -0.024554362520575523,
                    -0.3028738796710968,
                    2.1167969703674316,
                    0.16921523213386536,
                    0.09500762820243835,
                    1.118385672569275,
                    0.10208290070295334,
                    -0.2548491060733795,
                    -1.9973286390304565,
                    -0.0010076179169118404,
                    0.3277205228805542,
                    0.2588793635368347,
                    -1.996873140335083,
                    2.1149799823760986,
                    0.9256336092948914,
                    -0.9481375217437744,
                    -1.400243878364563,
                    0.9330623149871826,
                    1.3293485641479492,
                    -0.8368439674377441,
                    0.1147996336221695,
                    0.3699655830860138,
                    1.790786623954773,
                    -0.5943366289138794,
                    0.8716636300086975,
                    0.8777651786804199,
                    0.07989716529846191,
                    0.6092714071273804,
                    2.6281425952911377,
                    -0.6439531445503235,
                    -0.9457186460494995,
                    -1.8596103191375732,
                    0.15530937910079956,
                    1.2452003955841064,
                    -3.742178201675415,
                    -1.2175931930541992,
                    0.10792399197816849,
                    -0.26589730381965637,
                    -1.216952919960022,
                    -0.9146715402603149,
                    -1.3324291706085205,
                    -1.7376030683517456,
                    -1.4006520509719849,
                    -0.6329641342163086,
                    -0.9221937656402588,
                    1.485871434211731,
                    -1.509347677230835,
                    0.5863364934921265,
                    1.6590200662612915,
                    0.05640897899866104,
                    1.730346441268921,
                    0.3030848503112793,
                    -3.6160383224487305,
                    0.905665934085846,
                    -1.3322861194610596,
                    -1.1246867179870605,
                    0.2681359052658081,
                    0.2593030631542206,
                    -0.4008890688419342,
                    0.553148090839386,
                    -1.1007885932922363,
                    -0.42594313621520996,
                    -0.6651696562767029,
                    -0.31055334210395813,
                    0.3094678819179535,
                    1.830916404724121,
                    -0.028535649180412292,
                    0.41761237382888794,
                    -0.27868539094924927,
                    -0.8076544404029846,
                    2.773568630218506,
                    -0.6290540099143982,
                    -0.35404738783836365,
                    0.22686858475208282,
                    -0.3530850410461426,
                    -1.7829021215438843,
                    0.42326620221138,
                    1.6429436206817627,
                    -0.15540987253189087,
                    -0.5545767545700073,
                    1.0915454626083374,
                    1.2058507204055786,
                    -2.5945897102355957,
                    1.4984279870986938,
                    -0.8539509773254395,
                    1.0752469301223755,
                    -0.21994730830192566,
                    1.2544479370117188,
                    0.7167627215385437,
                    0.5987984538078308,
                    -0.6684632897377014,
                    -0.16759386658668518,
                    1.3637017011642456,
                    0.10478436946868896,
                    -0.5620080232620239,
                    -0.6559323072433472,
                    -0.21800361573696136,
                    -1.429466962814331,
                    -1.874613881111145,
                    -0.21879388391971588,
                    -0.43751949071884155,
                    1.7104418277740479,
                    -0.9694378972053528,
                    -2.01877498626709,
                    -1.4714761972427368,
                    -0.31391480565071106,
                    1.1187736988067627,
                    -0.921930730342865,
                    1.947759985923767,
                    0.9994683861732483,
                    0.8810027837753296,
                    1.6586575508117676,
                    -1.2481845617294312,
                    2.1275336742401123,
                    0.7174782156944275,
                    -0.736382782459259,
                    -0.3139353394508362,
                    -2.1537694931030273,
                    0.8060614466667175,
                    -0.3794603943824768,
                    0.061061304062604904,
                    1.1589555740356445,
                    0.41012042760849,
                    -0.42733585834503174,
                    0.29324111342430115,
                    -2.823718309402466,
                    -0.9691467881202698,
                    -1.3907595872879028,
                    -0.22797933220863342,
                    -1.0321781635284424,
                    -0.47291994094848633,
                    -0.20816200971603394,
                    -0.19672910869121552,
                    3.9068028926849365,
                    -0.41955357789993286,
                    -0.7825852036476135,
                    -0.06288118660449982,
                    0.19374650716781616,
                    -1.730187177658081,
                    -1.1532816886901855,
                    0.914778470993042,
                    -0.9391172528266907,
                    0.26125097274780273,
                    -1.9712367057800293,
                    -0.7304826378822327,
                    2.090132713317871,
                    -0.259808748960495,
                    -0.36198315024375916,
                    -2.4046151638031006,
                    1.2248903512954712,
                    -1.083450198173523,
                    0.047806497663259506,
                    0.5315768122673035,
                    1.6781244277954102,
                    -0.8198810815811157,
                    0.41934505105018616,
                    -0.33004024624824524,
                    -0.2074582427740097,
                    0.7903598546981812,
                    0.19412462413311005,
                    0.49816226959228516,
                    0.6599803566932678,
                    1.626059651374817,
                    0.8296117782592773,
                    -1.305572748184204,
                    0.12535619735717773,
                    1.0985769033432007,
                    -1.1420615911483765,
                    1.1176762580871582,
                    -0.3247451186180115,
                    -1.2552319765090942,
                    -1.3078405857086182,
                    -1.9553874731063843,
                    2.4025509357452393,
                    -1.03641676902771,
                    0.31917551159858704,
                    0.6339021921157837,
                    2.525843620300293,
                    0.48194196820259094,
                    -0.39547619223594666,
                    0.61220383644104,
                    0.6419249773025513,
                    -0.6268997192382812,
                    -0.3835490345954895,
                    -1.914394736289978,
                    1.6208113431930542,
                    0.17878060042858124,
                    2.7310869693756104,
                    0.9574836492538452,
                    -0.2938689589500427,
                    0.18202368915081024,
                    -1.6776878833770752,
                    -0.023510748520493507,
                    1.4881300926208496,
                    -0.2592241168022156,
                    -0.8700705170631409,
                    2.150240898132324,
                    0.4077393710613251,
                    -0.6509186029434204,
                    2.3761379718780518,
                    -0.5637316107749939,
                    1.8565672636032104,
                    1.4496289491653442,
                    -1.1042201519012451,
                    -0.031606707721948624,
                    -0.8886162638664246,
                    1.135031819343567,
                    0.1348746418952942,
                    -1.2124382257461548,
                    0.8474083542823792,
                    0.6550336480140686,
                    -0.8757595419883728,
                    -1.162909984588623,
                    0.8892470598220825,
                    -0.7200044393539429,
                    0.10002361983060837,
                    0.37807273864746094,
                    -0.7237403392791748,
                    -1.630279779434204,
                    -0.517433762550354,
                    -1.459897518157959,
                    -0.0646900162100792,
                    3.252516984939575,
                    -1.8721940517425537,
                    0.6917403936386108,
                    -0.7422625422477722,
                    0.8766261339187622,
                    -0.4514244794845581,
                    1.8819602727890015,
                    0.5078952312469482,
                    0.4239404499530792,
                    -1.0575469732284546,
                    -1.6561107635498047,
                    -1.0513174533843994,
                    2.3758060932159424,
                    -1.5379579067230225,
                    1.5648969411849976,
                    1.095896601676941,
                    -1.6600590944290161,
                    -3.5137412548065186,
                    0.48573553562164307,
                    0.8004754185676575,
                    0.9113814234733582,
                    -0.2365848422050476,
                    0.10266802459955215,
                    1.7864116430282593,
                    -1.1332523822784424,
                    -2.1059672832489014,
                    -0.4968539774417877,
                    1.5599232912063599,
                    -0.2119031399488449,
                    -1.9259140491485596,
                    0.6697874665260315,
                    -2.8356411457061768,
                    1.1350096464157104,
                    0.29623791575431824,
                    -2.0953173637390137,
                    0.35148122906684875,
                    -2.431845188140869,
                    1.6077548265457153,
                    -0.805968165397644,
                    -1.2694542407989502,
                    -0.05912020057439804,
                    -0.5410245060920715,
                    0.3853958249092102,
                    0.6876028776168823,
                    -1.162290334701538,
                    -1.5449235439300537,
                    -0.22112993896007538,
                    0.3858655095100403,
                    0.94843989610672,
                    1.8499424457550049,
                    1.37502121925354,
                    -0.3159678876399994,
                    -2.4994759559631348,
                    -0.31794360280036926,
                    0.6778789162635803,
                    0.4455409348011017,
                    1.461687684059143,
                    -0.7101478576660156,
                    1.126643419265747,
                    -1.1798787117004395,
                    0.3637371361255646,
                    -1.5575993061065674,
                    0.9325550198554993,
                    -0.15662632882595062,
                    0.6476666927337646,
                    0.7932112216949463,
                    -1.9926509857177734,
                    -2.316377878189087,
                    -0.7251289486885071,
                    2.0385639667510986,
                    -1.3857885599136353,
                    -0.668511152267456,
                    -0.5493540167808533,
                    0.7518660426139832,
                    0.30268529057502747,
                    0.7152900695800781,
                    0.9504770636558533,
                    -1.3674465417861938,
                    1.276822805404663,
                    0.05593081936240196,
                    -2.106170415878296,
                    -0.39113423228263855,
                    1.1933180093765259,
                    0.8239315748214722,
                    -1.5692211389541626,
                    -1.527247428894043,
                    -0.5860975980758667,
                    -0.11722970008850098,
                    -2.368917465209961,
                    -0.8167867064476013,
                    -1.5721732378005981,
                    0.7391648292541504,
                    2.0314767360687256,
                    1.2689852714538574,
                    -2.228423595428467,
                    -1.563446283340454,
                    -1.6171752214431763,
                    1.4299010038375854,
                    -0.5085113048553467,
                    1.771179437637329,
                    -1.2573751211166382,
                    -0.42500701546669006,
                    -0.9273035526275635,
                    1.9538885354995728,
                    -0.4912368953227997,
                    1.0222537517547607,
                    1.1580649614334106,
                    -0.2598956227302551,
                    0.3917064070701599,
                    -0.899308443069458,
                    -0.5312647819519043,
                    1.175939917564392,
                    -1.1151548624038696,
                    0.8289626240730286,
                    0.16738782823085785,
                    -1.8860760927200317,
                    0.331522673368454,
                    1.4129736423492432,
                    -0.8887709379196167,
                    -1.3245630264282227,
                    0.6989863514900208,
                    -0.5254819989204407,
                    -1.3597371578216553,
                    -1.1491862535476685,
                    -1.1617710590362549,
                    0.7246851921081543,
                    1.5665761232376099,
                    -0.1980171948671341,
                    -0.7746984362602234,
                    -1.869083285331726,
                    0.2807233929634094,
                    -0.8091869950294495,
                    -1.1467196941375732,
                    0.5135777592658997,
                    -1.896998643875122,
                    -0.6380107402801514,
                    -0.15622079372406006,
                    -0.7847023010253906,
                    -1.1757138967514038,
                    -0.944703221321106,
                    0.3795098066329956,
                    0.37005680799484253,
                    -0.11995021998882294,
                    -1.063723087310791,
                    0.6089679598808289,
                    0.04470860958099365,
                    0.8885197639465332,
                    -1.4186487197875977,
                    -1.9372540712356567,
                    0.03615058958530426,
                    0.723615825176239,
                    1.8548098802566528,
                    2.4807636737823486,
                    0.8474563956260681,
                    1.1379797458648682,
                    2.0123801231384277,
                    -1.417357325553894,
                    0.9906631112098694,
                    -0.796760618686676,
                    -2.4507133960723877,
                    -1.6419063806533813,
                    -0.17854967713356018,
                    0.38564151525497437,
                    0.3906736671924591,
                    0.056468069553375244,
                    -1.5445127487182617,
                    -0.9901580810546875,
                    1.3382207155227661,
                    0.054440174251794815,
                    2.0069494247436523,
                    0.4538628160953522,
                    0.5655929446220398,
                    -0.5121609568595886,
                    0.9364351630210876,
                    -2.2420225143432617,
                    1.3959277868270874,
                    -0.20902858674526215,
                    -1.7338958978652954,
                    0.873982846736908,
                    0.5985597372055054,
                    -0.2821679413318634,
                    -0.5680955052375793,
                    2.420745372772217,
                    0.6086925268173218,
                    -2.0615599155426025,
                    2.0430240631103516,
                    1.63649320602417,
                    -0.5619134902954102,
                    0.2084130495786667,
                    1.501426339149475,
                    -0.037501804530620575,
                    -1.177659511566162,
                    -1.2226667404174805,
                    0.4209287464618683,
                    1.073020339012146,
                    -1.7911086082458496,
                    -1.0779608488082886,
                    -0.33842962980270386,
                    0.2360331118106842,
                    -0.5441287755966187,
                    0.8734109401702881,
                    0.795799195766449,
                    -0.3968219757080078,
                    0.913516104221344,
                    -1.2164795398712158,
                    0.8409099578857422,
                    -1.4357510805130005,
                    -1.5473469495773315,
                    -0.973302960395813,
                    0.6246869564056396,
                    -0.3705179691314697,
                    -1.0069241523742676,
                    -2.216876983642578,
                    0.7312389016151428,
                    -0.3281436860561371,
                    2.4392642974853516,
                    -0.3017611801624298,
                    0.29058995842933655,
                    -0.33450329303741455,
                    -0.5471751093864441,
                    1.1542291641235352,
                    -0.4060571789741516,
                    1.649695634841919,
                    -1.6706814765930176,
                    1.6422467231750488,
                    0.3766884505748749,
                    0.22225163877010345,
                    0.6287143230438232,
                    1.5362205505371094,
                    0.04114295914769173,
                    0.8224673271179199,
                    -1.313879370689392,
                    1.3946646451950073,
                    -0.38697314262390137,
                    0.6290844082832336,
                    -1.833573579788208,
                    -0.7955270409584045,
                    -2.545938491821289,
                    -0.6458750367164612,
                    -1.3268897533416748,
                    1.1339020729064941,
                    0.6297745704650879,
                    2.722435235977173,
                    -1.343022346496582,
                    -0.4535408914089203,
                    0.2834366261959076,
                    2.4451746940612793,
                    0.8482003211975098,
                    -0.6715414524078369,
                    -1.4110268354415894,
                    -0.8516290783882141,
                    -1.456575870513916,
                    -0.03171534836292267,
                    -0.14905783534049988,
                    -0.06318983435630798,
                    1.528955340385437,
                    1.8387137651443481,
                    0.2924944758415222,
                    -0.7644431591033936,
                    1.344408392906189,
                    0.5199175477027893,
                    0.6561396718025208,
                    -0.12739498913288116,
                    -0.11066361516714096,
                    1.4063485860824585,
                    1.9164032936096191,
                    -0.7861746549606323,
                    -1.4997001886367798,
                    1.1374647617340088,
                    0.5351178646087646,
                    -1.4041969776153564,
                    -1.4143824577331543,
                    -0.3957776725292206,
                    1.2393373250961304,
                    -1.9432779550552368,
                    0.56717848777771,
                    0.6166412234306335,
                    -1.3129541873931885,
                    -1.6357899904251099,
                    0.7731391787528992,
                    3.2133162021636963,
                    -0.33841386437416077,
                    0.9701269268989563,
                    -1.0929136276245117,
                    3.0712263584136963,
                    0.2003791779279709,
                    -0.04820207133889198,
                    -0.8964678049087524,
                    -0.2907924950122833,
                    -1.532247543334961,
                    0.503635585308075,
                    -0.06208566576242447,
                    0.057720087468624115,
                    1.2201755046844482,
                    0.11827380210161209,
                    -0.8078505396842957,
                    -3.467494010925293,
                    0.7718290090560913,
                    1.113204002380371,
                    -0.7519305944442749,
                    0.47233879566192627,
                    -1.3391786813735962,
                    0.5313583612442017,
                    1.2515568733215332,
                    0.47461071610450745,
                    -1.681169867515564,
                    -0.19807802140712738,
                    -0.16707095503807068
                ],
                [
                    -2.5801773071289062,
                    -0.738724946975708,
                    1.0959666967391968,
                    0.5154395699501038,
                    -0.19241264462471008,
                    0.23086805641651154,
                    2.896416187286377,
                    0.7544399499893188,
                    0.006439088843762875,
                    0.46928834915161133,
                    0.17476895451545715,
                    1.162617802619934,
                    1.2218130826950073,
                    1.297073483467102,
                    -2.4482882022857666,
                    -2.5853495597839355,
                    -0.7488351464271545,
                    0.8438313603401184,
                    1.771264672279358,
                    0.3861085772514343,
                    -0.4547610878944397,
                    2.01054310798645,
                    1.5058748722076416,
                    -0.49197515845298767,
                    0.3182258605957031,
                    -2.094013214111328,
                    0.19553764164447784,
                    3.102036714553833,
                    0.44030267000198364,
                    0.9894566535949707,
                    -0.6934002041816711,
                    0.5385558605194092,
                    -0.7610467672348022,
                    0.025782085955142975,
                    0.8745416402816772,
                    -2.483957052230835,
                    -1.2409297227859497,
                    0.30904069542884827,
                    -0.639416515827179,
                    0.8212333917617798,
                    -2.2281699180603027,
                    0.22608014941215515,
                    -1.363156795501709,
                    0.3312048316001892,
                    1.3698512315750122,
                    1.4399242401123047,
                    -0.6503196954727173,
                    -2.502511739730835,
                    2.6359856128692627,
                    -0.25281792879104614,
                    1.552137017250061,
                    -0.01606030762195587,
                    1.2105746269226074,
                    0.9711635112762451,
                    0.5363814830780029,
                    0.3169020116329193,
                    -0.5195589661598206,
                    0.30888280272483826,
                    0.85049968957901,
                    -0.14120133221149445,
                    0.6377983689308167,
                    -1.5963462591171265,
                    -1.3178261518478394,
                    3.7891483306884766,
                    -1.3295831680297852,
                    0.2738359868526459,
                    -1.787353277206421,
                    0.1084497794508934,
                    -0.6589375138282776,
                    -0.6874341368675232,
                    0.713435709476471,
                    -0.21970964968204498,
                    0.389597088098526,
                    -0.2699515223503113,
                    -0.30159664154052734,
                    -0.6258395314216614,
                    -2.6782140731811523,
                    -0.19126662611961365,
                    1.1419408321380615,
                    1.6597391366958618,
                    1.6519941091537476,
                    1.671128273010254,
                    0.09370294958353043,
                    0.4545757472515106,
                    -0.9373986124992371,
                    2.331557512283325,
                    -1.6074925661087036,
                    -2.0064566135406494,
                    -1.1138639450073242,
                    0.35225820541381836,
                    0.27525344491004944,
                    0.7068667411804199,
                    0.6446785926818848,
                    1.0848273038864136,
                    0.08878543227910995,
                    1.135432481765747,
                    0.8283547759056091,
                    0.5504788756370544,
                    -3.159144163131714,
                    0.5424027442932129,
                    0.4093855321407318,
                    -2.0288617610931396,
                    -1.7201989889144897,
                    -0.33596348762512207,
                    0.9045147895812988,
                    -2.898724317550659,
                    -1.7541230916976929,
                    0.6480520367622375,
                    0.5751964449882507,
                    -0.2816247344017029,
                    -0.13687197864055634,
                    0.1450473964214325,
                    -0.9962542057037354,
                    -0.6502413749694824,
                    0.2443445473909378,
                    -1.919437289237976,
                    -0.5443150401115417,
                    -1.75569748878479,
                    1.6018284559249878,
                    -0.6591158509254456,
                    -0.1924927830696106,
                    -1.9434436559677124,
                    0.25702640414237976,
                    1.038047432899475,
                    -1.344085693359375,
                    -0.27544736862182617,
                    1.1149418354034424,
                    2.6816060543060303,
                    1.7756109237670898,
                    -0.5842917561531067,
                    1.5695438385009766,
                    1.6878007650375366,
                    0.5134404897689819,
                    -1.611114501953125,
                    0.980503499507904,
                    -1.6167773008346558,
                    2.5191140174865723,
                    -0.6334760785102844,
                    -1.0130987167358398,
                    0.8451741933822632,
                    0.31055718660354614,
                    2.552493095397949,
                    -0.9280700087547302,
                    -0.35325536131858826,
                    0.9989413619041443,
                    0.37275511026382446,
                    -1.8878973722457886,
                    0.8333002924919128,
                    1.0757132768630981,
                    -1.313344955444336,
                    -0.14344698190689087,
                    0.06257908791303635,
                    -1.1998445987701416,
                    -0.6562480926513672,
                    -0.8097026944160461,
                    0.7905053496360779,
                    -0.5957804918289185,
                    -0.41228434443473816,
                    -1.278800129890442,
                    1.4005513191223145,
                    2.2849535942077637,
                    -2.5663719177246094,
                    -0.9217919111251831,
                    2.102210521697998,
                    -0.11350949108600616,
                    -0.06491850316524506,
                    -0.6264522075653076,
                    0.06930502504110336,
                    -1.1699265241622925,
                    0.9376014471054077,
                    1.5336573123931885,
                    -0.44454604387283325,
                    -0.11062061786651611,
                    0.9003388285636902,
                    -0.7693055272102356,
                    -1.284077525138855,
                    -2.1624348163604736,
                    -0.9488826394081116,
                    0.45870739221572876,
                    -0.8160641193389893,
                    -1.8126897811889648,
                    1.1179383993148804,
                    1.2433425188064575,
                    -0.8263347744941711,
                    1.5565341711044312,
                    0.7815936207771301,
                    -0.07186933606863022,
                    1.4723045825958252,
                    0.27344846725463867,
                    0.5685458779335022,
                    -1.7264347076416016,
                    0.2951897084712982,
                    0.9024274349212646,
                    -0.5447412729263306,
                    0.32757607102394104,
                    0.38213953375816345,
                    -0.10428877919912338,
                    -1.254737377166748,
                    0.5689992904663086,
                    -1.3330000638961792,
                    -0.3917592167854309,
                    -0.3347877562046051,
                    3.46093487739563,
                    -1.5063676834106445,
                    2.6157145500183105,
                    0.7624115943908691,
                    -1.4896457195281982,
                    -0.29675063490867615,
                    0.7076919078826904,
                    -1.3889771699905396,
                    2.2546000480651855,
                    0.5314111113548279,
                    -0.019542144611477852,
                    -2.362122058868408,
                    1.4916865825653076,
                    0.7476014494895935,
                    -0.00674273818731308,
                    -0.7695341110229492,
                    0.5445130467414856,
                    -1.3819141387939453,
                    0.7675918936729431,
                    -0.28707021474838257,
                    0.29581642150878906,
                    -0.12247037887573242,
                    2.49804949760437,
                    -0.4428042769432068,
                    -0.7783735990524292,
                    -3.065525770187378,
                    1.5816750526428223,
                    -0.6807295083999634,
                    -1.2326112985610962,
                    0.32329031825065613,
                    0.40103963017463684,
                    0.29325008392333984,
                    0.444501668214798,
                    0.10294616967439651,
                    0.777107298374176,
                    -1.097447395324707,
                    0.6847293376922607,
                    0.3337087035179138,
                    -0.28615978360176086,
                    -0.5795425176620483,
                    0.07093054056167603,
                    0.5326244235038757,
                    -0.046116672456264496,
                    0.25583961606025696,
                    -0.23830752074718475,
                    -0.19475962221622467,
                    -1.1261818408966064,
                    -0.42656126618385315,
                    -0.937713623046875,
                    0.1790281981229782,
                    1.104766607284546,
                    -1.293273687362671,
                    0.23789794743061066,
                    -1.1516532897949219,
                    0.640657901763916,
                    0.5682258605957031,
                    -0.8099538087844849,
                    -0.8357049226760864,
                    0.8084964156150818,
                    -1.442690134048462,
                    -0.44496554136276245,
                    -1.4876047372817993,
                    -1.3077346086502075,
                    -1.2533501386642456,
                    0.8008347749710083,
                    0.09826025366783142,
                    2.1787362098693848,
                    -0.359990656375885,
                    -0.689623236656189,
                    -0.07888031005859375,
                    0.05050305277109146,
                    1.755001187324524,
                    0.7994846105575562,
                    -0.17248082160949707,
                    -0.8580738306045532,
                    -0.8783454895019531,
                    -0.3206428587436676,
                    0.4868955612182617,
                    -2.751190185546875,
                    1.7587792873382568,
                    0.1408332735300064,
                    0.8043328523635864,
                    -0.8197552561759949,
                    0.2285412847995758,
                    -0.00022188038565218449,
                    -2.121613025665283,
                    -0.07789858430624008,
                    0.6767762899398804,
                    1.3879843950271606,
                    0.27406245470046997,
                    -0.7860376834869385,
                    -1.07047700881958,
                    0.4950292408466339,
                    0.18030361831188202,
                    0.7765727043151855,
                    -1.361403465270996,
                    3.3433194160461426,
                    -0.29558897018432617,
                    3.3584697246551514,
                    -0.6071795225143433,
                    -1.455724835395813,
                    -0.4658212661743164,
                    -0.3920617699623108,
                    -0.5288255214691162,
                    1.9994182586669922,
                    0.8527141213417053,
                    -0.48916783928871155,
                    -0.42116937041282654,
                    -1.3650883436203003,
                    1.272873044013977,
                    -0.1382148116827011,
                    0.9827457666397095,
                    -0.8187147378921509,
                    -0.8054261803627014,
                    1.366053581237793,
                    1.5999411344528198,
                    -1.0797134637832642,
                    -1.5901665687561035,
                    3.130690336227417,
                    -1.3186726570129395,
                    -3.3304214477539062,
                    -3.145611047744751,
                    0.3540431559085846,
                    -1.9392138719558716,
                    -0.9275462627410889,
                    -0.7676721811294556,
                    0.34311285614967346,
                    0.882202684879303,
                    1.6704026460647583,
                    -0.8837209343910217,
                    0.09403979033231735,
                    1.156118631362915,
                    0.91837078332901,
                    0.7755396962165833,
                    1.7120085954666138,
                    0.7062695026397705,
                    1.5075855255126953,
                    0.02817160077393055,
                    -1.6303701400756836,
                    0.44852855801582336,
                    0.37756118178367615,
                    0.509681761264801,
                    -0.6218884587287903,
                    -0.3164520561695099,
                    -1.711307168006897,
                    -0.31093844771385193,
                    1.3167812824249268,
                    -0.40625447034835815,
                    -0.49634793400764465,
                    0.30971693992614746,
                    -0.7152548432350159,
                    -0.7763043642044067,
                    -0.2942604422569275,
                    -1.3732033967971802,
                    -0.17100068926811218,
                    -0.8234270215034485,
                    1.5697147846221924,
                    -0.05212656781077385,
                    1.8537425994873047,
                    -0.8757990002632141,
                    0.4502985179424286,
                    -1.3780477046966553,
                    -0.3105778396129608,
                    -1.4983525276184082,
                    -0.8484998941421509,
                    0.40077468752861023,
                    0.40493348240852356,
                    -0.31918442249298096,
                    -0.7818526029586792,
                    0.03177494555711746,
                    -1.8839515447616577,
                    1.273042917251587,
                    -1.31792151927948,
                    1.2334072589874268,
                    0.133523091673851,
                    1.0502095222473145,
                    0.15030202269554138,
                    0.7396959662437439,
                    0.23372885584831238,
                    1.314552664756775,
                    -0.12261252850294113,
                    -2.0428450107574463,
                    -1.5331202745437622,
                    1.1023969650268555,
                    1.0532890558242798,
                    0.2547169625759125,
                    -1.2873568534851074,
                    -0.30088287591934204,
                    -1.2663569450378418,
                    1.0740792751312256,
                    1.0782428979873657,
                    1.9766759872436523,
                    -1.0084576606750488,
                    -0.6845751404762268,
                    -1.1743663549423218,
                    1.795625925064087,
                    1.0231670141220093,
                    -1.621952772140503,
                    0.9796388745307922,
                    3.332609176635742,
                    -0.6997772455215454,
                    0.07234605401754379,
                    0.4311830997467041,
                    -2.6892166137695312,
                    0.9623017907142639,
                    0.03209960460662842,
                    -0.346104234457016,
                    2.31190824508667,
                    1.1455367803573608,
                    1.1576573848724365,
                    -1.40278959274292,
                    -0.33720096945762634,
                    -0.8675852417945862,
                    1.8551970720291138,
                    -0.529908299446106,
                    0.2327968180179596,
                    0.4455050528049469,
                    0.8186337351799011,
                    0.1795017421245575,
                    -0.3176861107349396,
                    -0.7748686671257019,
                    -0.984491229057312,
                    1.0809507369995117,
                    -0.480837345123291,
                    2.0567479133605957,
                    0.48032596707344055,
                    0.10209973901510239,
                    -0.47359105944633484,
                    -0.7538504004478455,
                    -0.45958831906318665,
                    1.8196908235549927,
                    0.18391546607017517,
                    -1.218385100364685,
                    -0.8115047812461853,
                    -1.2963128089904785,
                    0.9257343411445618,
                    0.1213674247264862,
                    -0.0022978130728006363,
                    -0.6681355834007263,
                    1.2571940422058105,
                    0.8532522916793823,
                    -0.3485529124736786,
                    -0.4707391858100891,
                    -1.3547636270523071,
                    -1.6231043338775635,
                    2.2933602333068848,
                    0.029949098825454712,
                    0.343576043844223,
                    -0.1550901234149933,
                    -0.21605591475963593,
                    -0.7314707636833191,
                    -1.343047857284546,
                    -1.9606198072433472,
                    2.2403335571289062,
                    1.979885458946228,
                    -0.5827921628952026,
                    0.566420316696167,
                    1.38273286819458,
                    2.5311734676361084,
                    1.3043965101242065,
                    0.25792396068573,
                    -0.46628740429878235,
                    -2.2290761470794678,
                    0.34004706144332886,
                    -0.2532666027545929,
                    0.41409820318222046,
                    0.30690932273864746,
                    0.9671514630317688,
                    -1.4654356241226196,
                    1.3654208183288574,
                    -1.0471347570419312,
                    -0.4402037560939789,
                    0.4272969961166382,
                    -1.0692980289459229,
                    -0.40725037455558777,
                    2.0033717155456543,
                    2.3517515659332275,
                    0.4002607762813568,
                    -1.0762418508529663,
                    -0.4466193914413452,
                    -2.36714768409729,
                    2.357057571411133,
                    -1.5901241302490234,
                    0.8765878677368164,
                    -0.6427029967308044,
                    -0.3552669584751129,
                    1.6326273679733276,
                    0.1304318606853485,
                    2.133878231048584,
                    -1.1590222120285034,
                    0.768086314201355,
                    0.539243757724762,
                    1.0775896310806274,
                    -0.7007403373718262,
                    -1.4609813690185547,
                    -0.9532431364059448,
                    0.30530187487602234,
                    1.477027177810669,
                    -1.1250742673873901,
                    -1.1655824184417725,
                    1.0029876232147217,
                    -0.8578190207481384,
                    -0.3025817275047302,
                    1.3025950193405151,
                    0.4458649456501007,
                    0.001412206795066595,
                    -0.7990124821662903,
                    1.504007339477539,
                    0.6320260167121887,
                    0.07492710649967194,
                    -1.9741960763931274,
                    -0.14339183270931244,
                    -1.3163336515426636,
                    -0.1665816456079483,
                    -0.21819666028022766,
                    -0.23352238535881042,
                    0.396841436624527,
                    -1.9700905084609985,
                    1.005971908569336,
                    1.0932204723358154,
                    -0.6488178968429565,
                    -1.5383148193359375,
                    -1.8774378299713135,
                    2.221022605895996,
                    3.2513811588287354,
                    0.032463327050209045,
                    -0.3436015844345093,
                    -0.731971263885498,
                    -0.8175633549690247,
                    0.8308621644973755,
                    1.3012211322784424,
                    -0.599571168422699,
                    -1.966477870941162,
                    -1.3896570205688477,
                    0.42129412293434143,
                    -1.0183151960372925,
                    -0.9893364906311035,
                    -0.43699565529823303,
                    1.246328592300415,
                    -0.10877502709627151,
                    -0.33647751808166504,
                    -0.6580667495727539,
                    -1.445304036140442,
                    0.3412775695323944,
                    0.7617984414100647,
                    1.2509865760803223,
                    1.2095880508422852,
                    1.0269156694412231,
                    0.9990193247795105,
                    0.538032591342926,
                    1.4257481098175049,
                    0.6617399454116821,
                    -0.7017555236816406,
                    0.04203196242451668,
                    0.19953852891921997,
                    -1.5435476303100586,
                    1.7557636499404907,
                    -1.4252378940582275,
                    1.3877407312393188,
                    2.8534438610076904,
                    0.8397067189216614,
                    -1.6930688619613647,
                    -1.072520136833191,
                    1.9941407442092896,
                    -0.0031795045360922813,
                    -1.9530211687088013,
                    0.5541034936904907,
                    2.093111753463745,
                    -0.6312742829322815,
                    -0.18142187595367432,
                    2.516777515411377,
                    0.5486672520637512,
                    -1.1114342212677002,
                    0.05969849228858948,
                    1.4025788307189941,
                    0.5410166382789612,
                    -2.6275041103363037,
                    -0.7465206384658813,
                    -0.6666633486747742,
                    0.8596975207328796,
                    0.36946141719818115,
                    0.9281318187713623,
                    0.36458489298820496,
                    2.4776954650878906,
                    0.8885726928710938,
                    -0.7605039477348328,
                    1.6974291801452637,
                    -0.38547420501708984,
                    1.24765145778656,
                    -0.5041344165802002,
                    -2.0441384315490723,
                    -0.6178663969039917,
                    -2.246365785598755,
                    1.73783540725708,
                    -1.8220678567886353,
                    0.752557098865509,
                    0.3419405519962311,
                    -2.2875664234161377,
                    0.11621755361557007,
                    1.510076880455017,
                    -1.2069190740585327,
                    -0.3896145522594452,
                    -0.41289541125297546,
                    -0.4632071852684021,
                    1.434385061264038,
                    0.580080509185791,
                    0.4173557162284851,
                    -0.7258260250091553,
                    0.5903899669647217,
                    -2.1496150493621826,
                    1.3614311218261719,
                    -5.037445068359375,
                    1.44349205493927,
                    0.08128319680690765,
                    0.5903879404067993,
                    -0.060828618705272675,
                    -0.9056843519210815,
                    -0.37891435623168945,
                    -0.05363994836807251,
                    0.8574501872062683,
                    1.364704966545105,
                    -0.07441020756959915,
                    1.129019021987915,
                    -2.030822515487671,
                    0.28600871562957764,
                    -0.8443522453308105,
                    -0.6280571818351746,
                    -0.03638845309615135,
                    1.4249786138534546,
                    -1.1884872913360596,
                    0.007237713318318129,
                    -0.7176007032394409,
                    0.20677728950977325,
                    1.6446417570114136,
                    -0.9914558529853821,
                    0.8168462514877319,
                    -0.6065512299537659,
                    -1.919938564300537,
                    0.20487448573112488,
                    -0.09120633453130722,
                    -0.7901122570037842,
                    -1.147165298461914,
                    0.4928503632545471,
                    -0.9740056395530701,
                    -0.793193519115448,
                    1.729553461074829,
                    0.33139491081237793,
                    1.8953962326049805,
                    3.6449801921844482,
                    0.5088912844657898,
                    -0.48148155212402344,
                    0.9893754720687866,
                    -0.3530329465866089,
                    0.5352473258972168,
                    -1.6850461959838867,
                    0.8573444485664368,
                    -0.6157274842262268,
                    -1.3846439123153687,
                    1.4969696998596191,
                    -0.20592764019966125,
                    0.31651175022125244,
                    0.41594064235687256,
                    -1.4329527616500854,
                    0.9922835230827332,
                    -0.6190581321716309,
                    1.7085604667663574,
                    0.8070232272148132,
                    1.0012452602386475,
                    1.4546221494674683,
                    -1.4232584238052368,
                    -0.5281940698623657,
                    0.3984648585319519,
                    -0.411297082901001,
                    -1.620638132095337,
                    -0.11994118988513947,
                    -0.005181171465665102,
                    1.4915388822555542,
                    0.49972349405288696,
                    0.2748280465602875,
                    1.8183716535568237,
                    -0.09159091860055923,
                    0.05949540063738823,
                    0.36942750215530396,
                    1.5806149244308472,
                    -0.8028503060340881,
                    -0.8859672546386719,
                    0.5179011821746826,
                    -1.5507696866989136,
                    0.10872361809015274,
                    -1.6547553539276123,
                    2.274280548095703,
                    -2.377824068069458,
                    -0.28256484866142273,
                    -1.53282630443573,
                    -0.16290900111198425,
                    1.5326104164123535,
                    -2.2139060497283936,
                    -1.0696289539337158,
                    -0.8876044750213623,
                    -0.6598590016365051,
                    -0.10268308222293854,
                    -0.6499556303024292,
                    0.09767312556505203,
                    -0.2997306287288666,
                    -2.0626285076141357,
                    0.5449411869049072,
                    1.3044986724853516,
                    -1.2623116970062256,
                    0.011741098016500473,
                    -0.7167519330978394,
                    0.8969905972480774,
                    -0.15375949442386627,
                    -0.6753673553466797,
                    0.35092398524284363,
                    -0.1729791909456253,
                    -0.5949522852897644,
                    -1.2797681093215942,
                    -0.642235517501831,
                    -0.4113260507583618,
                    1.3529988527297974,
                    -1.2606472969055176,
                    1.2635563611984253,
                    -0.5106457471847534,
                    0.6960567831993103,
                    1.492945909500122,
                    -1.2265939712524414,
                    0.35160791873931885,
                    0.43108558654785156,
                    0.5570259690284729,
                    1.0209412574768066,
                    1.0030571222305298,
                    1.3313544988632202,
                    -0.2556019127368927,
                    -0.19109348952770233,
                    -1.6725672483444214,
                    0.5365416407585144,
                    -1.0088294744491577,
                    -2.925570011138916,
                    0.1873728483915329,
                    -0.8449186086654663,
                    0.9834085702896118,
                    0.5872453451156616,
                    -1.4668242931365967,
                    0.052636489272117615,
                    0.8814213275909424,
                    -1.3202201128005981,
                    0.388269305229187,
                    0.997037410736084,
                    -1.8199923038482666,
                    0.07951106876134872,
                    -1.8688503503799438,
                    -0.9037124514579773,
                    -0.9294524788856506,
                    -0.5621675848960876,
                    0.31508785486221313,
                    0.903912365436554,
                    -0.044342681765556335,
                    -1.284088373184204,
                    0.42539361119270325,
                    -1.262853980064392,
                    0.1837451308965683,
                    1.601704716682434,
                    2.2057015895843506,
                    1.3285642862319946,
                    1.3730705976486206,
                    0.04883856326341629,
                    -0.00679495744407177,
                    0.012638772837817669,
                    1.4093118906021118,
                    -0.49418017268180847,
                    -1.8876043558120728,
                    1.8629562854766846,
                    -0.24754369258880615,
                    -0.27774301171302795,
                    0.5961217880249023,
                    -1.1085991859436035,
                    1.2406232357025146,
                    0.1713484674692154,
                    0.1520286649465561,
                    -1.8952285051345825,
                    -2.6551015377044678,
                    -2.0723304748535156
                ],
                [
                    0.1365848034620285,
                    -0.9332115650177002,
                    -0.5147111415863037,
                    -2.080470085144043,
                    -0.7855912446975708,
                    0.5443440079689026,
                    1.4442514181137085,
                    -1.8922806978225708,
                    -2.8135826587677,
                    1.1753281354904175,
                    -0.04033789411187172,
                    -0.9267007112503052,
                    -1.0139940977096558,
                    0.44540849328041077,
                    -0.16610342264175415,
                    0.6392377018928528,
                    -1.0184062719345093,
                    1.2095630168914795,
                    -0.9425418376922607,
                    0.6147918105125427,
                    -0.8012140989303589,
                    -0.6652795076370239,
                    0.500095546245575,
                    -0.31374967098236084,
                    -0.5799385905265808,
                    -1.1346455812454224,
                    -2.8999204635620117,
                    0.6779495477676392,
                    -3.0577890872955322,
                    -1.2876605987548828,
                    -0.01981206052005291,
                    -0.8191801905632019,
                    0.12465327978134155,
                    -0.6243746876716614,
                    -0.5766614675521851,
                    -0.29907816648483276,
                    0.8758533596992493,
                    -0.4183434545993805,
                    2.0462446212768555,
                    -0.9719407558441162,
                    1.4695343971252441,
                    -1.0647494792938232,
                    0.1746109127998352,
                    2.235339879989624,
                    -1.2678416967391968,
                    -1.0599547624588013,
                    0.9387684464454651,
                    0.015312958508729935,
                    -0.6186429858207703,
                    -1.366828203201294,
                    -2.3471996784210205,
                    0.10793665051460266,
                    0.9617708921432495,
                    0.26759201288223267,
                    0.530828595161438,
                    -2.2008652687072754,
                    -2.402233123779297,
                    0.3499418795108795,
                    0.10966182500123978,
                    -1.0115511417388916,
                    -0.22616708278656006,
                    -0.8527165651321411,
                    0.13105915486812592,
                    0.5230416059494019,
                    -0.3048248589038849,
                    -1.8548448085784912,
                    -0.1130233108997345,
                    -0.7018550038337708,
                    -0.07546383142471313,
                    0.21609929203987122,
                    1.9371960163116455,
                    1.3335072994232178,
                    1.539905071258545,
                    0.7241042852401733,
                    0.46452414989471436,
                    -1.6034595966339111,
                    1.3657711744308472,
                    -2.49214506149292,
                    1.827486515045166,
                    -0.9917914271354675,
                    -1.1218338012695312,
                    0.5249654650688171,
                    0.9255848526954651,
                    -1.1872625350952148,
                    -1.273993968963623,
                    -0.9282753467559814,
                    0.9837557077407837,
                    -0.10513573884963989,
                    0.30982446670532227,
                    -3.1491832733154297,
                    0.4455336034297943,
                    -1.341168999671936,
                    1.8169548511505127,
                    -1.1915940046310425,
                    -1.2020751237869263,
                    -2.0244932174682617,
                    -0.35959699749946594,
                    -1.2743819952011108,
                    -1.6889801025390625,
                    -2.5373270511627197,
                    -1.2465441226959229,
                    -1.2164214849472046,
                    -2.0384345054626465,
                    0.9908602237701416,
                    -0.7771259546279907,
                    0.4440982937812805,
                    0.09546712040901184,
                    -0.8263062834739685,
                    0.7164138555526733,
                    1.5751042366027832,
                    0.5642895102500916,
                    -0.6871143579483032,
                    1.1917378902435303,
                    2.1393041610717773,
                    -1.0823047161102295,
                    0.7718733549118042,
                    0.24147291481494904,
                    0.3437032699584961,
                    -0.1056574359536171,
                    0.4952390193939209,
                    0.9240142107009888,
                    0.6750171780586243,
                    1.417955756187439,
                    0.6329130530357361,
                    0.7452936172485352,
                    0.22791196405887604,
                    2.1130192279815674,
                    -1.5064767599105835,
                    0.1283852607011795,
                    0.01690801791846752,
                    1.1602274179458618,
                    -0.9452390074729919,
                    0.35742753744125366,
                    0.9963705539703369,
                    -0.04826143756508827,
                    0.9931960105895996,
                    0.9487135410308838,
                    1.5172232389450073,
                    -0.1217837706208229,
                    -3.5779848098754883,
                    -2.1792187690734863,
                    -2.107863426208496,
                    0.10897059738636017,
                    1.261881947517395,
                    0.30130475759506226,
                    -1.017268180847168,
                    1.2800887823104858,
                    -0.1485973298549652,
                    0.5994560122489929,
                    -1.8786394596099854,
                    1.20229172706604,
                    -0.4679121971130371,
                    -0.5923380255699158,
                    -0.17759352922439575,
                    0.915343165397644,
                    -0.7138570547103882,
                    0.3932737708091736,
                    -1.1803935766220093,
                    2.5804662704467773,
                    -1.6942265033721924,
                    -0.07612360268831253,
                    -0.538625955581665,
                    2.294581413269043,
                    1.3873956203460693,
                    -2.1676290035247803,
                    1.0053114891052246,
                    -1.0585746765136719,
                    1.7722578048706055,
                    1.9498072862625122,
                    1.793943166732788,
                    -0.20806719362735748,
                    -0.7912522554397583,
                    -0.9020515084266663,
                    -0.3165067136287689,
                    -1.3043303489685059,
                    -1.5117782354354858,
                    -1.2341690063476562,
                    0.7769919633865356,
                    -0.25781840085983276,
                    -1.1587512493133545,
                    -0.8154262900352478,
                    2.544621467590332,
                    0.5467352271080017,
                    -0.5923245549201965,
                    -1.4940252304077148,
                    1.202375054359436,
                    2.305150270462036,
                    0.7506622076034546,
                    0.7189329862594604,
                    -0.1306914985179901,
                    0.0940156951546669,
                    1.7573034763336182,
                    0.6736792922019958,
                    -0.10588543862104416,
                    -0.5345689654350281,
                    1.1206070184707642,
                    -1.616327166557312,
                    -1.4346954822540283,
                    -0.021628184244036674,
                    -0.9124507308006287,
                    0.26284945011138916,
                    0.5269019603729248,
                    -0.5022871494293213,
                    1.5290311574935913,
                    1.033504843711853,
                    -1.77092444896698,
                    0.40386125445365906,
                    2.31374192237854,
                    -0.007082156836986542,
                    -0.9537196755409241,
                    0.1994047313928604,
                    -0.49984943866729736,
                    3.815631628036499,
                    -1.227575659751892,
                    0.6536318063735962,
                    -0.3708656430244446,
                    0.7902371287345886,
                    -1.5075979232788086,
                    -2.513082504272461,
                    0.5571261644363403,
                    -0.4162833094596863,
                    -0.3584546148777008,
                    -1.4953515529632568,
                    0.8484374284744263,
                    -0.29739341139793396,
                    1.7205950021743774,
                    1.0731110572814941,
                    0.31769859790802,
                    0.16412308812141418,
                    -0.38126954436302185,
                    -2.0185179710388184,
                    -0.03029560297727585,
                    -0.012888412922620773,
                    0.6805099844932556,
                    -1.8630870580673218,
                    0.682629406452179,
                    -1.1150466203689575,
                    -0.11098148673772812,
                    -0.32862165570259094,
                    0.9384757876396179,
                    0.6744561195373535,
                    -1.3440711498260498,
                    -1.2075679302215576,
                    0.07100600749254227,
                    -0.6516534090042114,
                    -0.4692919850349426,
                    2.7579245567321777,
                    0.04365542158484459,
                    -0.08383520692586899,
                    0.19294922053813934,
                    0.09867676347494125,
                    -1.6357929706573486,
                    -0.41034209728240967,
                    -0.29807260632514954,
                    -0.9493028521537781,
                    2.976409435272217,
                    -0.5093369483947754,
                    0.2018599659204483,
                    -1.0126677751541138,
                    1.336248755455017,
                    -0.21989090740680695,
                    0.7375328540802002,
                    -0.5996039509773254,
                    0.49065491557121277,
                    0.02202095463871956,
                    0.23633715510368347,
                    1.06842041015625,
                    0.6258160471916199,
                    0.8776395916938782,
                    -0.41102463006973267,
                    -1.4665101766586304,
                    -0.023062236607074738,
                    -1.1181025505065918,
                    -0.7479738593101501,
                    -0.7786552906036377,
                    0.04935931786894798,
                    0.18181347846984863,
                    0.006097768433392048,
                    0.18942074477672577,
                    -1.789681315422058,
                    0.4647814631462097,
                    0.11319935321807861,
                    -2.7254700660705566,
                    -0.26242595911026,
                    -0.683955729007721,
                    -0.9357876181602478,
                    -0.6594502925872803,
                    -0.9244788289070129,
                    1.2116771936416626,
                    0.6991255283355713,
                    2.991943597793579,
                    -1.734555959701538,
                    0.2920311689376831,
                    1.7949780225753784,
                    -1.079861044883728,
                    1.7523161172866821,
                    0.8428594470024109,
                    -0.5472640991210938,
                    1.6701112985610962,
                    0.6325153112411499,
                    0.6560860276222229,
                    -2.7110798358917236,
                    0.48725563287734985,
                    -0.23877392709255219,
                    -0.25910839438438416,
                    1.7305328845977783,
                    0.4731406271457672,
                    -2.504692554473877,
                    1.1169236898422241,
                    -0.10213453322649002,
                    0.5637567043304443,
                    1.5025438070297241,
                    1.8437678813934326,
                    -0.5074669122695923,
                    0.8759807348251343,
                    -0.945828914642334,
                    0.5918666124343872,
                    0.7149804830551147,
                    1.2434152364730835,
                    -2.1754047870635986,
                    0.028694672510027885,
                    -2.4223344326019287,
                    0.028938811272382736,
                    2.5480217933654785,
                    -0.7188138365745544,
                    0.30064263939857483,
                    -1.3559339046478271,
                    0.17108386754989624,
                    -1.082506775856018,
                    -0.5650695562362671,
                    2.0489919185638428,
                    -0.7619450092315674,
                    3.053509473800659,
                    1.3218448162078857,
                    1.1615626811981201,
                    -0.28186652064323425,
                    0.8709012269973755,
                    -0.3583568334579468,
                    -0.03422407805919647,
                    -0.006819394417107105,
                    -0.299701988697052,
                    -2.1044559478759766,
                    0.8386636972427368,
                    -1.1247432231903076,
                    2.354757308959961,
                    0.06682336330413818,
                    -1.9554474353790283,
                    0.18892328441143036,
                    -0.1483924835920334,
                    -2.0245273113250732,
                    -1.5881954431533813,
                    0.5521185994148254,
                    -0.1401708424091339,
                    0.7499274015426636,
                    -1.0899537801742554,
                    1.9735238552093506,
                    -1.0642542839050293,
                    2.596383571624756,
                    0.020271264016628265,
                    -1.8917807340621948,
                    -1.1650469303131104,
                    -0.07852150499820709,
                    -1.0198116302490234,
                    3.603759765625,
                    -0.26673054695129395,
                    0.9366790056228638,
                    -1.5879005193710327,
                    -1.9736754894256592,
                    -0.0476195365190506,
                    0.17545664310455322,
                    -2.253023147583008,
                    0.5131537914276123,
                    -1.8474459648132324,
                    -0.671533465385437,
                    1.958930253982544,
                    0.7131771445274353,
                    -0.17136119306087494,
                    -0.23038917779922485,
                    1.4935730695724487,
                    -1.265587568283081,
                    0.7565982341766357,
                    -1.1705399751663208,
                    -0.8624361157417297,
                    -0.7167055606842041,
                    -0.7003883719444275,
                    -1.039076328277588,
                    0.39503213763237,
                    -0.1000748872756958,
                    -1.5793489217758179,
                    -1.3491668701171875,
                    -1.0659122467041016,
                    -0.027600852772593498,
                    1.0072554349899292,
                    0.35511359572410583,
                    -0.021149706095457077,
                    -0.178958922624588,
                    -0.8856808543205261,
                    -0.40152662992477417,
                    -1.1816202402114868,
                    1.71367347240448,
                    1.5168639421463013,
                    -1.3153412342071533,
                    -0.7597769498825073,
                    -0.9207309484481812,
                    0.8664460182189941,
                    -0.2066785842180252,
                    2.1615352630615234,
                    0.9704958200454712,
                    0.688947319984436,
                    -1.5127485990524292,
                    1.3108989000320435,
                    -0.7039499878883362,
                    -0.1880195438861847,
                    0.17791499197483063,
                    -0.37006309628486633,
                    0.6171850562095642,
                    -1.5145294666290283,
                    1.1203997135162354,
                    -1.1169854402542114,
                    -2.1926209926605225,
                    -1.2841073274612427,
                    0.669607400894165,
                    1.385850429534912,
                    1.3613094091415405,
                    2.4597887992858887,
                    -0.08090924471616745,
                    1.3714237213134766,
                    2.741028308868408,
                    -0.384919136762619,
                    -0.5780073404312134,
                    0.0004110693698748946,
                    -0.018895529210567474,
                    -3.129635810852051,
                    -0.17283040285110474,
                    1.7835272550582886,
                    -0.35367265343666077,
                    0.6486372947692871,
                    -2.542316198348999,
                    0.3775955140590668,
                    -2.043527126312256,
                    1.3684468269348145,
                    0.7277352213859558,
                    0.09053002297878265,
                    0.46642372012138367,
                    -0.17744000256061554,
                    2.564682960510254,
                    1.1197737455368042,
                    0.8825199007987976,
                    0.41066741943359375,
                    0.984542191028595,
                    0.6527490019798279,
                    1.6183807849884033,
                    -0.19554466009140015,
                    -0.5949422717094421,
                    0.3367639183998108,
                    -0.5582535266876221,
                    1.08686363697052,
                    -2.136044979095459,
                    -0.45368266105651855,
                    -0.17684753239154816,
                    0.26017096638679504,
                    0.6462789177894592,
                    -1.7256929874420166,
                    0.7363951206207275,
                    1.154153823852539,
                    0.27494576573371887,
                    0.8018940091133118,
                    -1.1318238973617554,
                    -0.16755437850952148,
                    0.0663432627916336,
                    -1.5805208683013916,
                    0.7636899352073669,
                    -1.215276837348938,
                    2.2131199836730957,
                    -2.861943483352661,
                    -2.8576412200927734,
                    0.666013777256012,
                    0.10122969001531601,
                    0.8273071646690369,
                    -2.655012369155884,
                    0.21870647370815277,
                    -1.1195775270462036,
                    0.45867592096328735,
                    -1.1524927616119385,
                    2.1817526817321777,
                    1.2385733127593994,
                    0.07684166729450226,
                    -1.2654708623886108,
                    -0.04337316378951073,
                    -1.2759971618652344,
                    -1.2481105327606201,
                    1.022336721420288,
                    -1.3670741319656372,
                    -1.2425050735473633,
                    1.9562275409698486,
                    0.6793301701545715,
                    -0.58225417137146,
                    0.42442891001701355,
                    0.07012859731912613,
                    0.4672808051109314,
                    0.7182416319847107,
                    -0.034120939671993256,
                    0.6932182908058167,
                    -0.32650911808013916,
                    0.7500956058502197,
                    -0.401371568441391,
                    -0.4948025047779083,
                    0.426622211933136,
                    0.4095339775085449,
                    -0.062010399997234344,
                    0.07227951288223267,
                    1.193526029586792,
                    -0.016866669058799744,
                    0.7038406729698181,
                    0.3726711571216583,
                    0.6407988667488098,
                    1.3282831907272339,
                    -0.5702577233314514,
                    0.7368209362030029,
                    -0.6476762890815735,
                    -1.1022237539291382,
                    0.993169903755188,
                    2.4692904949188232,
                    0.8222021460533142,
                    0.3458348214626312,
                    -1.824277639389038,
                    0.34409260749816895,
                    -0.5244670510292053,
                    -0.2553854286670685,
                    0.44899415969848633,
                    0.6125730276107788,
                    -0.3773038983345032,
                    -0.10288655757904053,
                    -0.3944903612136841,
                    -0.7768747210502625,
                    -0.6998351216316223,
                    1.1663707494735718,
                    -0.9438781142234802,
                    1.2996634244918823,
                    0.21127617359161377,
                    -1.4426203966140747,
                    2.2894091606140137,
                    -0.8792250156402588,
                    1.0889530181884766,
                    -0.70148766040802,
                    -0.6168357729911804,
                    -1.8634402751922607,
                    -2.5091519355773926,
                    1.6076366901397705,
                    -2.3967511653900146,
                    2.5560247898101807,
                    -0.235027015209198,
                    -0.5192241668701172,
                    0.050028637051582336,
                    -0.07538262754678726,
                    0.7870257496833801,
                    -0.6443028450012207,
                    -0.6161487698554993,
                    0.19458648562431335,
                    -0.4820675551891327,
                    -1.2205634117126465,
                    0.6124000549316406,
                    -0.8810888528823853,
                    0.4890904724597931,
                    0.3105219900608063,
                    0.047095056623220444,
                    -0.7790244817733765,
                    1.675283670425415,
                    -0.11979042738676071,
                    -1.3444733619689941,
                    -1.1362547874450684,
                    -0.4965670704841614,
                    1.3442367315292358,
                    -0.29857003688812256,
                    -0.12905222177505493,
                    -0.02878984622657299,
                    0.2204483598470688,
                    0.34605997800827026,
                    -0.9592466950416565,
                    -0.10431206226348877,
                    -1.9070613384246826,
                    -0.35238057374954224,
                    -0.24226181209087372,
                    -1.1825429201126099,
                    -1.134495496749878,
                    -1.981126070022583,
                    1.2068958282470703,
                    -1.6050074100494385,
                    -1.4265413284301758,
                    -0.22745245695114136,
                    -0.6234615445137024,
                    -0.25449833273887634,
                    -0.31677818298339844,
                    -0.48135972023010254,
                    1.115254521369934,
                    -1.0863901376724243,
                    0.07886915653944016,
                    -0.5840709209442139,
                    -0.6722640991210938,
                    1.3232004642486572,
                    -0.9554015398025513,
                    -0.8052957653999329,
                    -0.8777158856391907,
                    -1.7239758968353271,
                    0.6992197632789612,
                    -0.546734631061554,
                    1.116848349571228,
                    0.05353328958153725,
                    0.09102699905633926,
                    0.3497782051563263,
                    -0.17103059589862823,
                    0.5492114424705505,
                    0.2585936486721039,
                    -0.23143774271011353,
                    -1.0719863176345825,
                    -0.2661464810371399,
                    -0.43047958612442017,
                    -0.9092527627944946,
                    -2.316412925720215,
                    1.1665464639663696,
                    -0.16721397638320923,
                    -0.19133895635604858,
                    1.4548693895339966,
                    -0.6778976917266846,
                    -1.520485281944275,
                    2.3771860599517822,
                    0.3152625262737274,
                    1.571027159690857,
                    0.1921922117471695,
                    -1.0911986827850342,
                    -0.33216381072998047,
                    -0.30406415462493896,
                    -2.1725423336029053,
                    -2.2180371284484863,
                    1.4077203273773193,
                    0.15529458224773407,
                    -2.139237880706787,
                    -0.18628805875778198,
                    1.1153887510299683,
                    2.3646368980407715,
                    -1.108961820602417,
                    1.7766410112380981,
                    0.7686242461204529,
                    -0.12235015630722046,
                    0.09483368694782257,
                    -0.07297520339488983,
                    -0.7386237978935242,
                    2.0230422019958496,
                    -1.3378273248672485,
                    -1.2732391357421875,
                    -0.42382892966270447,
                    0.17259348928928375,
                    -0.12416600435972214,
                    -0.9445317983627319,
                    -1.6885281801223755,
                    -0.030138995498418808,
                    0.6155180335044861,
                    0.9093320965766907,
                    0.22015251219272614,
                    1.0513242483139038,
                    -0.3344448506832123,
                    -0.20018713176250458,
                    0.5765619277954102,
                    1.450830340385437,
                    -1.3697869777679443,
                    0.04364263266324997,
                    1.1598223447799683,
                    1.8179694414138794,
                    1.194612741470337,
                    0.47530731558799744,
                    0.46038997173309326,
                    1.4591630697250366,
                    -0.4355059564113617,
                    0.4290497601032257,
                    1.8443703651428223,
                    -0.23933854699134827,
                    1.2395540475845337,
                    1.8454949855804443,
                    0.0809725746512413,
                    0.029291683807969093,
                    1.0203133821487427,
                    0.8864952921867371,
                    -0.5055230855941772,
                    -0.44959864020347595,
                    0.8559755086898804,
                    -0.9904590845108032,
                    -0.74341881275177,
                    0.12209674715995789,
                    -2.560323476791382,
                    0.7124057412147522,
                    1.7071566581726074,
                    -0.5585392713546753,
                    -0.8440002202987671,
                    -0.3893609941005707,
                    0.2770107388496399,
                    1.0953330993652344,
                    0.05026645585894585,
                    -2.654803514480591,
                    0.6097677946090698,
                    -1.643615484237671,
                    0.6681891083717346,
                    2.3100123405456543,
                    0.33267396688461304,
                    -0.2945185899734497,
                    -1.8385506868362427,
                    1.8521919250488281,
                    -1.3103944063186646,
                    -0.46221911907196045,
                    -0.5001259446144104,
                    1.9073513746261597,
                    3.1511099338531494,
                    -1.3448362350463867,
                    1.1133772134780884,
                    0.8280951976776123,
                    -0.7705192565917969,
                    0.7733922004699707,
                    -2.5352137088775635,
                    -0.1518665999174118,
                    1.2052377462387085,
                    -0.43382731080055237,
                    0.5294198393821716,
                    -0.29437145590782166,
                    -2.654390573501587,
                    0.5795526504516602,
                    1.3738858699798584,
                    0.47297072410583496,
                    -1.477154016494751,
                    -2.5042638778686523,
                    2.6047821044921875,
                    2.0081441402435303,
                    0.18801017105579376,
                    -0.30970481038093567,
                    0.566420316696167,
                    -0.40373489260673523,
                    2.1799981594085693,
                    0.12716899812221527,
                    0.3282879590988159,
                    2.0296618938446045,
                    0.6792598962783813,
                    0.6299633383750916,
                    -0.32674917578697205,
                    -1.5260217189788818,
                    -1.728666067123413,
                    -1.2090532779693604,
                    -1.3393702507019043,
                    0.7316760420799255,
                    -1.8785464763641357,
                    -1.9779551029205322,
                    1.3078533411026,
                    -2.0427629947662354,
                    1.3047561645507812,
                    0.3149556815624237,
                    1.0168452262878418,
                    -0.6368100047111511,
                    0.8545029759407043,
                    -0.5972913503646851,
                    -0.1382100135087967,
                    0.9308626651763916,
                    0.4711967408657074,
                    -1.5735968351364136,
                    0.9111286997795105,
                    0.6900497078895569,
                    -1.2994147539138794,
                    1.567625880241394,
                    0.2516949474811554,
                    -0.2653025984764099,
                    -0.6010227203369141,
                    0.7270734310150146,
                    0.6402970552444458,
                    1.3065197467803955,
                    -0.4580514132976532,
                    0.26414525508880615,
                    -0.11571980267763138,
                    -0.7927866578102112,
                    0.20457740128040314,
                    -1.421218991279602,
                    -0.49238505959510803,
                    0.3050374984741211,
                    0.3346378207206726,
                    -0.24479658901691437,
                    0.5888253450393677,
                    -0.14418095350265503,
                    0.4535261392593384,
                    -2.278841972351074
                ],
                [
                    1.017775058746338,
                    1.7560477256774902,
                    -1.4398983716964722,
                    0.33929193019866943,
                    -2.891113519668579,
                    -0.9216022491455078,
                    0.9753143191337585,
                    0.3479580581188202,
                    -0.22609670460224152,
                    1.2574195861816406,
                    1.2080672979354858,
                    -1.0178213119506836,
                    1.027602195739746,
                    3.4321677684783936,
                    1.6932690143585205,
                    -0.6329085826873779,
                    -2.6132357120513916,
                    -0.18687604367733002,
                    2.713209390640259,
                    -1.417117714881897,
                    -1.266419529914856,
                    -0.5241785049438477,
                    -0.8218637108802795,
                    -0.24223592877388,
                    -1.6542085409164429,
                    1.5107532739639282,
                    -0.3142428696155548,
                    -1.978010892868042,
                    -1.2801158428192139,
                    2.4079065322875977,
                    -1.6178191900253296,
                    1.9271501302719116,
                    -0.06224074587225914,
                    -3.0936386585235596,
                    0.483246386051178,
                    0.0033596446737647057,
                    0.4717327058315277,
                    -1.1499605178833008,
                    2.5747618675231934,
                    -0.17926470935344696,
                    -1.8422160148620605,
                    -1.1146799325942993,
                    -0.0781979113817215,
                    1.0173782110214233,
                    0.9711368680000305,
                    1.7776260375976562,
                    2.1513588428497314,
                    0.7489917874336243,
                    -0.4979502558708191,
                    -0.8726909160614014,
                    0.20501266419887543,
                    -0.5362017750740051,
                    0.711776852607727,
                    -1.6210435628890991,
                    0.7723798751831055,
                    0.2191786915063858,
                    0.8311391472816467,
                    -0.15815681219100952,
                    -1.2992173433303833,
                    -2.0463974475860596,
                    -2.4142682552337646,
                    -0.45606565475463867,
                    -3.071261405944824,
                    -0.28974467515945435,
                    -4.26986837387085,
                    -0.45057108998298645,
                    -1.490858554840088,
                    -0.40512266755104065,
                    -0.251566618680954,
                    1.972262978553772,
                    -0.02707061730325222,
                    0.1714995950460434,
                    -1.0853723287582397,
                    -0.11121977120637894,
                    -2.264103651046753,
                    1.764130711555481,
                    1.0594016313552856,
                    1.1608548164367676,
                    -1.193740725517273,
                    0.5074060559272766,
                    -0.12981563806533813,
                    -1.3367253541946411,
                    0.794380784034729,
                    0.9584943056106567,
                    0.6083333492279053,
                    0.7642893195152283,
                    -0.2730104327201843,
                    -0.41100525856018066,
                    0.08370550721883774,
                    -1.649130940437317,
                    0.6518436670303345,
                    -1.4294508695602417,
                    -0.4037574827671051,
                    1.5716755390167236,
                    -1.1038455963134766,
                    0.8012222647666931,
                    0.8388254642486572,
                    -0.4826270341873169,
                    -0.0483240969479084,
                    1.3888896703720093,
                    0.008270002901554108,
                    -0.09164907783269882,
                    -0.8464780449867249,
                    -0.004386254586279392,
                    0.3406135141849518,
                    -2.3240318298339844,
                    1.096858263015747,
                    1.223229169845581,
