{
    "layers": [
        {
            "weights": [
                [
                    -0.49337899684906006,
                    0.6385213136672974,
                    -0.08862081915140152,
                    -0.2800230383872986,
                    -0.4511529505252838,
                    0.6181203126907349,
                    1.0808138847351074,
                    -1.360153079032898,
                    0.8823063969612122,
                    0.4081888198852539,
                    -0.4922558665275574,
                    -0.7643302083015442,
                    -1.6262693405151367,
                    -2.2069509029388428,
                    -2.7151196002960205,
                    1.4855592250823975,
                    -0.08793915808200836,
                    -1.8801803588867188,
                    -0.9237052798271179,
                    0.7758675217628479,
                    0.799118161201477,
                    2.2078917026519775,
                    -0.4069094955921173,
                    -0.1359531730413437,
                    0.20191502571105957,
                    0.8333918452262878,
                    0.012267451733350754,
                    0.5110142827033997,
                    0.5018373727798462,
                    -0.07593540847301483,
                    -1.5467689037322998,
                    0.6277424097061157,
                    -0.350625604391098,
                    -0.10496257990598679,
                    -1.9558464288711548,
                    -0.42289021611213684,
                    0.13145677745342255,
                    -2.5947725772857666,
                    3.3322949409484863,
                    -0.8896570801734924,
                    -2.1926684379577637,
                    0.040761470794677734,
                    -1.0684000253677368,
                    -2.349184036254883,
                    1.3205368518829346,
                    0.7691357135772705,
                    0.7360004782676697,
                    -0.08754067122936249,
                    -0.118096262216568,
                    -1.4317588806152344,
                    -0.6715457439422607,
                    -0.3004051148891449,
                    -1.0199263095855713,
                    -1.0338553190231323,
                    -2.887397289276123,
                    -1.437665581703186,
                    1.9434034824371338,
                    3.0337867736816406,
                    2.537895917892456,
                    -2.1873085498809814,
                    0.6572904586791992,
                    -0.8701525330543518,
                    1.3790665864944458,
                    0.551685631275177,
                    0.8335339426994324,
                    -1.2399462461471558,
                    -0.5513933897018433,
                    -0.5542740225791931,
                    -1.4586368799209595,
                    -1.7553060054779053,
                    0.9382451176643372,
                    1.5276093482971191,
                    0.6113459467887878,
                    0.4116820693016052,
                    0.37335240840911865,
                    0.23022811114788055,
                    -0.9724231362342834,
                    -0.11049482971429825,
                    0.07823695242404938,
                    -0.3199041485786438,
                    0.5927203893661499,
                    1.735599160194397,
                    0.35858815908432007,
                    -2.5225038528442383,
                    -0.8220967650413513,
                    -0.7648416757583618,
                    1.4033483266830444,
                    -1.4709261655807495,
                    -2.48256516456604,
                    -0.873913586139679,
                    -0.9274696707725525,
                    0.6654343605041504,
                    -0.39257314801216125,
                    1.0899217128753662,
                    1.8816782236099243,
                    -0.31844544410705566,
                    -2.4531002044677734,
                    0.5349075198173523,
                    0.48127472400665283,
                    1.2411807775497437,
                    -0.09584257006645203,
                    1.745167851448059,
                    -0.664964497089386,
                    1.7181981801986694,
                    -0.3949744403362274,
                    -0.44176676869392395,
                    1.6662758588790894,
                    -0.8730682134628296,
                    -1.2829017639160156,
                    1.0613443851470947,
                    -1.3352898359298706,
                    -0.34165099263191223,
                    -0.39243894815444946,
                    -0.35482463240623474,
                    -0.6594569087028503,
                    1.737116813659668,
                    2.834299325942993,
                    0.6628617644309998,
                    -0.491868257522583,
                    2.7523975372314453,
                    0.8151178359985352,
                    0.5550493001937866,
                    1.1958638429641724,
                    1.920799970626831,
                    -0.581956684589386,
                    -2.763286590576172,
                    -0.5574624538421631,
                    0.5738753080368042,
                    0.6822443008422852,
                    0.41444388031959534,
                    -0.621484100818634,
                    -0.14413301646709442,
                    1.1298658847808838,
                    0.8064958453178406,
                    -0.04233109951019287,
                    0.4093500077724457,
                    1.2412925958633423,
                    1.6857659816741943,
                    2.1805965900421143,
                    -0.6390008926391602,
                    -2.1151533126831055,
                    0.5372862219810486,
                    0.9205842018127441,
                    -1.55759596824646,
                    -0.38489726185798645,
                    0.7030796408653259,
                    -1.0905331373214722,
                    -0.17964278161525726,
                    0.6779383420944214,
                    -0.2830444276332855,
                    0.38544365763664246,
                    -0.19351255893707275,
                    -0.6022480130195618,
                    0.04264628514647484,
                    -0.30870288610458374,
                    2.238616943359375,
                    1.0703341960906982,
                    0.41734689474105835,
                    0.8540187478065491,
                    -0.13828320801258087,
                    -0.6139605641365051,
                    -0.42580920457839966,
                    -0.15323159098625183,
                    -0.589868426322937,
                    -0.6547756195068359,
                    0.7765569686889648,
                    0.8947789072990417,
                    0.7002391815185547,
                    0.891122579574585,
                    -0.6761692762374878,
                    -0.12639938294887543,
                    -1.3915903568267822,
                    0.5969233512878418,
                    1.5226373672485352,
                    -0.4761432409286499,
                    -0.06631504744291306,
                    -2.1672592163085938,
                    2.143831253051758,
                    -0.7247118949890137,
                    -0.8875318169593811,
                    -1.9617501497268677,
                    -0.7316074371337891,
                    -1.3044812679290771,
                    -0.2986074984073639,
                    0.496179461479187,
                    -0.016571713611483574,
                    2.6499598026275635,
                    -0.9685893654823303,
                    0.309964120388031,
                    -0.6496222615242004,
                    -1.8266668319702148,
                    2.115968942642212,
                    -2.5780746936798096,
                    -0.2837056517601013,
                    -0.38748905062675476,
                    -3.6710004806518555,
                    2.213644504547119,
                    -0.04400104284286499,
                    0.05498674139380455,
                    0.5246440172195435,
                    -0.7910605669021606,
                    -0.08081215620040894,
                    -0.13544733822345734,
                    1.6616464853286743,
                    -1.2039779424667358,
                    -0.1710260957479477,
                    -0.1570344716310501,
                    -0.47070297598838806,
                    -0.3723737299442291,
                    -1.6903741359710693,
                    1.148067593574524,
                    -0.38543930649757385,
                    -0.9574630856513977,
                    -2.02032470703125,
                    1.8979887962341309,
                    -1.2739323377609253,
                    -2.455275535583496,
                    1.4430516958236694,
                    0.03532182425260544,
                    0.6072132587432861,
                    -2.2190940380096436,
                    1.887863278388977,
                    1.6785814762115479,
                    -0.3490385413169861,
                    -0.2398819923400879,
                    0.269731342792511,
                    1.1538689136505127,
                    1.5733262300491333,
                    -2.44517183303833,
                    -0.6248408555984497,
                    0.048917900770902634,
                    -1.7149158716201782,
                    -1.030197262763977,
                    0.6434333920478821,
                    -0.7410274744033813,
                    -0.17368093132972717,
                    -0.07573048025369644,
                    1.7360501289367676,
                    0.4565315842628479,
                    -0.8749414682388306,
                    -0.615144670009613,
                    2.2867257595062256,
                    -0.49540117383003235,
                    -1.092892050743103,
                    -2.815704584121704,
                    1.239094614982605,
                    0.6203187704086304,
                    0.6502580046653748,
                    -0.7940086126327515,
                    -0.182744562625885,
                    -0.16883614659309387,
                    -0.2126416116952896,
                    -0.5964758992195129,
                    -0.3348994851112366,
                    -0.21035467088222504,
                    -0.40317675471305847,
                    1.882562518119812,
                    0.9264875054359436,
                    0.20335574448108673,
                    1.1588839292526245,
                    0.2529313564300537,
                    0.09167793393135071,
                    -2.144601345062256,
                    1.3815860748291016,
                    0.052778102457523346,
                    0.5665457844734192,
                    -2.4903111457824707,
                    2.3107903003692627,
                    0.37859606742858887,
                    -1.2255363464355469,
                    -1.344673752784729,
                    0.5376787781715393,
                    0.7384905219078064,
                    -0.5418975949287415,
                    0.4797470271587372,
                    0.2385147362947464,
                    2.151707887649536,
                    -0.4774450957775116,
                    1.6282665729522705,
                    1.1883805990219116,
                    0.30907899141311646,
                    0.6349327564239502,
                    2.646244764328003,
                    -0.5299656391143799,
                    -1.0007884502410889,
                    -2.4327523708343506,
                    1.221071481704712,
                    2.035114049911499,
                    -4.973986625671387,
                    -1.575071930885315,
                    0.019624879583716393,
                    -0.25707265734672546,
                    -0.6491214632987976,
                    -0.6560408473014832,
                    -1.9275094270706177,
                    -1.827216625213623,
                    -1.4887337684631348,
                    -0.32549768686294556,
                    -0.5784453749656677,
                    1.680424690246582,
                    -0.9425503611564636,
                    0.9774560928344727,
                    2.3399622440338135,
                    -0.40910303592681885,
                    1.8906160593032837,
                    -0.1725631058216095,
                    -3.7489216327667236,
                    1.216222882270813,
                    -1.5714240074157715,
                    -0.6481983661651611,
                    0.3860167860984802,
                    -0.3127267062664032,
                    -0.20631356537342072,
                    0.006498643197119236,
                    -1.3154414892196655,
                    -1.009622573852539,
                    -0.7991786599159241,
                    -0.9367725849151611,
                    0.6098780632019043,
                    2.890136480331421,
                    -0.4621041417121887,
                    -0.03571503609418869,
                    -0.2419818490743637,
                    -0.9502143859863281,
                    3.0538365840911865,
                    -1.0374197959899902,
                    0.10368786752223969,
                    1.1578524112701416,
                    -0.3910748064517975,
                    -1.34297513961792,
                    1.1872550249099731,
                    1.6932655572891235,
                    0.047234777361154556,
                    -0.5660013556480408,
                    1.0719088315963745,
                    1.151559829711914,
                    -2.7699902057647705,
                    1.522055745124817,
                    -0.5755269527435303,
                    0.9586913585662842,
                    -0.6874405145645142,
                    1.1638623476028442,
                    1.2276198863983154,
                    0.9614459276199341,
                    0.08298689872026443,
                    0.025962885469198227,
                    1.5855334997177124,
                    0.28347569704055786,
                    -0.9402326345443726,
                    -0.35246309638023376,
                    -0.7653926014900208,
                    -1.5918538570404053,
                    -1.9653453826904297,
                    0.2713521718978882,
                    -1.1966913938522339,
                    1.7416439056396484,
                    -0.7672665119171143,
                    -2.1081690788269043,
                    -1.357277274131775,
                    -0.36129599809646606,
                    1.2190276384353638,
                    -1.437898874282837,
                    1.4516774415969849,
                    0.929448664188385,
                    0.7376117706298828,
                    1.0785789489746094,
                    -1.157460331916809,
                    2.9730002880096436,
                    0.5710408687591553,
                    -0.4606529772281647,
                    -0.39714688062667847,
                    -1.3541098833084106,
                    0.11292408406734467,
                    -0.48738619685173035,
                    0.002694481983780861,
                    0.5336657762527466,
                    0.07818123698234558,
                    0.16679899394512177,
                    0.4561420977115631,
                    -3.0388224124908447,
                    -1.5124295949935913,
                    -1.5311368703842163,
                    -1.0071676969528198,
                    -0.7365473508834839,
                    -1.170491337776184,
                    -0.6553221940994263,
                    0.3733626902103424,
                    3.9763388633728027,
                    0.0018431184580549598,
                    -1.3652232885360718,
                    -0.2243773192167282,
                    -0.17928889393806458,
                    -1.5411087274551392,
                    -1.3220744132995605,
                    0.6988455057144165,
                    -1.2479236125946045,
                    0.45228320360183716,
                    -1.6233947277069092,
                    -1.2459230422973633,
                    2.553765296936035,
                    0.202743798494339,
                    -0.8871403336524963,
                    -2.0778861045837402,
                    1.9533438682556152,
                    -0.7115370631217957,
                    0.900269627571106,
                    0.4745126962661743,
                    0.8444114327430725,
                    -0.9947885870933533,
                    0.2545512020587921,
                    -0.2856542468070984,
                    -0.14986832439899445,
                    0.7374765276908875,
                    1.0578879117965698,
                    0.3016259968280792,
                    0.43584558367729187,
                    2.242049217224121,
                    1.1834944486618042,
                    -1.1298617124557495,
                    0.29137080907821655,
                    1.9081836938858032,
                    -1.1975016593933105,
                    1.3339577913284302,
                    -0.474832683801651,
                    -1.3590961694717407,
                    -0.5571356415748596,
                    -2.4538915157318115,
                    2.750242233276367,
                    -0.9982888102531433,
                    1.0279697179794312,
                    0.43114137649536133,
                    2.5820963382720947,
                    0.4617982506752014,
                    -0.6863410472869873,
                    -0.2493966668844223,
                    0.3967641294002533,
                    -0.6219986081123352,
                    -0.5254455208778381,
                    -2.1997814178466797,
                    1.8031002283096313,
                    -0.39218318462371826,
                    3.5677268505096436,
                    1.236594796180725,
                    0.04584595933556557,
                    0.5143132209777832,
                    -0.9415790438652039,
                    0.039921749383211136,
                    1.3164327144622803,
                    0.16465233266353607,
                    -1.4715451002120972,
                    1.8571605682373047,
                    0.5868232250213623,
                    -0.8006666302680969,
                    2.7387542724609375,
                    -1.0732197761535645,
                    2.0007500648498535,
                    0.9995445609092712,
                    -1.930783748626709,
                    0.32481247186660767,
                    -1.1146000623703003,
                    0.6170451641082764,
                    0.6007953882217407,
                    -1.0528833866119385,
                    1.4754114151000977,
                    0.5233157277107239,
                    -1.8862186670303345,
                    -0.789595901966095,
                    1.6226727962493896,
                    -1.2416555881500244,
                    0.21454674005508423,
                    1.1469264030456543,
                    -1.3121144771575928,
                    -1.3655420541763306,
                    -0.5208879709243774,
                    -1.0803269147872925,
                    0.39761993288993835,
                    2.863748788833618,
                    -2.132413387298584,
                    0.9907912611961365,
                    0.5310612916946411,
                    0.2268851101398468,
                    -0.38287511467933655,
                    2.3474342823028564,
                    0.9234669208526611,
                    0.8902426362037659,
                    -0.4133484661579132,
                    -1.3579567670822144,
                    -1.033077359199524,
                    1.7868504524230957,
                    -1.4695338010787964,
                    1.560036063194275,
                    0.8376238942146301,
                    -1.7196519374847412,
                    -3.1665613651275635,
                    -0.03826030716300011,
                    0.865956723690033,
                    0.8476324081420898,
                    -0.41264474391937256,
                    -0.2438788115978241,
                    1.6333273649215698,
                    -0.9069556593894958,
                    -1.7222552299499512,
                    -0.556657075881958,
                    1.4091722965240479,
                    -0.6324310898780823,
                    -1.6789741516113281,
                    1.3573981523513794,
                    -3.6430468559265137,
                    0.14639121294021606,
                    0.40247243642807007,
                    -3.0086567401885986,
                    0.08655485510826111,
                    -1.6673673391342163,
                    2.3370983600616455,
                    -0.9700828790664673,
                    -1.3114186525344849,
                    -0.18596787750720978,
                    -1.4702554941177368,
                    0.5913236737251282,
                    0.38691043853759766,
                    -1.521153211593628,
                    -1.5554604530334473,
                    -0.5417747497558594,
                    0.050981368869543076,
                    1.2735466957092285,
                    2.5079026222229004,
                    0.7689306139945984,
                    -1.8162689208984375,
                    -2.782564640045166,
                    -0.26745346188545227,
                    0.6206265091896057,
                    0.13360556960105896,
                    1.033617377281189,
                    -1.0257699489593506,
                    1.5298799276351929,
                    -0.9509716629981995,
                    0.12398514151573181,
                    -1.6114379167556763,
                    1.1949012279510498,
                    -0.9038697481155396,
                    0.6863638162612915,
                    1.510819911956787,
                    -1.7784395217895508,
                    -2.256009340286255,
                    -1.1364144086837769,
                    1.909650444984436,
                    -1.7880887985229492,
                    -0.3938433825969696,
                    -0.923931896686554,
                    0.6961725354194641,
                    0.4424220323562622,
                    -0.026208648458123207,
                    1.054337739944458,
                    -1.1309669017791748,
                    1.1651602983474731,
                    -0.8022979497909546,
                    -1.9196836948394775,
                    -0.05742541328072548,
                    0.9656206369400024,
                    0.37451621890068054,
                    -0.9703862071037292,
                    -1.348719835281372,
                    -1.519430160522461,
                    -0.4439893960952759,
                    -2.200061321258545,
                    -1.1210503578186035,
                    -1.4675624370574951,
                    1.2919646501541138,
                    1.889939546585083,
                    0.034478843212127686,
                    -2.479109525680542,
                    -2.0754940509796143,
                    -1.1561704874038696,
                    1.2971117496490479,
                    0.4036998748779297,
                    2.117393732070923,
                    -2.248192071914673,
                    -0.03646373748779297,
                    -0.38108018040657043,
                    3.0755772590637207,
                    -0.9255915880203247,
                    1.0116560459136963,
                    1.1284798383712769,
                    -0.8785610198974609,
                    -0.46763041615486145,
                    -0.2947947084903717,
                    -0.6321982741355896,
                    0.2411666214466095,
                    -0.4428151249885559,
                    0.2636185884475708,
                    -0.1507827341556549,
                    -1.5209323167800903,
                    0.21086740493774414,
                    1.7773640155792236,
                    -0.3335842788219452,
                    -1.5820202827453613,
                    -0.053005993366241455,
                    -0.805678129196167,
                    -0.6745206713676453,
                    -1.4689143896102905,
                    -1.123835802078247,
                    0.7772209644317627,
                    1.122571587562561,
                    -0.6738210320472717,
                    -1.3362101316452026,
                    -1.6775091886520386,
                    0.32317259907722473,
                    -1.1843379735946655,
                    -0.9915542006492615,
                    0.8547946214675903,
                    -1.6998071670532227,
                    -0.6684348583221436,
                    -0.09991788119077682,
                    -1.1265687942504883,
                    -1.6998183727264404,
                    -0.5206989645957947,
                    -0.8194502592086792,
                    0.8924792408943176,
                    -0.5914860963821411,
                    0.0015512726968154311,
                    0.6591969728469849,
                    0.27551764249801636,
                    0.5811532139778137,
                    -1.646830677986145,
                    -1.6980308294296265,
                    -0.8074983358383179,
                    0.27537986636161804,
                    1.6303528547286987,
                    2.559785842895508,
                    0.46030551195144653,
                    1.5858733654022217,
                    1.950591802597046,
                    -1.0525707006454468,
                    1.2433717250823975,
                    -0.997242271900177,
                    -2.235657215118408,
                    -2.1207242012023926,
                    -0.7876914143562317,
                    0.7353774309158325,
                    -0.027950193732976913,
                    -0.00774415023624897,
                    -1.2971045970916748,
                    0.19887158274650574,
                    1.927117943763733,
                    0.18376250565052032,
                    1.7271219491958618,
                    0.466746985912323,
                    1.114793300628662,
                    -0.24796123802661896,
                    0.33654096722602844,
                    -2.379167318344116,
                    1.6329747438430786,
                    -0.20201370120048523,
                    -1.9778834581375122,
                    1.6512080430984497,
                    0.6165205836296082,
                    -0.18939970433712006,
                    0.5644544363021851,
                    2.496544361114502,
                    0.14715930819511414,
                    -3.2385969161987305,
                    2.50688099861145,
                    1.620543360710144,
                    -0.3719693422317505,
                    -0.5482988357543945,
                    1.4597785472869873,
                    -0.23375782370567322,
                    -1.1457865238189697,
                    -1.5353293418884277,
                    -0.6496632695198059,
                    0.1398000866174698,
                    -2.645819902420044,
                    -0.24204576015472412,
                    0.3274745047092438,
                    0.21058811247348785,
                    -0.266681969165802,
                    0.866234540939331,
                    0.3239326477050781,
                    -0.6350482106208801,
                    1.0299830436706543,
                    -0.37924712896347046,
                    1.041195273399353,
                    -1.8844119310379028,
                    -0.8507838249206543,
                    -0.5339124202728271,
                    1.0597857236862183,
                    -0.25590386986732483,
                    -1.9557772874832153,
                    -2.904017448425293,
                    0.33548831939697266,
                    -0.42233437299728394,
                    2.101034641265869,
                    0.4444581866264343,
                    0.9216549396514893,
                    -0.017369329929351807,
                    -0.7630397081375122,
                    1.2935518026351929,
                    -0.8961478471755981,
                    2.2398176193237305,
                    -1.9945518970489502,
                    1.054033875465393,
                    0.4060378670692444,
                    -0.04760957509279251,
                    0.146086186170578,
                    1.9550542831420898,
                    -0.0885738879442215,
                    -0.13588139414787292,
                    -1.2415239810943604,
                    1.4537346363067627,
                    -0.005540208891034126,
                    0.5102657675743103,
                    -1.0087754726409912,
                    -0.7664321660995483,
                    -3.148526191711426,
                    -0.06755241751670837,
                    -1.5904173851013184,
                    0.9571518301963806,
                    0.02180555835366249,
                    3.1818361282348633,
                    -1.5523585081100464,
                    -0.06303511559963226,
                    0.32019785046577454,
                    1.3886841535568237,
                    1.3208798170089722,
                    0.051403529942035675,
                    -0.8083345890045166,
                    -0.7455572485923767,
                    -2.099783420562744,
                    0.12676019966602325,
                    -0.1568722277879715,
                    -0.4522935450077057,
                    1.3394756317138672,
                    1.8297631740570068,
                    0.4449818432331085,
                    0.0006791736232116818,
                    1.9766454696655273,
                    0.32068687677383423,
                    0.8852965831756592,
                    0.00031189864967018366,
                    -0.5652440786361694,
                    1.1967966556549072,
                    1.881536841392517,
                    -0.3898085057735443,
                    -0.943133533000946,
                    1.0010653734207153,
                    0.5082848072052002,
                    -1.1994836330413818,
                    -1.7045480012893677,
                    -1.0530896186828613,
                    0.9915400743484497,
                    -2.3107731342315674,
                    0.7333060503005981,
                    0.6610074639320374,
                    -1.7408586740493774,
                    -2.058473587036133,
                    0.8482002019882202,
                    3.9470880031585693,
                    -0.6672931909561157,
                    1.0855002403259277,
                    -1.5315576791763306,
                    2.649661064147949,
                    -0.10083792358636856,
                    -0.18335480988025665,
                    -0.7750877737998962,
                    -0.26908668875694275,
                    -2.0494492053985596,
                    0.7299454808235168,
                    0.4105302095413208,
                    0.5594577193260193,
                    1.5051991939544678,
                    0.840968668460846,
                    -0.5682569146156311,
                    -3.483834743499756,
                    0.3751803934574127,
                    0.8096433877944946,
                    -1.1497427225112915,
                    0.4289480447769165,
                    -1.6485403776168823,
                    0.2856869399547577,
                    0.9727258682250977,
                    0.44103366136550903,
                    -0.8347935080528259,
                    -0.7056389451026917,
                    -0.41033458709716797
                ],
                [
                    -2.448902130126953,
                    -0.8483407497406006,
                    1.4906325340270996,
                    0.7576064467430115,
                    -0.18716761469841003,
                    -0.15445490181446075,
                    2.7218148708343506,
                    0.7065691947937012,
                    0.6468106508255005,
                    -0.0951220914721489,
                    0.43085435032844543,
                    0.9041551947593689,
                    1.1334513425827026,
                    1.2733798027038574,
                    -3.038874864578247,
                    -2.6714589595794678,
                    -0.667473554611206,
                    1.4447866678237915,
                    1.5794352293014526,
                    0.4160885810852051,
                    0.4089467525482178,
                    2.121518135070801,
                    1.744954228401184,
                    -0.8173481822013855,
                    0.6896620392799377,
                    -2.211543560028076,
                    0.1987050324678421,
                    3.42795729637146,
                    0.28234171867370605,
                    1.001542329788208,
                    -0.7273690700531006,
                    0.90572190284729,
                    -1.4899910688400269,
                    -0.6819711327552795,
                    0.8191990852355957,
                    -2.273124933242798,
                    -1.25679612159729,
                    0.6109736561775208,
                    -0.7479355335235596,
                    0.5473277568817139,
                    -2.0298798084259033,
                    0.38710346817970276,
                    -1.6629018783569336,
                    0.3181151747703552,
                    1.246800422668457,
                    1.0651355981826782,
                    -0.42722392082214355,
                    -2.0062100887298584,
                    2.5943257808685303,
                    -0.8577856421470642,
                    1.702606439590454,
                    0.11693266034126282,
                    0.6078978180885315,
                    0.9037216305732727,
                    0.6967349648475647,
                    1.1088212728500366,
                    -0.5448302030563354,
                    0.4147051274776459,
                    1.1502939462661743,
                    -0.7968814373016357,
                    -0.27566951513290405,
                    -1.6079597473144531,
                    -1.5568597316741943,
                    4.123090744018555,
                    -1.196842074394226,
                    0.7627307772636414,
                    -2.4118051528930664,
                    -0.3554268181324005,
                    0.25803282856941223,
                    0.18522118031978607,
                    0.9543829560279846,
                    -0.60764479637146,
                    -0.056925445795059204,
                    -1.2021774053573608,
                    0.40681636333465576,
                    -0.5656982660293579,
                    -2.5814738273620605,
                    -0.1754974126815796,
                    1.3618165254592896,
                    1.6555538177490234,
                    1.8637200593948364,
                    1.31062650680542,
                    0.20148392021656036,
                    1.7000123262405396,
                    -1.0283541679382324,
                    1.900424599647522,
                    -2.0140268802642822,
                    -2.0668976306915283,
                    -1.1049959659576416,
                    0.38678523898124695,
                    -0.048377614468336105,
                    0.5939319729804993,
                    1.0117478370666504,
                    0.6227616667747498,
                    -0.6924830675125122,
                    0.7122231125831604,
                    1.2922314405441284,
                    0.4658735990524292,
                    -2.921976327896118,
                    0.3759186267852783,
                    0.44738268852233887,
                    -1.9085332155227661,
                    -1.1470789909362793,
                    -0.5031227469444275,
                    0.3059810996055603,
                    -3.2491354942321777,
                    -2.4136810302734375,
                    0.038292624056339264,
                    0.7231047749519348,
                    -1.0996958017349243,
                    -0.27819788455963135,
                    -0.6705881953239441,
                    -0.7540915012359619,
                    -0.9328680038452148,
                    0.455525279045105,
                    -0.905377209186554,
                    -0.9964480400085449,
                    -1.6844964027404785,
                    2.4762461185455322,
                    -0.4654957056045532,
                    -0.1444183588027954,
                    -1.4460341930389404,
                    0.6090658903121948,
                    0.5582441687583923,
                    -1.24062180519104,
                    -0.8139415979385376,
                    1.1467154026031494,
                    2.539611339569092,
                    1.423850655555725,
                    -1.1585400104522705,
                    1.219621181488037,
                    1.3567322492599487,
                    -0.30169734358787537,
                    -2.2283053398132324,
                    1.1140936613082886,
                    -2.3561484813690186,
                    2.082956314086914,
                    -0.9230925440788269,
                    -0.8940609693527222,
                    1.1931464672088623,
                    -0.004914525430649519,
                    2.5061516761779785,
                    -0.6916792392730713,
                    0.34648168087005615,
                    1.5294331312179565,
                    0.12029285728931427,
                    -1.7419013977050781,
                    1.1704249382019043,
                    0.9986727237701416,
                    -0.9926897883415222,
                    -0.16705210506916046,
                    0.6041011810302734,
                    -1.4665839672088623,
                    -0.1443033367395401,
                    -0.8485691547393799,
                    1.4915844202041626,
                    -0.39729931950569153,
                    0.15524929761886597,
                    -1.6268117427825928,
                    1.394220232963562,
                    2.540104866027832,
                    -2.380161762237549,
                    -0.7359402179718018,
                    1.4024717807769775,
                    -1.159482717514038,
                    0.5585848689079285,
                    -0.6582022309303284,
                    0.7368735671043396,
                    -1.3855767250061035,
                    1.016701340675354,
                    1.5577363967895508,
                    0.39508378505706787,
                    -0.251219242811203,
                    0.1476970762014389,
                    -1.8446763753890991,
                    -2.0435800552368164,
                    -1.7033934593200684,
                    -0.9715358018875122,
                    0.10107261687517166,
                    -0.5252476334571838,
                    -2.0148868560791016,
                    1.4860259294509888,
                    1.8091156482696533,
                    -0.9413816332817078,
                    1.8758617639541626,
                    1.7111159563064575,
                    0.1508292853832245,
                    1.3310608863830566,
                    0.403940349817276,
                    -0.056858647614717484,
                    -1.3145058155059814,
                    -0.2649487257003784,
                    0.4817509055137634,
                    -1.0204943418502808,
                    0.45820510387420654,
                    0.17711202800273895,
                    -0.9607598185539246,
                    -2.0619888305664062,
                    1.2786219120025635,
                    -1.694880723953247,
                    0.01931997388601303,
                    -0.21267157793045044,
                    3.720496892929077,
                    -1.1992207765579224,
                    2.484380006790161,
                    0.05794159695506096,
                    -1.4409127235412598,
                    -0.05657367408275604,
                    0.6496015191078186,
                    -0.40510231256484985,
                    2.37278413772583,
                    -0.1509971171617508,
                    -0.27580687403678894,
                    -2.3618171215057373,
                    1.363762617111206,
                    -0.18478523194789886,
                    -0.3878384530544281,
                    -0.31452104449272156,
                    0.49912184476852417,
                    -0.6546732187271118,
                    0.6906077265739441,
                    -0.6476380228996277,
                    0.8406100869178772,
                    -0.2870568633079529,
                    2.6803488731384277,
                    -0.3747396171092987,
                    0.08524221181869507,
                    -3.3250889778137207,
                    1.9675273895263672,
                    -0.7513251304626465,
                    -1.67534601688385,
                    0.8869502544403076,
                    0.956097424030304,
                    0.35833075642585754,
                    -0.24339261651039124,
                    0.07447724789381027,
                    -0.28684985637664795,
                    -1.2095811367034912,
                    1.1343570947647095,
                    -0.19024735689163208,
                    -0.5021560788154602,
                    -0.6968883872032166,
                    -0.1902771145105362,
                    1.0734158754348755,
                    0.48779651522636414,
                    0.8322889804840088,
                    -0.04475121572613716,
                    -0.23875021934509277,
                    -1.3438849449157715,
                    -0.8341199159622192,
                    -0.7903841733932495,
                    0.48654112219810486,
                    1.056992769241333,
                    -1.201293706893921,
                    -0.13434770703315735,
                    -1.446421504020691,
                    0.94513338804245,
                    0.5295922756195068,
                    -0.5007812976837158,
                    -1.158622145652771,
                    0.6926317811012268,
                    -1.0359783172607422,
                    -0.9204057455062866,
                    -1.8985133171081543,
                    -0.8273109197616577,
                    -1.4981048107147217,
                    0.5343403220176697,
                    -0.5537740588188171,
                    1.899580955505371,
                    -0.36727914214134216,
                    -0.22735826671123505,
                    0.46901267766952515,
                    0.47856104373931885,
                    1.936576247215271,
                    1.423033356666565,
                    0.019319070503115654,
                    -0.4267987608909607,
                    -0.8151224851608276,
                    -0.7957367897033691,
                    -0.07948709279298782,
                    -2.9521877765655518,
                    1.5176401138305664,
                    0.6926050186157227,
                    0.5962092280387878,
                    -1.011026382446289,
                    0.606602668762207,
                    0.7406538128852844,
                    -1.7655242681503296,
                    -0.14082418382167816,
                    1.1104722023010254,
                    1.900721549987793,
                    -0.9180035591125488,
                    -1.2802969217300415,
                    -2.0408315658569336,
                    0.5078543424606323,
                    1.1359859704971313,
                    0.9777711033821106,
                    -1.1299203634262085,
                    4.222342491149902,
                    -0.3812423646450043,
                    3.6738927364349365,
                    -0.23272527754306793,
                    -1.519033432006836,
                    -0.457520455121994,
                    -0.6390402913093567,
                    -0.031177978962659836,
                    1.4165500402450562,
                    1.1322157382965088,
                    -0.592690110206604,
                    -0.14794234931468964,
                    -2.394502639770508,
                    1.90041983127594,
                    0.7535896897315979,
                    1.5217748880386353,
                    -1.2511169910430908,
                    -0.565702497959137,
                    1.4266277551651,
                    1.9113737344741821,
                    -0.5615599751472473,
                    -0.42815101146698,
                    3.0686938762664795,
                    -0.9131726622581482,
                    -4.02472448348999,
                    -3.3858728408813477,
                    0.20905226469039917,
                    -1.5101261138916016,
                    -1.234002947807312,
                    -1.2563451528549194,
                    0.32077184319496155,
                    0.9565044045448303,
                    1.260015845298767,
                    -1.0414884090423584,
                    -0.2615292966365814,
                    1.3066548109054565,
                    0.5659137964248657,
                    0.919303297996521,
                    1.7865325212478638,
                    0.8145594596862793,
                    2.3081305027008057,
                    -0.1645989865064621,
                    -1.535396695137024,
                    1.0511751174926758,
                    0.7656785249710083,
                    -0.2163238227367401,
                    -0.4837787449359894,
                    0.63218092918396,
                    -1.4975916147232056,
                    0.5545638203620911,
                    0.7919389009475708,
                    0.024863194674253464,
                    -0.30473044514656067,
                    -0.49567919969558716,
                    -0.43668118119239807,
                    -0.6368435621261597,
                    -0.9732402563095093,
                    -1.7753994464874268,
                    -0.8435684442520142,
                    -1.2131223678588867,
                    1.843554139137268,
                    -0.22277596592903137,
                    2.3029565811157227,
                    -1.3333921432495117,
                    0.11187908053398132,
                    -1.4894148111343384,
                    -0.03797369450330734,
                    -1.906170129776001,
                    -0.6782174110412598,
                    -0.36857980489730835,
                    -0.14478951692581177,
                    -0.6666620969772339,
                    -0.7156230211257935,
                    -0.29112493991851807,
                    -1.7786577939987183,
                    1.1523432731628418,
                    -2.2590243816375732,
                    0.9650337100028992,
                    0.3081917464733124,
                    1.0320792198181152,
                    -0.21996574103832245,
                    0.12290786951780319,
                    -0.30642834305763245,
                    0.6601945161819458,
                    0.34649232029914856,
                    -2.805392265319824,
                    -1.2791011333465576,
                    0.935535728931427,
                    1.0992416143417358,
                    0.3112354576587677,
                    -1.7746999263763428,
                    -0.2544860243797302,
                    -1.1817816495895386,
                    1.5949856042861938,
                    0.932270348072052,
                    2.418717384338379,
                    -1.0047358274459839,
                    -0.21133537590503693,
                    -1.315380573272705,
                    0.7497759461402893,
                    1.4522132873535156,
                    -1.2763036489486694,
                    1.4900422096252441,
                    2.740335702896118,
                    -0.6528489589691162,
                    -0.1870272308588028,
                    0.685196042060852,
                    -2.6511309146881104,
                    0.948176383972168,
                    0.04391946271061897,
                    -0.2292976826429367,
                    2.1649763584136963,
                    0.6926469802856445,
                    0.20497578382492065,
                    -0.8087713718414307,
                    -0.47401174902915955,
                    -0.26971176266670227,
                    2.055130958557129,
                    -1.789061427116394,
                    -0.06740249693393707,
                    -0.05620427802205086,
                    0.5059884190559387,
                    -0.055890146642923355,
                    -0.3765822947025299,
                    -0.38639208674430847,
                    -0.7868881225585938,
                    1.107633352279663,
                    -0.7437745928764343,
                    2.8740150928497314,
                    0.20047982037067413,
                    -0.32746413350105286,
                    -1.0922662019729614,
                    -0.48943451046943665,
                    -0.6424477696418762,
                    1.7497844696044922,
                    -0.18123500049114227,
                    -1.1098552942276,
                    -0.5374897718429565,
                    -1.168808937072754,
                    0.9376072883605957,
                    0.4346368610858917,
                    0.23344366252422333,
                    -0.5495884418487549,
                    0.6426500082015991,
                    0.8817321062088013,
                    -0.16762681305408478,
                    -1.2885044813156128,
                    -1.626481533050537,
                    -1.8718106746673584,
                    2.9762489795684814,
                    -0.20605182647705078,
                    0.09040383249521255,
                    -0.5557063817977905,
                    0.9694235324859619,
                    -0.5852243304252625,
                    -1.5743041038513184,
                    -1.490836501121521,
                    2.3499999046325684,
                    1.6184275150299072,
                    -0.8270463347434998,
                    0.5407524704933167,
                    1.320390224456787,
                    2.2722766399383545,
                    0.7897605895996094,
                    0.689024806022644,
                    -0.8257052898406982,
                    -1.59901762008667,
                    0.34492114186286926,
                    -0.20580235123634338,
                    0.3909545838832855,
                    0.783937394618988,
                    0.742509126663208,
                    -1.5054879188537598,
                    1.360776662826538,
                    -0.6997487545013428,
                    -0.7675060033798218,
                    0.4974345862865448,
                    -1.1606489419937134,
                    -0.2274022251367569,
                    2.0005948543548584,
                    2.1201894283294678,
                    1.5668329000473022,
                    -0.8256052136421204,
                    0.11681438237428665,
                    -1.904069423675537,
                    1.704026222229004,
                    -1.1858967542648315,
                    1.4154640436172485,
                    -1.0220098495483398,
                    -0.07234340906143188,
                    1.6212623119354248,
                    0.05511261150240898,
                    1.9533756971359253,
                    -0.15306195616722107,
                    0.5979292392730713,
                    0.6552044153213501,
                    1.0906152725219727,
                    -1.4679406881332397,
                    -1.4105861186981201,
                    -1.2415434122085571,
                    0.5811669826507568,
                    1.1711236238479614,
                    -1.899297833442688,
                    -1.4455987215042114,
                    0.4378146529197693,
                    -0.6121581792831421,
                    -0.1653389036655426,
                    1.8539109230041504,
                    0.72179114818573,
                    0.34182965755462646,
                    -1.2020270824432373,
                    1.17326021194458,
                    0.4246399700641632,
                    -0.010663894936442375,
                    -2.764145612716675,
                    0.12369509786367416,
                    -0.5631601810455322,
                    0.4352424144744873,
                    -0.3623964488506317,
                    -0.9778915047645569,
                    -0.5576634407043457,
                    -1.9955323934555054,
                    1.5353360176086426,
                    1.2826321125030518,
                    -0.8437463641166687,
                    -0.48660674691200256,
                    -1.925606608390808,
                    2.3396480083465576,
                    2.5913586616516113,
                    0.5763319730758667,
                    -0.20887494087219238,
                    -0.5089282393455505,
                    -1.6389979124069214,
                    0.6887592077255249,
                    1.4257241487503052,
                    -0.02368517778813839,
                    -2.737095594406128,
                    -1.3884963989257812,
                    0.8025455474853516,
                    -1.0868823528289795,
                    -1.1368496417999268,
                    -0.1313318908214569,
                    1.9210216999053955,
                    -0.18120594322681427,
                    -0.7706250548362732,
                    -0.5038256645202637,
                    -1.9136362075805664,
                    -0.7736994028091431,
                    0.7658326029777527,
                    1.529464840888977,
                    1.9138648509979248,
                    1.5465458631515503,
                    0.5735170841217041,
                    0.5701014399528503,
                    0.8736249208450317,
                    1.0168144702911377,
                    -0.7986018061637878,
                    0.18027518689632416,
                    -0.4813515841960907,
                    -2.105252265930176,
                    2.0976204872131348,
                    -0.831222653388977,
                    1.6446791887283325,
                    2.96744704246521,
                    1.5637340545654297,
                    -1.437272548675537,
                    -1.3470754623413086,
                    1.2849254608154297,
                    -0.022948024794459343,
                    -2.721059560775757,
                    1.0318275690078735,
                    1.903111457824707,
                    -0.586671769618988,
                    -0.4962640702724457,
                    1.7748373746871948,
                    0.8780556321144104,
                    -0.3847275674343109,
                    1.3373733758926392,
                    1.2012215852737427,
                    1.3718570470809937,
                    -1.7116597890853882,
                    -1.175988793373108,
                    -0.6785749197006226,
                    1.1265640258789062,
                    -0.6272569894790649,
                    0.186615452170372,
                    0.3263092339038849,
                    2.9049389362335205,
                    0.8529717326164246,
                    -0.35680562257766724,
                    1.7731324434280396,
                    -1.2898364067077637,
                    0.7903269529342651,
                    -0.0661114901304245,
                    -1.37855064868927,
                    -0.31932905316352844,
                    -2.2691810131073,
                    1.1311272382736206,
                    -2.201934337615967,
                    0.7434962391853333,
                    0.8600935339927673,
                    -2.545448064804077,
                    0.17493167519569397,
                    0.871464729309082,
                    -0.7576740384101868,
                    -0.6250672936439514,
                    -0.48066189885139465,
                    -0.1484818458557129,
                    0.8888793587684631,
                    0.5504595041275024,
                    0.2704073190689087,
                    -0.05794912576675415,
                    0.9246548414230347,
                    -2.531155586242676,
                    0.7029430270195007,
                    -5.415837287902832,
                    1.5758888721466064,
                    -0.034264978021383286,
                    1.222891092300415,
                    -0.1357349008321762,
                    -1.6676888465881348,
                    -0.28799083828926086,
                    0.25624072551727295,
                    -0.26133614778518677,
                    0.07653197646141052,
                    -0.5782555341720581,
                    1.0200684070587158,
                    -2.044872760772705,
                    0.23419320583343506,
                    -0.461276113986969,
                    -0.574647843837738,
                    0.08261428773403168,
                    1.9694814682006836,
                    -1.821171760559082,
                    -1.0918837785720825,
                    -0.5749803185462952,
                    0.029478784650564194,
                    1.087706446647644,
                    -1.017602801322937,
                    0.782081663608551,
                    0.35552847385406494,
                    -1.7832162380218506,
                    -0.6214157342910767,
                    0.061548225581645966,
                    -0.6743809580802917,
                    -0.6470096111297607,
                    0.32649436593055725,
                    -1.2587058544158936,
                    -1.364753007888794,
                    2.8357880115509033,
                    -0.4668828248977661,
                    1.5837186574935913,
                    3.146115779876709,
                    0.21192243695259094,
                    -0.42567896842956543,
                    1.2397404909133911,
                    0.018230702728033066,
                    1.4649373292922974,
                    -0.967287003993988,
                    0.33133068680763245,
                    -0.5378707647323608,
                    -1.3824400901794434,
                    1.2139251232147217,
                    0.03777680546045303,
                    0.7192323207855225,
                    0.7829768657684326,
                    -0.3563269376754761,
                    0.753656268119812,
                    -1.141832709312439,
                    1.5423780679702759,
                    1.6273585557937622,
                    1.0260101556777954,
                    1.7736821174621582,
                    -0.7689434289932251,
                    -0.6568453907966614,
                    -0.06709983944892883,
                    -0.8716526627540588,
                    -1.8681187629699707,
                    -0.3538070619106293,
                    -0.5572969913482666,
                    1.3004491329193115,
                    0.978000283241272,
                    0.7568299174308777,
                    1.8512351512908936,
                    -0.23693498969078064,
                    0.28550317883491516,
                    0.4462745785713196,
                    1.6896064281463623,
                    -0.9388120174407959,
                    -1.1899755001068115,
                    0.8086896538734436,
                    -1.579988718032837,
                    0.38451042771339417,
                    -1.4522932767868042,
                    2.982652425765991,
                    -2.275834321975708,
                    -0.17932115495204926,
                    -1.6951441764831543,
                    -0.20055904984474182,
                    1.62994384765625,
                    -1.6641381978988647,
                    -2.1736459732055664,
                    -0.39247459173202515,
                    -0.6655358076095581,
                    0.21643011271953583,
                    -0.6096807718276978,
                    -0.5318964719772339,
                    1.0868375301361084,
                    -2.083375930786133,
                    -0.22376486659049988,
                    0.8531003594398499,
                    -1.8329436779022217,
                    0.10134249180555344,
                    -1.3428090810775757,
                    0.8585259914398193,
                    -0.15986545383930206,
                    -0.18376250565052032,
                    -0.0681595429778099,
                    -0.07250671833753586,
                    -1.0059459209442139,
                    -0.748676598072052,
                    -0.6614810824394226,
                    -0.20307640731334686,
                    1.3645782470703125,
                    -1.4455777406692505,
                    0.9063458442687988,
                    -0.419908732175827,
                    0.3823825418949127,
                    1.480414628982544,
                    -1.2523940801620483,
                    8.702900959178805e-05,
                    0.03872573375701904,
                    0.40074408054351807,
                    1.9927868843078613,
                    2.014575481414795,
                    1.3762130737304688,
                    -0.9511895775794983,
                    -0.525632381439209,
                    -1.857343316078186,
                    1.5403376817703247,
                    -0.7215793132781982,
                    -2.779557704925537,
                    0.5186800956726074,
                    -0.4142703115940094,
                    -0.4689922034740448,
                    1.049145221710205,
                    -1.3609715700149536,
                    0.5880913734436035,
                    0.5279995799064636,
                    -2.578319549560547,
                    0.7501954436302185,
                    0.9310576915740967,
                    -1.9265400171279907,
                    -0.28179359436035156,
                    -1.9481052160263062,
                    -1.105282187461853,
                    -0.9265980124473572,
                    0.11693686246871948,
                    -0.017995396628975868,
                    1.0652093887329102,
                    -0.27036523818969727,
                    -0.9392575621604919,
                    0.23941221833229065,
                    -1.6655936241149902,
                    0.0341171994805336,
                    1.6585227251052856,
                    2.2507526874542236,
                    1.453154444694519,
                    0.9171684384346008,
                    0.009046858176589012,
                    0.24213887751102448,
                    0.030088962987065315,
                    1.9730809926986694,
                    -0.9990555644035339,
                    -2.009658098220825,
                    2.5158398151397705,
                    -0.5360463261604309,
                    0.12496864050626755,
                    0.25236091017723083,
                    -1.0767165422439575,
                    0.06025907024741173,
                    0.8649928569793701,
                    0.532268762588501,
                    -1.5148322582244873,
                    -2.73956036567688,
                    -1.5747418403625488
                ],
                [
                    0.35470959544181824,
                    -1.458570957183838,
                    -0.31697607040405273,
                    -1.7338553667068481,
                    -1.553322196006775,
                    0.4039459526538849,
                    2.028245449066162,
                    -1.8089419603347778,
                    -1.8645116090774536,
                    0.922536313533783,
                    -0.32471221685409546,
                    -1.0554808378219604,
                    -1.8187240362167358,
                    0.07450592517852783,
                    -0.6249464154243469,
                    1.0008437633514404,
                    0.11312098056077957,
                    1.0332502126693726,
                    -1.0307035446166992,
                    0.7045978307723999,
                    -0.49587300419807434,
                    -0.5644931197166443,
                    0.9354488849639893,
                    0.4355529546737671,
                    -0.4897494614124298,
                    -0.6902527213096619,
                    -3.076903820037842,
                    1.2370675802230835,
                    -3.912398338317871,
                    -0.36563533544540405,
                    0.6197987198829651,
                    -1.1938841342926025,
                    0.8461365699768066,
                    -0.17388664186000824,
                    -0.20516915619373322,
                    -0.7009894847869873,
                    0.42033788561820984,
                    0.09986595064401627,
                    1.1533392667770386,
                    -1.5382143259048462,
                    0.3260383903980255,
                    -1.5590977668762207,
                    0.7836863398551941,
                    2.9586963653564453,
                    -2.069220542907715,
                    -1.0734931230545044,
                    0.6247343420982361,
                    0.25860604643821716,
                    -0.8431811332702637,
                    -1.403365969657898,
                    -3.0014488697052,
                    0.11229144036769867,
                    1.260392427444458,
                    0.7109391093254089,
                    0.9234496355056763,
                    -2.354830026626587,
                    -2.740708112716675,
                    0.2312193363904953,
                    -0.12883490324020386,
                    -1.047767162322998,
                    -0.5732259154319763,
                    -1.1689825057983398,
                    -0.07043043524026871,
                    0.8306208848953247,
                    -0.791068971157074,
                    -1.5732015371322632,
                    -0.3306421935558319,
                    -0.3918912410736084,
                    0.14478261768817902,
                    0.12696406245231628,
                    2.25921368598938,
                    1.4033647775650024,
                    2.1716833114624023,
                    0.13079974055290222,
                    0.400287002325058,
                    -2.258082628250122,
                    1.8600387573242188,
                    -2.092142343521118,
                    1.932410717010498,
                    -0.5036877393722534,
                    -0.858904242515564,
                    0.3932567238807678,
                    0.8967541456222534,
                    -0.5260083675384521,
                    -1.5457220077514648,
                    -0.6395291686058044,
                    0.9104835987091064,
                    -0.35925593972206116,
                    0.43710610270500183,
                    -3.142345666885376,
                    0.36804255843162537,
                    -0.2103791981935501,
                    0.9207221865653992,
                    -0.6952642798423767,
                    -0.49889498949050903,
                    -1.8145002126693726,
                    0.2070259004831314,
                    -1.4318335056304932,
                    -1.2748228311538696,
                    -2.4112982749938965,
                    -1.5724074840545654,
                    -0.9861913919448853,
                    -2.265092611312866,
                    1.2113697528839111,
                    -0.5388302206993103,
                    -0.16645489633083344,
                    -0.25817880034446716,
                    -0.29163023829460144,
                    0.5662797689437866,
                    1.9017186164855957,
                    1.0336604118347168,
                    -1.2074247598648071,
                    0.931870698928833,
                    2.0753302574157715,
                    -1.4012984037399292,
                    0.4304293990135193,
                    0.16827470064163208,
                    0.08605270087718964,
                    0.9478031396865845,
                    0.874476969242096,
                    1.5847810506820679,
                    0.31594765186309814,
                    0.7956967353820801,
                    -0.08985590189695358,
                    1.1272282600402832,
                    0.04494781047105789,
                    2.227694511413574,
                    -2.6054697036743164,
                    0.1585506647825241,
                    0.21831940114498138,
                    1.6397744417190552,
                    -0.9002858400344849,
                    0.19903892278671265,
                    1.2002394199371338,
                    -0.6691856384277344,
                    0.9823967218399048,
                    0.4017081558704376,
                    1.363303780555725,
                    -0.624527633190155,
                    -3.779416799545288,
                    -2.0074691772460938,
                    -2.25465726852417,
                    0.7186830043792725,
                    0.6852967143058777,
                    0.6301934719085693,
                    -1.0057635307312012,
                    1.1093652248382568,
                    -0.4108542799949646,
                    0.33021247386932373,
                    -1.9653137922286987,
                    1.4111957550048828,
                    -1.6008998155593872,
                    0.0856514573097229,
                    0.1348494291305542,
                    0.7792657613754272,
                    -0.3933870792388916,
                    -0.19345049560070038,
                    -1.9614405632019043,
                    2.6866981983184814,
                    -1.4215072393417358,
                    -0.041367895901203156,
                    -0.35554295778274536,
                    2.9880075454711914,
                    0.5606722235679626,
                    -2.0308687686920166,
                    1.4120709896087646,
                    -1.2908169031143188,
                    1.012714147567749,
                    2.8043770790100098,
                    1.8836274147033691,
                    -0.5768818855285645,
                    -0.5418168902397156,
                    -1.29779851436615,
                    -0.09832445532083511,
                    -1.9209116697311401,
                    -1.213721752166748,
                    -2.5086238384246826,
                    0.5052065849304199,
                    0.37889567017555237,
                    -1.3162684440612793,
                    -0.7233208417892456,
                    2.450923204421997,
                    1.0797569751739502,
                    -0.792290985584259,
                    -1.768235206604004,
                    2.174950122833252,
                    2.450831651687622,
                    0.5268285274505615,
                    0.9597083926200867,
                    -0.16200818121433258,
                    -0.9829594492912292,
                    1.6673778295516968,
                    0.7097981572151184,
                    -0.39066118001937866,
                    -0.7281297445297241,
                    1.3989043235778809,
                    -1.5515645742416382,
                    -1.4506710767745972,
                    0.4823514521121979,
                    -1.198359727859497,
                    -0.10076267272233963,
                    -0.34458109736442566,
                    -0.9980998039245605,
                    0.900938868522644,
                    0.4868009090423584,
                    -2.479036808013916,
                    1.1565895080566406,
                    2.134981393814087,
                    0.43791329860687256,
                    -1.0495740175247192,
                    0.1709747463464737,
                    -0.1083134189248085,
                    2.7613227367401123,
                    -1.3578214645385742,
                    0.3580126464366913,
                    -0.6028057336807251,
                    1.4009208679199219,
                    -1.133098840713501,
                    -2.7105109691619873,
                    -0.22004015743732452,
                    -0.6986472606658936,
                    -0.06934854388237,
                    -1.873154640197754,
                    0.22270609438419342,
                    -1.1822110414505005,
                    1.509305477142334,
                    0.7383435964584351,
                    -0.05533483624458313,
                    0.21093115210533142,
                    -0.9282116889953613,
                    -2.0989274978637695,
                    0.911118745803833,
                    -0.15635566413402557,
                    1.402733564376831,
                    -1.3956658840179443,
                    0.47757256031036377,
                    -0.8487523794174194,
                    -0.4576404094696045,
                    -0.15474602580070496,
                    0.9966971278190613,
                    -0.3860832452774048,
                    -1.5158514976501465,
                    -1.042906641960144,
                    1.3142751455307007,
                    0.1498526632785797,
                    -0.2580544352531433,
                    3.0577778816223145,
                    0.3528781235218048,
                    -0.3555770814418793,
                    0.29009395837783813,
                    0.459438294172287,
                    -0.561078667640686,
                    -0.8098180890083313,
                    -0.5140097141265869,
                    -0.8078972101211548,
                    3.0442514419555664,
                    -0.9833850860595703,
                    -0.0838804543018341,
                    -1.05264413356781,
                    1.3343465328216553,
                    -0.41560181975364685,
                    0.9960298538208008,
                    -1.054651141166687,
                    0.7881706953048706,
                    1.178787112236023,
                    0.0071657756343483925,
                    0.5061327219009399,
                    0.7687581181526184,
                    0.8928782343864441,
                    -0.6272419095039368,
                    -2.115382432937622,
                    -0.4809049665927887,
                    -0.7020682692527771,
                    -0.8957790732383728,
                    -0.12626227736473083,
                    -0.24224400520324707,
                    -0.5889783501625061,
                    -0.4774865508079529,
                    -0.47057512402534485,
                    -1.3695801496505737,
                    0.11536858975887299,
                    0.2194284200668335,
                    -2.469884157180786,
                    0.164546936750412,
                    -0.4776385426521301,
                    -1.1371057033538818,
                    -0.4142497777938843,
                    -1.4727177619934082,
                    0.5993958115577698,
                    0.9705315828323364,
                    2.777531385421753,
                    -1.2939064502716064,
                    0.46252140402793884,
                    2.2184677124023438,
                    -0.8339254260063171,
                    2.1449716091156006,
                    0.5917771458625793,
                    -1.097800850868225,
                    2.000800848007202,
                    0.5141366124153137,
                    0.9604077339172363,
                    -2.2792797088623047,
                    0.055271249264478683,
                    0.10995790362358093,
                    -0.25188273191452026,
                    1.5236544609069824,
                    0.516477644443512,
                    -3.334458589553833,
                    1.0740174055099487,
                    -0.47060099244117737,
                    0.553435206413269,
                    1.5092018842697144,
                    1.5883897542953491,
                    -0.05889475345611572,
                    0.9796370267868042,
                    -1.2685948610305786,
                    0.8120659589767456,
                    1.3190078735351562,
                    2.0363776683807373,
                    -2.3557567596435547,
                    0.3082761764526367,
                    -2.178330421447754,
                    -0.7328953742980957,
                    2.249479293823242,
                    -0.3944184482097626,
                    0.6119989156723022,
                    -1.3787168264389038,
                    0.11001457273960114,
                    -2.028609275817871,
                    0.19340185821056366,
                    2.5719668865203857,
                    -1.1356947422027588,
                    2.8826494216918945,
                    1.813222885131836,
                    1.3266021013259888,
                    0.032163478434085846,
                    0.8544647097587585,
                    0.44637531042099,
                    -0.5868432521820068,
                    0.5951552987098694,
                    0.6770032644271851,
                    -1.97282874584198,
                    0.7048453092575073,
                    -1.1423066854476929,
                    2.3904314041137695,
                    -0.1604236662387848,
                    -1.3325531482696533,
                    0.0833968073129654,
                    0.2634744942188263,
                    -2.8055171966552734,
                    -1.3973026275634766,
                    1.0571428537368774,
                    -0.023975808173418045,
                    1.1236560344696045,
                    -0.5362152457237244,
                    2.3773317337036133,
                    -1.125087857246399,
                    3.162522077560425,
                    0.191609725356102,
                    -1.9854552745819092,
                    -1.7280209064483643,
                    0.4823203980922699,
                    -1.1527655124664307,
                    3.8839385509490967,
                    0.7837167978286743,
                    1.7800748348236084,
                    -1.2172651290893555,
                    -2.087137460708618,
                    -0.03909735754132271,
                    0.671082079410553,
                    -3.5147347450256348,
                    1.0471253395080566,
                    -1.489532709121704,
                    -0.6239915490150452,
                    1.898455262184143,
                    0.8428002595901489,
                    -0.3516741991043091,
                    -0.950522780418396,
                    0.9090567231178284,
                    -1.5984026193618774,
                    0.027986418455839157,
                    -0.9179956912994385,
                    -0.41470637917518616,
                    -0.33936813473701477,
                    -0.7657691836357117,
                    -1.2994695901870728,
                    0.35245662927627563,
                    0.8345209956169128,
                    -1.5723145008087158,
                    -1.10704505443573,
                    -1.07097327709198,
                    1.1009777784347534,
                    1.1406580209732056,
                    0.2602558135986328,
                    -0.6290940642356873,
                    -1.0772669315338135,
                    -1.4644099473953247,
                    0.1179051473736763,
                    -1.2779581546783447,
                    1.617954134941101,
                    1.522226095199585,
                    -1.2046699523925781,
                    -0.23970219492912292,
                    -1.1455851793289185,
                    1.7077988386154175,
                    -0.0886930599808693,
                    2.3199214935302734,
                    1.287794589996338,
                    0.4616633951663971,
                    -1.5384624004364014,
                    1.523959755897522,
                    -0.554438591003418,
                    0.400912344455719,
                    -0.09750597178936005,
                    -1.0556484460830688,
                    0.1625622808933258,
                    -1.6047230958938599,
                    1.7416750192642212,
                    -0.6914920806884766,
                    -1.4192990064620972,
                    -1.3582711219787598,
                    0.8064672946929932,
                    1.3104830980300903,
                    1.6003623008728027,
                    2.430034637451172,
                    -0.6828099489212036,
                    1.1928684711456299,
                    2.3129374980926514,
                    0.16702920198440552,
                    -0.3963621258735657,
                    0.026322221383452415,
                    0.7504664063453674,
                    -3.19777512550354,
                    0.18209011852741241,
                    2.214848518371582,
                    -0.3335590064525604,
                    0.35349372029304504,
                    -2.351961851119995,
                    0.04504835605621338,
                    -1.764745831489563,
                    1.125595211982727,
                    1.3673211336135864,
                    1.5250195264816284,
                    0.4816272556781769,
                    -0.8048341870307922,
                    3.1039392948150635,
                    0.8291186094284058,
                    1.3156172037124634,
                    0.5591185092926025,
                    1.2031278610229492,
                    0.5879196524620056,
                    2.049804449081421,
                    0.0030140795279294252,
                    -0.907696008682251,
                    0.5411935448646545,
                    -0.24464188516139984,
                    0.7912963032722473,
                    -1.9237139225006104,
                    -0.4520110785961151,
                    -0.2675897777080536,
                    -0.25085827708244324,
                    0.7139878273010254,
                    -1.3586193323135376,
                    1.2583760023117065,
                    1.1667135953903198,
                    -0.24402043223381042,
                    0.8183233737945557,
                    -1.7675756216049194,
                    -0.5366949439048767,
                    0.6595302224159241,
                    -2.5559747219085693,
                    0.7951226234436035,
                    -0.265591561794281,
                    2.3036396503448486,
                    -3.3905632495880127,
                    -2.425492286682129,
                    1.0322562456130981,
                    1.4363603591918945,
                    1.7197521924972534,
                    -2.384528160095215,
                    -0.19648706912994385,
                    -0.14698326587677002,
                    0.8996251821517944,
                    -0.8608424067497253,
                    2.682920217514038,
                    1.8438409566879272,
                    -0.1839919537305832,
                    -1.239936351776123,
                    -0.11904376745223999,
                    -2.1057777404785156,
                    -1.0704175233840942,
                    0.0002298871404491365,
                    -0.6478219032287598,
                    -1.1905070543289185,
                    2.4868221282958984,
                    0.46499103307724,
                    -1.1485426425933838,
                    1.1440271139144897,
                    0.26245272159576416,
                    0.10380149632692337,
                    -0.09228295832872391,
                    -0.8769000768661499,
                    0.1917743980884552,
                    -0.9515547156333923,
                    0.5511037111282349,
                    -0.6757878065109253,
                    -0.2689049541950226,
                    -0.009619953110814095,
                    0.3498469293117523,
                    -0.1592622548341751,
                    -0.9373915195465088,
                    1.2262369394302368,
                    -1.1623563766479492,
                    1.0192288160324097,
                    0.28299230337142944,
                    0.4731157124042511,
                    0.7958545088768005,
                    -0.797057569026947,
                    0.6203594207763672,
                    -0.8212352991104126,
                    -0.7527916431427002,
                    0.20337511599063873,
                    3.2847671508789062,
                    0.4254342019557953,
                    0.6062136888504028,
                    -2.2736306190490723,
                    0.634408175945282,
                    -0.23480379581451416,
                    -0.32618477940559387,
                    0.9013090133666992,
                    0.7136518359184265,
                    -0.9802270531654358,
                    0.3405354917049408,
                    -0.27476322650909424,
                    -0.8672919869422913,
                    -0.595798134803772,
                    0.670515775680542,
                    -0.45699289441108704,
                    0.38123852014541626,
                    0.26865455508232117,
                    -0.726399838924408,
                    2.0822341442108154,
                    -1.1514763832092285,
                    1.5629537105560303,
                    -0.42321309447288513,
                    -0.6487091183662415,
                    -1.7940516471862793,
                    -2.6072733402252197,
                    1.0595595836639404,
                    -2.363929271697998,
                    2.728555202484131,
                    -0.6636279821395874,
                    -0.39181631803512573,
                    -0.1212739497423172,
                    -0.5900914669036865,
                    -0.22624310851097107,
                    -1.041244626045227,
                    -0.3644971251487732,
                    0.3977835476398468,
                    -0.5884953737258911,
                    -1.3992621898651123,
                    0.11152654886245728,
                    -2.0997860431671143,
                    -0.7022082805633545,
                    0.7261855602264404,
                    0.2799092233181,
                    -0.2696714699268341,
                    1.8010187149047852,
                    -0.6417859792709351,
                    -1.8266252279281616,
                    -0.8387424349784851,
                    -0.10850632190704346,
                    0.971688449382782,
                    0.10451966524124146,
                    -0.2765670120716095,
                    -0.5237067341804504,
                    -0.26237717270851135,
                    -0.06285052001476288,
                    -1.3259943723678589,
                    -1.4714964628219604,
                    -1.3314316272735596,
                    -0.49485111236572266,
                    -0.58717942237854,
                    -0.6794113516807556,
                    -1.1289523839950562,
                    -1.4051486253738403,
                    1.379118800163269,
                    -2.5543789863586426,
                    -1.5760772228240967,
                    -0.6407116055488586,
                    -0.3920215666294098,
                    0.05800899490714073,
                    -0.796462893486023,
                    -0.31939896941185,
                    0.3321593403816223,
                    -1.378077507019043,
                    -0.061198826879262924,
                    -0.5176877379417419,
                    -0.03958066552877426,
                    1.441630244255066,
                    -0.3551838994026184,
                    -0.4691706895828247,
                    -1.0067129135131836,
                    -1.390982747077942,
                    -0.04025757685303688,
                    -0.7425314784049988,
                    0.4109475016593933,
                    1.039508581161499,
                    0.44494786858558655,
                    0.49136921763420105,
                    -0.07225282490253448,
                    -0.12751327455043793,
                    0.8962422013282776,
                    0.012275928631424904,
                    -0.9489821195602417,
                    -0.751234769821167,
                    -0.5615842342376709,
                    -1.0104151964187622,
                    -2.5975492000579834,
                    1.415515422821045,
                    0.0742904469370842,
                    0.7276366949081421,
                    1.7881548404693604,
                    -0.8094351887702942,
                    -0.9047367572784424,
                    2.670938014984131,
                    0.2766112983226776,
                    1.5132761001586914,
                    -0.5399053692817688,
                    -0.2915782332420349,
                    -0.22881980240345,
                    -0.11689739674329758,
                    -1.7916181087493896,
                    -1.693656325340271,
                    0.5909894704818726,
                    0.22135446965694427,
                    -1.5691096782684326,
                    -0.0058221579529345036,
                    1.5971181392669678,
                    1.9598807096481323,
                    -0.9941433668136597,
                    1.365349531173706,
                    0.7397154569625854,
                    -0.01669415272772312,
                    -0.08294262737035751,
                    -0.15071161091327667,
                    -1.235733151435852,
                    1.5014740228652954,
                    -1.407542109489441,
                    -1.7754440307617188,
                    -0.6990932822227478,
                    0.22805224359035492,
                    -0.03046742081642151,
                    -1.0423057079315186,
                    -2.360067844390869,
                    -0.05129870027303696,
                    0.17424272000789642,
                    1.6272318363189697,
                    0.6040699481964111,
                    1.1625075340270996,
                    -1.3048092126846313,
                    0.10888498276472092,
                    0.43880388140678406,
                    1.4412065744400024,
                    -1.6991863250732422,
                    0.5009684562683105,
                    1.2356888055801392,
                    1.9631446599960327,
                    0.49991217255592346,
                    0.0969221219420433,
                    1.0111666917800903,
                    1.8758901357650757,
                    -0.5796371698379517,
                    0.8825978636741638,
                    1.9819194078445435,
                    -0.3816109299659729,
                    1.0430079698562622,
                    2.257767677307129,
                    1.1150468587875366,
                    0.595291256904602,
                    1.0361164808273315,
                    0.5215491056442261,
                    -0.8940820097923279,
                    -0.07569122314453125,
                    1.1304677724838257,
                    -0.3045286238193512,
                    -1.307784080505371,
                    -0.2727726995944977,
                    -2.906034231185913,
                    0.5615459084510803,
                    2.019122362136841,
                    -0.7589408755302429,
                    -0.887803852558136,
                    -0.2700040638446808,
                    0.7260175347328186,
                    0.0956060066819191,
                    0.3350304365158081,
                    -2.8260462284088135,
                    0.1322617381811142,
                    -1.511698842048645,
                    0.6453822255134583,
                    1.793777346611023,
                    -0.43039312958717346,
                    -0.706113338470459,
                    -2.115306854248047,
                    2.263498544692993,
                    -1.4298770427703857,
                    -0.16615192592144012,
                    -0.6350005865097046,
                    1.572446346282959,
                    2.9584333896636963,
                    -1.1985394954681396,
                    1.1287014484405518,
                    0.8697094917297363,
                    -0.7170214056968689,
                    -0.030880168080329895,
                    -2.7746503353118896,
                    0.4403003454208374,
                    1.4956750869750977,
                    -0.7428207993507385,
                    0.6099516153335571,
                    -0.29261288046836853,
                    -2.329770803451538,
                    0.40181586146354675,
                    2.3659021854400635,
                    0.9628537893295288,
                    -2.4120290279388428,
                    -2.582977533340454,
                    2.663961172103882,
                    1.2129557132720947,
                    0.04395977035164833,
                    -0.4212915897369385,
                    0.8434390425682068,
                    0.25929203629493713,
                    1.9621071815490723,
                    1.0011255741119385,
                    0.8987753987312317,
                    1.6123952865600586,
                    0.579247772693634,
                    1.0662821531295776,
                    -0.6176148653030396,
                    -0.8067582249641418,
                    -2.380516290664673,
                    -1.599122405052185,
                    -0.7484391927719116,
                    -0.5046548843383789,
                    -2.0265297889709473,
                    -2.233168363571167,
                    0.9444466829299927,
                    -1.4171473979949951,
                    2.013593912124634,
                    0.08402401208877563,
                    1.2231193780899048,
                    0.8257980942726135,
                    2.0192928314208984,
                    -0.1751319020986557,
                    -0.22046715021133423,
                    0.36060842871665955,
                    0.47879868745803833,
                    -1.715856909751892,
                    0.8333483934402466,
                    0.35849618911743164,
                    -1.72983980178833,
                    2.1575353145599365,
                    0.3575912415981293,
                    0.4915899634361267,
                    -0.7899746298789978,
                    0.7329532504081726,
                    1.362627387046814,
                    1.0323827266693115,
                    -1.0846165418624878,
                    0.3566227853298187,
                    -0.6237466335296631,
                    -1.611335039138794,
                    0.45051708817481995,
                    -1.6081510782241821,
                    -1.0110430717468262,
                    0.03712299093604088,
                    0.20684023201465607,
                    -0.5064272880554199,
                    0.6334972977638245,
                    -0.16904504597187042,
                    0.5739343166351318,
                    -2.7487361431121826
                ],
                [
                    0.9804452657699585,
                    1.1885688304901123,
                    -1.3299437761306763,
                    -0.16030749678611755,
                    -2.7856967449188232,
                    -1.3009673357009888,
                    0.8619643449783325,
                    0.26142141222953796,
                    0.5897068977355957,
                    1.6008572578430176,
                    0.8866751790046692,
                    -0.8408094048500061,
                    1.1490823030471802,
                    3.983344793319702,
                    1.802464246749878,
                    -0.5642586350440979,
                    -2.345193862915039,
                    0.15242421627044678,
                    3.235039710998535,
                    -1.3432389497756958,
                    -0.0459858737885952,
                    -0.6797547340393066,
                    -0.9712070226669312,
                    0.09905459731817245,
                    -1.690691351890564,
                    1.8766058683395386,
                    -0.1261846423149109,
                    -1.7315468788146973,
                    -1.8390733003616333,
                    2.0134780406951904,
                    -1.4114421606063843,
                    1.7455897331237793,
                    0.019671563059091568,
                    -2.0908467769622803,
                    0.6280686259269714,
                    -0.33266180753707886,
                    0.4839264750480652,
                    -0.8026370406150818,
                    3.119185447692871,
                    -0.3371086120605469,
                    -1.8452564477920532,
                    -0.4451879858970642,
                    -0.15349102020263672,
                    1.537513256072998,
                    1.7521843910217285,
                    1.2919540405273438,
                    2.1841585636138916,
                    -0.15113919973373413,
                    0.020529936999082565,
                    -0.1834125816822052,
                    0.5587407350540161,
                    -1.0474238395690918,
                    -0.21462902426719666,
                    -1.9342542886734009,
                    0.13789141178131104,
                    -0.17539016902446747,
                    0.19430196285247803,
                    -1.085415005683899,
                    -1.1001098155975342,
                    -1.6065771579742432,
                    -2.612259864807129,
                    -0.3892004191875458,
                    -3.6998496055603027,
                    0.3884846866130829,
                    -4.71914529800415,
                    -0.1752750277519226,
                    -1.6710244417190552,
                    -0.535520613193512,
                    0.1927376240491867,
                    2.4348959922790527,
                    -0.24656641483306885,
                    -0.36297160387039185,
                    -0.5671368837356567,
                    0.3763185441493988,
                    -2.806548595428467,
                    2.2728705406188965,
                    1.4604719877243042,
                    0.5054789185523987,
                    -0.7283796072006226,
                    0.5662797093391418,
                    -0.04552849754691124,
                    -1.0031239986419678,
                    0.3296789824962616,
                    1.4430487155914307,
                    0.4168325662612915,
                    0.6235024333000183,
                    -0.5302174091339111,
                    0.7785688042640686,
                    -0.5933579802513123,
                    -1.4083160161972046,
                    0.8152298331260681,
                    -1.2172521352767944,
                    -0.3522840738296509,
                    1.9033759832382202,
                    -1.4563418626785278,
                    1.3558533191680908,
                    0.6054132580757141,
                    0.28689703345298767,
                    -0.21115785837173462,
                    2.110210418701172,
                    0.1516425609588623,
                    -0.22839167714118958,
                    -0.7672816514968872,
                    0.8140128254890442,
                    0.1188148558139801,
                    -2.1599643230438232,
                    0.8811173439025879,
                    1.4089194536209106,
                    1.2371002435684204,
