{
    "layers": [
        {
            "weights": [
                [
                    -0.06294873356819153,
                    0.3014649748802185,
                    0.4610080420970917,
                    1.128348708152771,
                    -0.07427166402339935,
                    -0.001643216353841126,
                    0.48431330919265747,
                    0.42731210589408875,
                    0.2961917817592621,
                    0.7702934741973877,
                    0.39569807052612305,
                    0.34473565220832825,
                    0.25171396136283875,
                    0.2093362808227539,
                    0.734551727771759,
                    0.11424273997545242,
                    0.6103476285934448,
                    -0.11265583336353302,
                    -0.5480722188949585,
                    0.07846325635910034,
                    0.6355949640274048,
                    0.16395510733127594,
                    0.9826672077178955,
                    0.30682429671287537,
                    -1.2028567790985107,
                    -1.1608325242996216,
                    0.2865905463695526,
                    0.22333471477031708,
                    1.3213602304458618,
                    0.47192370891571045,
                    -0.5015600919723511,
                    0.7361747026443481,
                    0.021597087383270264,
                    0.21299797296524048,
                    -0.0857277512550354,
                    -0.5728788375854492,
                    0.6980918049812317,
                    -0.7611113786697388,
                    1.382086992263794,
                    0.08317308127880096,
                    0.38439178466796875,
                    0.9172548055648804,
                    -0.6520270705223083,
                    0.3594963848590851,
                    -0.4321269392967224,
                    -0.6649380922317505,
                    0.4019293785095215,
                    -0.7056514620780945,
                    -0.9191447496414185,
                    0.5948854088783264,
                    0.12331308424472809,
                    0.3752048909664154,
                    -0.3977154791355133,
                    0.523934543132782,
                    1.0718590021133423,
                    0.6175954341888428,
                    0.5588585734367371,
                    0.38634851574897766,
                    1.1535446643829346,
                    -0.7245752811431885,
                    0.3770501911640167,
                    -0.4864703118801117,
                    -1.285969853401184,
                    -1.0813318490982056,
                    -0.42138591408729553,
                    -0.0506884828209877,
                    -0.6060575246810913,
                    -0.46026259660720825,
                    -0.08048279583454132,
                    -0.38902223110198975,
                    0.1362997591495514,
                    0.18299788236618042,
                    -0.33763352036476135,
                    0.1895584911108017,
                    -0.2800067067146301,
                    -0.6313323974609375,
                    0.07443450391292572,
                    -0.6740449070930481,
                    -0.16633546352386475,
                    1.2889450788497925,
                    -0.7552675604820251,
                    1.096491813659668,
                    -1.33564293384552,
                    -0.20073530077934265,
                    0.3570753037929535,
                    0.43851539492607117,
                    0.2106889933347702,
                    -0.4284248650074005,
                    0.5164845585823059,
                    -0.44295263290405273,
                    -0.5696783661842346,
                    1.0255184173583984,
                    0.5266728401184082,
                    -0.22163057327270508,
                    0.018166743218898773,
                    -0.7568803429603577,
                    0.13221214711666107,
                    -0.32953983545303345,
                    -0.3511790633201599,
                    -0.6190934777259827,
                    0.4602191150188446,
                    -0.4670553207397461,
                    0.1847224086523056,
                    0.11169237643480301,
                    -0.27699199318885803,
                    -0.6519913077354431,
                    0.459909051656723,
                    -0.6172049045562744,
                    -0.3503699004650116,
                    0.9465255737304688,
                    -0.556723415851593,
                    -0.7873843312263489,
                    0.454657644033432,
                    0.4456454813480377,
                    -0.9220924973487854,
                    -0.02671062760055065,
                    -0.8399759531021118,
                    -0.03165775164961815,
                    -0.9284965395927429,
                    -0.13143423199653625,
                    1.2695884704589844,
                    -0.20747187733650208,
                    -0.9783205986022949,
                    -0.006113145966082811,
                    -0.39256832003593445,
                    0.21620696783065796,
                    1.0547387599945068,
                    -0.00039134372491389513,
                    -0.16795045137405396,
                    0.8336175084114075,
                    -0.41840222477912903,
                    0.5792123675346375,
                    0.5094054937362671,
                    0.1489396095275879,
                    0.2747228741645813,
                    0.8047250509262085,
                    1.7465007305145264,
                    -1.97281813621521,
                    -0.8833357095718384,
                    -0.6874096989631653,
                    0.1509961038827896,
                    -0.3638731837272644,
                    -0.7136893272399902,
                    -0.4016973078250885,
                    -0.3829069435596466,
                    -0.23156577348709106,
                    -0.25859206914901733,
                    -0.9713902473449707,
                    0.3434755802154541,
                    -0.6562736630439758,
                    -0.2576315402984619,
                    0.8410649299621582,
                    -1.3171098232269287,
                    -0.5814151763916016,
                    -0.2768097519874573,
                    0.22780728340148926,
                    1.1627742052078247,
                    1.0633593797683716,
                    -0.6230630278587341,
                    -0.8784613609313965,
                    1.0621511936187744,
                    0.2492251843214035,
                    -0.32868847250938416,
                    -0.03502249717712402,
                    0.018217606469988823,
                    -1.264560580253601,
                    -0.1286468356847763,
                    -0.07877790182828903,
                    -0.5686342120170593,
                    -0.7447128295898438,
                    -0.7716003060340881,
                    0.4973207116127014,
                    0.09660694003105164,
                    0.6070500016212463,
                    -0.06485658138990402,
                    0.4712661802768707,
                    0.004330808762460947,
                    1.1999027729034424,
                    0.4217613637447357,
                    0.10130864381790161,
                    -0.8701764941215515,
                    0.11762293428182602,
                    0.5846430659294128,
                    0.5533508658409119,
                    0.05690666288137436,
                    0.01758129894733429,
                    -1.3980586528778076,
                    1.6466189622879028,
                    0.04953128471970558,
                    0.5864650011062622,
                    0.4878028929233551,
                    -0.20039334893226624,
                    0.5859223008155823,
                    0.6870031356811523,
                    -0.19835165143013,
                    0.47072353959083557,
                    0.08849181979894638,
                    1.7332404851913452,
                    0.14886631071567535,
                    -0.425785630941391,
                    -0.3322659134864807,
                    -0.20501676201820374,
                    -0.5768234729766846,
                    -0.1901913732290268,
                    0.3328683078289032,
                    -0.5118396282196045,
                    0.3933037221431732,
                    0.4820742607116699,
                    1.3982962369918823,
                    1.1770622730255127,
                    0.013648362830281258,
                    -0.960264265537262,
                    0.4210736155509949,
                    0.7390207052230835,
                    -1.4448336362838745,
                    0.24373526871204376,
                    -0.9474628567695618,
                    -1.2443832159042358,
                    0.45980972051620483,
                    -0.5533154606819153,
                    0.10831821709871292,
                    -0.472076416015625,
                    -0.9659315347671509,
                    -0.13432879745960236,
                    -0.4497321546077728,
                    0.6868930459022522,
                    0.4787355363368988,
                    0.1081579253077507,
                    -0.1710224598646164,
                    -0.5942092537879944,
                    -0.4058705270290375,
                    0.2703421711921692,
                    0.5433229804039001,
                    0.12027327716350555,
                    -0.3338812589645386,
                    -0.35244521498680115,
                    -0.500920295715332,
                    -0.7831801772117615,
                    -0.44756120443344116,
                    -0.8671517372131348,
                    0.7895998954772949,
                    0.5869347453117371,
                    0.37508222460746765,
                    0.41082873940467834,
                    -0.21209564805030823,
                    0.5369036793708801,
                    -0.6005892157554626,
                    -1.1937124729156494,
                    -0.23388974368572235,
                    -0.3796727955341339,
                    0.3926776647567749,
                    -0.14261272549629211,
                    0.4476792812347412,
                    -1.0809015035629272,
                    -1.969630241394043,
                    0.32818153500556946,
                    -0.4332731068134308,
                    0.4326893091201782,
                    0.47102802991867065,
                    -0.2528012692928314,
                    -0.6362520456314087,
                    -0.6844877600669861,
                    -0.26987147331237793,
                    -0.2496551126241684,
                    0.31636351346969604,
                    -0.42813432216644287,
                    -0.3490848243236542,
                    -0.02582690864801407,
                    -1.18707275390625,
                    -0.9990214705467224,
                    -0.36616387963294983,
                    2.0851736068725586,
                    -0.5352331399917603,
                    -0.5243696570396423,
                    -0.11703670769929886,
                    -1.2584121227264404,
                    0.8010876178741455,
                    -2.130061388015747,
                    -0.8680893778800964,
                    -0.7138004899024963,
                    0.20219692587852478,
                    0.7240754961967468,
                    0.04256249591708183,
                    -1.7041290998458862,
                    0.4582170844078064,
                    0.061200208961963654,
                    -0.3648304343223572,
                    0.25647738575935364,
                    0.41711899638175964,
                    0.3934527337551117,
                    0.8342064023017883,
                    -0.017008433118462563,
                    -0.07571528106927872,
                    0.8415306806564331,
                    -0.3241979479789734,
                    -1.04160475730896,
                    0.451013445854187,
                    0.2591397762298584,
                    -0.1662619411945343,
                    -0.7734689712524414,
                    -0.0629667267203331,
                    -0.5084492564201355,
                    -0.31161123514175415,
                    0.873871922492981,
                    -0.38733458518981934,
                    -0.45649924874305725,
                    -0.39677461981773376,
                    1.0936790704727173,
                    -0.6713565587997437,
                    0.1553814858198166,
                    -0.9284082651138306,
                    0.7244581580162048,
                    0.39449259638786316,
                    -0.08248794823884964,
                    1.5043261051177979,
                    -0.07446211576461792,
                    -0.03356269747018814,
                    0.8360387086868286,
                    -0.4810481071472168,
                    0.22760504484176636,
                    -0.8142480850219727,
                    -0.4634553790092468,
                    0.7141023278236389,
                    0.47498810291290283,
                    0.42687878012657166,
                    0.4371059238910675,
                    0.6387244462966919,
                    -0.2389754205942154,
                    -0.4806275963783264,
                    0.224704772233963,
                    -0.0949314534664154,
                    0.11692605912685394,
                    0.04776221886277199,
                    0.3896910846233368,
                    0.028661763295531273,
                    -0.5335577726364136,
                    -0.5061790943145752,
                    -0.2705117464065552,
                    1.387843370437622,
                    -0.24770793318748474,
                    0.8895590305328369,
                    0.46096888184547424,
                    -0.36345869302749634,
                    0.5269516110420227,
                    0.14596788585186005,
                    0.8104982972145081,
                    -0.6806713938713074,
                    -0.4555029571056366,
                    0.5438842177391052,
                    -0.8856841921806335,
                    -0.6041122674942017,
                    0.15739679336547852,
                    -1.0063332319259644,
                    -0.43620985746383667,
                    -0.39811834692955017,
                    -0.6778087615966797,
                    0.9337109327316284,
                    0.14989489316940308,
                    0.6475808620452881,
                    0.25268861651420593,
                    -0.2579936385154724,
                    0.47640183568000793,
                    0.03615602105855942,
                    0.24717698991298676,
                    0.2128991335630417,
                    0.17004580795764923,
                    0.49020978808403015,
                    -1.1634527444839478,
                    -0.3067561984062195,
                    -0.43108007311820984,
                    -0.24352887272834778,
                    -0.2525063157081604,
                    -0.9239901900291443,
                    -1.2754950523376465,
                    -0.806614339351654,
                    -0.7814818024635315,
                    -0.13700857758522034,
                    0.37222135066986084,
                    -0.8147329688072205,
                    -0.15748848021030426,
                    -0.5986627340316772,
                    -0.1430264115333557,
                    0.3116995692253113,
                    -0.37306928634643555,
                    0.5036802887916565,
                    -0.6105769872665405,
                    0.8795199394226074,
                    -1.022231936454773,
                    -0.6041262745857239,
                    0.4178139567375183,
                    -0.037288598716259,
                    -1.200912356376648,
                    -0.12703002989292145,
                    -0.5208640098571777,
                    0.20219792425632477,
                    -1.4906049966812134,
                    -0.7096442580223083,
                    0.10578703880310059,
                    -0.24570971727371216,
                    1.2825716733932495,
                    0.44232404232025146,
                    0.057881783694028854,
                    0.8756189942359924,
                    0.3505880832672119,
                    1.5350629091262817,
                    -0.13536350429058075,
                    0.8070980906486511,
                    0.6947289705276489,
                    -0.9466869235038757,
                    1.125848412513733,
                    0.49045440554618835,
                    -0.3792360723018646,
                    -0.8242833614349365,
                    -0.5378913283348083,
                    -0.9325945973396301,
                    -0.9528613090515137,
                    0.09755688160657883,
                    0.7466155886650085,
                    -0.2720356583595276,
                    1.2938686609268188,
                    -0.9572904706001282,
                    1.1221764087677002,
                    -1.587766408920288,
                    -0.19181963801383972,
                    1.0937267541885376,
                    -0.6510190963745117,
                    -0.28674840927124023,
                    -0.192970409989357,
                    0.04404262453317642,
                    0.7513089776039124,
                    1.0507795810699463,
                    -1.9471675157546997,
                    -0.7348026037216187,
                    -0.2726131081581116,
                    -0.2974189519882202,
                    -0.5071502327919006,
                    0.33893635869026184,
                    -0.6835597157478333,
                    0.014067729003727436,
                    0.7979375123977661,
                    -0.7726382613182068,
                    -0.5390472412109375,
                    0.8329835534095764,
                    -0.3769257068634033,
                    -4.333967808634043e-05,
                    0.029268505051732063,
                    0.36315882205963135,
                    -0.708426833152771,
                    1.4205958843231201,
                    0.7579456567764282,
                    -0.39523035287857056,
                    0.87864750623703,
                    -0.86054527759552,
                    -0.14936718344688416,
                    -0.48891961574554443,
                    1.0853055715560913,
                    -0.050459470599889755,
                    -1.051149606704712,
                    0.4308118224143982,
                    -1.175262451171875,
                    0.30508846044540405,
                    -0.6628516912460327,
                    0.591884970664978,
                    0.2326868176460266,
                    -0.07964424788951874,
                    0.051257696002721786,
                    0.10606794059276581,
                    -0.5900646448135376,
                    0.5010867118835449,
                    0.9482802748680115,
                    1.0659043788909912,
                    -0.046236440539360046,
                    -0.28448882699012756,
                    -0.8375210165977478,
                    -0.6347094178199768,
                    -0.4854685366153717,
                    1.0202175378799438,
                    -0.39488375186920166,
                    -0.8980041742324829,
                    1.3406708240509033,
                    0.23019351065158844,
                    0.06871618330478668,
                    -0.49892133474349976,
                    -0.2916724383831024,
                    0.9163718819618225,
                    0.49853241443634033,
                    0.48205772042274475,
                    -0.7571859359741211,
                    -0.09667425602674484,
                    0.3825041949748993,
                    -0.16320887207984924,
                    0.45678019523620605,
                    0.12421515583992004,
                    -0.587113082408905,
                    -1.2889387607574463,
                    0.6034454703330994,
                    -1.1273144483566284,
                    -0.3179973065853119,
                    0.021145468577742577,
                    0.25986218452453613,
                    -0.07260777801275253,
                    -0.9545496106147766,
                    -0.12638087570667267,
                    -0.7712330222129822,
                    0.33051663637161255,
                    -0.0708656832575798,
                    0.8798984885215759,
                    1.0541603565216064,
                    1.6206973791122437,
                    1.285457968711853,
                    -0.0181035827845335,
                    0.2844940423965454,
                    -0.7952176332473755,
                    -1.29335355758667,
                    -0.9027218222618103,
                    0.562597393989563,
                    0.578056812286377,
                    0.20126572251319885,
                    -1.2818480730056763,
                    -0.25618642568588257,
                    -0.21807587146759033,
                    -0.30449411273002625,
                    -0.2511769235134125,
                    -0.15837660431861877,
                    -0.5682868957519531,
                    0.38142699003219604,
                    -0.40095412731170654,
                    -0.016634980216622353,
                    -0.45710062980651855,
                    0.8560952544212341,
                    0.45431020855903625,
                    -0.015165282413363457,
                    -0.18214140832424164,
                    -0.5740227103233337,
                    0.6706755757331848,
                    -0.3625791370868683,
                    -0.28257331252098083,
                    -0.3518502116203308,
                    -0.6917316913604736,
                    -0.36339089274406433,
                    -0.37165775895118713,
                    0.2528020143508911,
                    -0.010862782597541809,
                    -0.245290145277977,
                    0.77981036901474,
                    -0.1642606258392334,
                    0.007689174264669418,
                    0.07067827135324478,
                    -0.07003993541002274,
                    0.4012943208217621,
                    0.14306338131427765,
                    0.26938721537590027,
                    0.8916884660720825,
                    -0.26744815707206726,
                    0.5283816456794739,
                    0.5907761454582214,
                    0.18739299476146698,
                    0.0480487197637558,
                    -0.19400492310523987,
                    0.4357050955295563,
                    -0.13170263171195984,
                    0.12328310310840607,
                    -0.2288411408662796,
                    0.41122621297836304,
                    1.2599748373031616,
                    0.1779262125492096,
                    -0.910345196723938,
                    -1.560410976409912,
                    -0.8355128765106201,
                    0.9403183460235596,
                    -0.2691481411457062,
                    0.5416716933250427,
                    0.5678719282150269,
                    -1.3739376068115234,
                    0.6261229515075684,
                    -0.125963032245636,
                    0.5287705063819885,
                    0.3311069905757904,
                    0.17189110815525055,
                    -0.6739851832389832,
                    -0.03813048452138901,
                    0.1165212020277977,
                    -1.745444416999817,
                    -0.31413760781288147,
                    -0.49436381459236145,
                    -1.3821706771850586,
                    0.10983379930257797,
                    1.4106894731521606,
                    0.1670636534690857,
                    -0.4454415738582611,
                    0.1391996592283249,
                    1.1043838262557983,
                    -0.7510882019996643,
                    0.42307791113853455,
                    0.9118903875350952,
                    -0.5686013102531433,
                    0.18312200903892517,
                    0.7083651423454285,
                    0.05681311711668968,
                    -0.347411185503006,
                    -0.1563645750284195,
                    0.6978622674942017,
                    0.22965015470981598,
                    0.18186476826667786,
                    -0.27004125714302063,
                    0.5592349767684937,
                    -1.218097448348999,
                    0.2597097158432007,
                    -0.029935812577605247,
                    -0.24364931881427765,
                    1.6089924573898315,
                    -0.5613953471183777,
                    -0.2884054481983185,
                    0.673254132270813,
                    -0.3595030605792999,
                    0.8091516494750977,
                    -0.13728564977645874,
                    1.4472475051879883,
                    0.5311619639396667,
                    -0.49300453066825867,
                    -1.1246896982192993,
                    -0.21695229411125183,
                    0.299581378698349,
                    -1.2183811664581299,
                    -0.18863840401172638,
                    0.7467639446258545,
                    -0.6101585030555725,
                    0.40096551179885864,
                    0.2547553777694702,
                    -0.5701056122779846,
                    -0.472283273935318,
                    -0.6584447622299194,
                    0.6378657221794128,
                    0.06386062502861023,
                    -0.20285281538963318,
                    0.3440370261669159,
                    -0.05506116524338722,
                    0.22653166949748993,
                    -0.3802609145641327,
                    -0.31973814964294434,
                    0.35004922747612,
                    -0.837090015411377,
                    -0.3133523464202881,
                    0.03873972222208977,
                    0.8417730331420898,
                    0.5360958576202393,
                    -0.834736168384552,
                    -0.8174652457237244,
                    -0.2757819592952728,
                    0.3872554302215576,
                    -0.2052113115787506,
                    0.7507014274597168,
                    -0.5841423273086548,
                    0.4035603702068329,
                    -0.7212302684783936,
                    -0.9082563519477844,
                    -1.1316099166870117,
                    -0.23283374309539795,
                    0.06742450594902039,
                    -0.13275952637195587,
                    0.34973758459091187,
                    -0.8497681617736816,
                    -0.5446832776069641,
                    0.06311536580324173,
                    -0.0816001370549202,
                    -0.2551456689834595,
                    0.20508088171482086,
                    -0.5687254667282104,
                    -0.22950808703899384,
                    -0.1986723095178604,
                    -1.2594454288482666,
                    0.5562866926193237,
                    -0.8804635405540466,
                    -0.04149036481976509,
                    -0.058009106665849686,
                    -0.42270806431770325,
                    -0.0646730437874794,
                    -0.50504070520401,
                    -0.2578832805156708,
                    0.4378829598426819,
                    -0.451901376247406,
                    -0.23771749436855316,
                    0.6171154975891113,
                    0.4070684015750885,
                    -0.15478596091270447,
                    0.2704775929450989,
                    0.3670802712440491,
                    -0.8295966982841492,
                    0.6117830276489258,
                    -0.11610040813684464,
                    0.1265692114830017,
                    1.2436749935150146,
                    0.3561149835586548,
                    0.23740610480308533,
                    -0.26289087533950806,
                    0.9461408257484436,
                    -1.1807732582092285,
                    -0.11110864579677582,
                    0.68625807762146,
                    -0.3985888659954071,
                    1.1210392713546753,
                    0.057655252516269684,
                    -0.09279746562242508,
                    -0.6267603039741516,
                    -1.422885775566101,
                    0.36123520135879517,
                    0.8597016334533691,
                    -1.4378288984298706,
                    -0.29829293489456177,
                    1.1843565702438354,
                    1.1415410041809082,
                    -1.634548544883728,
                    -0.17385196685791016,
                    0.638514518737793,
                    -0.8517155647277832,
                    0.9648247957229614,
                    1.2438911199569702,
                    -1.2513624429702759,
                    1.3176536560058594,
                    -0.5650014281272888,
                    -0.9653660655021667,
                    -0.2781662940979004,
                    0.11072287708520889,
                    -1.4846125841140747,
                    0.4686504006385803,
                    0.26528045535087585,
                    0.8551546931266785,
                    -0.32936015725135803,
                    -1.0706137418746948,
                    -0.247859388589859,
                    -1.0043541193008423,
                    -0.08277465403079987,
                    0.09252847731113434,
                    0.6168992519378662,
                    -0.34328702092170715,
                    -0.19793547689914703,
                    0.09694607555866241,
                    0.3689037561416626,
                    -1.5509066581726074,
                    -0.701638400554657,
                    -0.8277658224105835,
                    0.18036334216594696,
                    -0.9362950921058655,
                    -0.5233273506164551,
                    0.0734981968998909,
                    0.21863439679145813,
                    -0.0005166105693206191,
                    -0.8194999098777771,
                    0.12175504863262177,
                    0.7525898814201355,
                    -0.08483700454235077,
                    0.37495192885398865,
                    0.29297974705696106,
                    -0.4181361198425293,
                    -0.9720615744590759,
                    0.9498711228370667,
                    0.0038598175160586834,
                    -0.6292827725410461,
                    1.772280216217041,
                    0.337338924407959,
                    -0.7940582633018494,
                    1.0391401052474976,
                    -0.44916877150535583,
                    0.11427686363458633,
                    0.47654369473457336,
                    -0.41505807638168335,
                    -0.4421113431453705,
                    0.12681257724761963,
                    0.08989649266004562,
                    -0.6750425696372986,
                    -0.08621574938297272,
                    0.3617097735404968,
                    0.09664968401193619,
                    0.48759961128234863,
                    0.31879836320877075,
                    -0.3439602851867676,
                    0.6611838340759277,
                    1.5751482248306274,
                    0.5238036513328552,
                    -1.2904677391052246,
                    0.8537479043006897,
                    0.23140311241149902,
                    0.07111099362373352,
                    0.2802920639514923
                ],
                [
                    -0.3480994701385498,
                    0.16339342296123505,
                    -0.15431109070777893,
                    0.5450878143310547,
                    -1.2980918884277344,
                    0.22681230306625366,
                    0.06108447164297104,
                    -0.5424209237098694,
                    0.18434104323387146,
                    0.1027953252196312,
                    -0.9094451665878296,
                    -0.34539440274238586,
                    -0.02916552685201168,
                    0.9306585192680359,
                    0.9778566956520081,
                    0.04916243627667427,
                    0.0030493130907416344,
                    0.18547695875167847,
                    0.3904837667942047,
                    0.47152718901634216,
                    -0.26414012908935547,
                    -0.4659789204597473,
                    -0.7582288384437561,
                    0.6436871886253357,
                    0.46814781427383423,
                    0.3285492956638336,
                    -0.02402189001441002,
                    0.4149583578109741,
                    -0.1627787947654724,
                    -0.2942873537540436,
                    -0.4883216619491577,
                    -0.5602489709854126,
                    -0.09598853439092636,
                    -0.8430019617080688,
                    -0.9098655581474304,
                    -1.5947790145874023,
                    0.13505101203918457,
                    0.222553089261055,
                    0.7424055337905884,
                    0.4002995491027832,
                    0.3462059795856476,
                    -1.4645246267318726,
                    1.314134120941162,
                    -0.180825337767601,
                    0.3195769786834717,
                    -0.2162722498178482,
                    -0.3970523476600647,
                    -0.4553814232349396,
                    0.2081851065158844,
                    -0.7695766091346741,
                    -0.25915440917015076,
                    0.10526295751333237,
                    0.23121599853038788,
                    -0.41120046377182007,
                    0.05199791491031647,
                    0.5849736928939819,
                    -0.26996761560440063,
                    -0.0868406817317009,
                    0.19687208533287048,
                    0.19103297591209412,
                    -0.828298032283783,
                    -1.3565857410430908,
                    -0.5701800584793091,
                    -0.3692196011543274,
                    -0.49774613976478577,
                    0.2485841065645218,
                    1.0620322227478027,
                    0.006234343629330397,
                    -0.5455722212791443,
                    -1.0715371370315552,
                    -0.13554678857326508,
                    0.7503671050071716,
                    -1.0629338026046753,
                    -0.06726861745119095,
                    0.3465127944946289,
                    0.09955383837223053,
                    0.5650898814201355,
                    0.8193632364273071,
                    -0.04328293353319168,
                    -0.21643202006816864,
                    0.7289783954620361,
                    -0.39224764704704285,
                    0.8523674607276917,
                    0.5619404315948486,
                    0.005406271666288376,
                    -0.8491330742835999,
                    -0.24873490631580353,
                    -0.7110744714736938,
                    0.18742984533309937,
                    -0.608074963092804,
                    0.931745171546936,
                    -0.176534965634346,
                    0.26230329275131226,
                    1.0851328372955322,
                    -0.2837648391723633,
                    -1.1063992977142334,
                    0.18207959830760956,
                    0.9153968095779419,
                    -0.5715482234954834,
                    1.231955647468567,
                    0.5691986083984375,
                    -0.20705896615982056,
                    0.009826813824474812,
                    -0.2822777032852173,
                    -0.06270705908536911,
                    -0.5147731900215149,
                    -1.0133336782455444,
                    0.19503271579742432,
                    0.04920941963791847,
                    -1.426040768623352,
                    -1.0773755311965942,
                    0.11100369691848755,
                    0.6407137513160706,
                    0.5584243535995483,
                    0.2960379719734192,
                    0.1442648470401764,
                    -0.25635117292404175,
                    -1.1099873781204224,
                    -1.1713274717330933,
                    -0.2913868725299835,
                    -0.2637834846973419,
                    -0.5583429932594299,
                    0.2256033569574356,
                    0.3369452953338623,
                    0.5588347911834717,
                    0.6214076280593872,
                    -0.536051332950592,
                    1.0614314079284668,
                    1.0835292339324951,
                    -1.1105623245239258,
                    -0.6984719634056091,
                    1.2197716236114502,
                    -0.4304104745388031,
                    -0.15749746561050415,
                    0.5041118264198303,
                    -0.14693422615528107,
                    0.4176773428916931,
                    0.22811278700828552,
                    0.20820759236812592,
                    -0.12181919813156128,
                    -0.08647535741329193,
                    0.18092934787273407,
                    0.3649790287017822,
                    0.3049556314945221,
                    -0.6969972848892212,
                    -0.55129075050354,
                    1.503637433052063,
                    0.5815253257751465,
                    0.5680139064788818,
                    -0.03000529296696186,
                    -0.49476465582847595,
                    -0.5899417400360107,
                    -0.8176363706588745,
                    0.42727425694465637,
                    -0.24074070155620575,
                    -0.2791158854961395,
                    -0.3147689998149872,
                    -0.5257828831672668,
                    0.44556644558906555,
                    0.0814196988940239,
                    1.0512669086456299,
                    0.07646007835865021,
                    0.30345189571380615,
                    0.41633889079093933,
                    0.04456856846809387,
                    0.36798736453056335,
                    -0.4913904070854187,
                    -0.0927230566740036,
                    0.563210129737854,
                    0.04238726571202278,
                    0.5269865989685059,
                    -0.9550700783729553,
                    0.8665862083435059,
                    1.3546650409698486,
                    0.8229973912239075,
                    0.0860670804977417,
                    -0.5101437568664551,
                    1.011590600013733,
                    0.39348718523979187,
                    -1.2599637508392334,
                    -0.5616536736488342,
                    0.2834455966949463,
                    0.24047736823558807,
                    0.04258201643824577,
                    -0.624093234539032,
                    0.9084213972091675,
                    0.6420491933822632,
                    -0.5422540307044983,
                    1.2265599966049194,
                    0.2969907522201538,
                    0.7174714803695679,
                    -0.3589159846305847,
                    -0.6378834247589111,
                    0.24792709946632385,
                    -0.20235340297222137,
                    -0.04764643311500549,
                    0.2398163378238678,
                    0.18622398376464844,
                    0.027422482147812843,
                    0.7270591855049133,
                    -0.14911659061908722,
                    0.2310979962348938,
                    0.749763548374176,
                    -0.7260138988494873,
                    0.7240687608718872,
                    -1.0163650512695312,
                    1.0451562404632568,
                    0.5338898301124573,
                    -0.4702289402484894,
                    -0.44518738985061646,
                    0.33542972803115845,
                    -0.7313598394393921,
                    -0.3022071123123169,
                    0.8968705534934998,
                    0.23790930211544037,
                    0.5671918392181396,
                    -0.7478235363960266,
                    0.03029959462583065,
                    0.2590780556201935,
                    0.09870439767837524,
                    0.45315638184547424,
                    0.7010082006454468,
                    -1.1666338443756104,
                    1.2709362506866455,
                    -1.1962292194366455,
                    0.1850121021270752,
                    -0.834769606590271,
                    -0.22914978861808777,
                    -0.8682500123977661,
                    -0.37883588671684265,
                    0.006103033199906349,
                    0.6746745705604553,
                    -1.225153923034668,
                    0.6016690135002136,
                    0.8153154253959656,
                    1.6250625848770142,
                    -0.19167685508728027,
                    0.2059698849916458,
                    -0.24377848207950592,
                    0.8074339032173157,
                    -0.2477058619260788,
                    0.516548752784729,
                    -0.14402137696743011,
                    0.18982680141925812,
                    -0.18256163597106934,
                    0.8698132038116455,
                    1.5752670764923096,
                    -0.17702770233154297,
                    1.280633807182312,
                    0.3651607930660248,
                    -0.008496811613440514,
                    0.7720215320587158,
                    -0.4642566442489624,
                    0.8222396969795227,
                    0.921299159526825,
                    0.1641726791858673,
                    -0.2616710364818573,
                    -0.6397833824157715,
                    -0.10783957690000534,
                    0.6540004014968872,
                    -0.656846821308136,
                    1.030526876449585,
                    -0.4119206368923187,
                    -0.3737836480140686,
                    0.3012504279613495,
                    -0.5715933442115784,
                    0.24920454621315002,
                    -0.3049165904521942,
                    -0.5701934695243835,
                    1.3901560306549072,
                    -0.42381802201271057,
                    0.06552114337682724,
                    0.9654951095581055,
                    0.15792903304100037,
                    -0.08860493451356888,
                    0.06623902916908264,
                    -0.12574614584445953,
                    0.6088792085647583,
                    -0.18349014222621918,
                    -0.6890950202941895,
                    0.11210961639881134,
                    -0.690010130405426,
                    1.45783531665802,
                    0.7711035013198853,
                    0.6864239573478699,
                    0.3294093608856201,
                    -0.4213767349720001,
                    0.4333033263683319,
                    0.06328728795051575,
                    0.8077329993247986,
                    -1.7155241966247559,
                    -0.27197811007499695,
                    -0.21042974293231964,
                    -0.3683965802192688,
                    -0.2577064335346222,
                    0.881262481212616,
                    0.48736515641212463,
                    -0.6005042195320129,
                    0.009263111278414726,
                    -0.5503160357475281,
                    -0.49436232447624207,
                    0.854293167591095,
                    0.22288811206817627,
                    -0.007515856064856052,
                    -1.293184518814087,
                    -0.452698677778244,
                    -0.33229881525039673,
                    -0.772354006767273,
                    -0.7902368903160095,
                    -0.1438830941915512,
                    0.3876940906047821,
                    0.19775091111660004,
                    0.31852778792381287,
                    1.2458657026290894,
                    0.6889306902885437,
                    0.6737683415412903,
                    -0.3047356903553009,
                    -0.10809314250946045,
                    0.6821907758712769,
                    -0.7511940598487854,
                    0.00934266671538353,
                    0.08371943235397339,
                    -0.22536088526248932,
                    -0.6573218703269958,
                    -0.2626001238822937,
                    -0.3622710704803467,
                    0.45082443952560425,
                    1.6031912565231323,
                    -0.3881607949733734,
                    0.2954504191875458,
                    -0.694464921951294,
                    0.2481176108121872,
                    -0.028256654739379883,
                    -0.06149546802043915,
                    1.0712720155715942,
                    -0.22229474782943726,
                    -0.050405628979206085,
                    0.5997017025947571,
                    0.03822317346930504,
                    -0.25873997807502747,
                    0.45597246289253235,
                    -1.8324822187423706,
                    0.47921988368034363,
                    0.4056732654571533,
                    0.5858534574508667,
                    0.07379946857690811,
                    0.488542765378952,
                    0.44668540358543396,
                    -0.342143177986145,
                    -0.421934574842453,
                    0.19531002640724182,
                    -1.5902798175811768,
                    -0.06843914836645126,
                    -0.4256711006164551,
                    0.1887076199054718,
                    -0.6118683815002441,
                    0.5958448052406311,
                    0.2652616798877716,
                    0.2753748595714569,
                    -0.1680462658405304,
                    1.3597307205200195,
                    0.9419607520103455,
                    0.14377208054065704,
                    -0.19145363569259644,
                    0.9720832109451294,
                    -0.97035151720047,
                    0.4617910385131836,
                    0.6930571794509888,
                    -1.5340811014175415,
                    -1.803671956062317,
                    -0.6527943015098572,
                    -2.537269115447998,
                    0.33668962121009827,
                    -0.12216031551361084,
                    -0.517049252986908,
                    0.9302815198898315,
                    0.7177780270576477,
                    1.370649814605713,
                    0.7518118619918823,
                    1.324452519416809,
                    -1.494667887687683,
                    -0.5383723974227905,
                    -0.16022928059101105,
                    0.16376784443855286,
                    -0.6238447427749634,
                    -0.031072260811924934,
                    0.5719666481018066,
                    -0.14992034435272217,
                    -0.29470381140708923,
                    0.414058119058609,
                    0.021881360560655594,
                    -0.501086950302124,
                    -0.2441302090883255,
                    0.3059341609477997,
                    0.9554814696311951,
                    -0.11383253335952759,
                    -0.04845729470252991,
                    -0.8216342926025391,
                    -0.06661658734083176,
                    -0.35311126708984375,
                    -0.37497255206108093,
                    -0.9158751368522644,
                    -0.7164314985275269,
                    -0.34834516048431396,
                    -0.06444704532623291,
                    -0.23145325481891632,
                    -0.7837286591529846,
                    -0.14985094964504242,
                    0.24373438954353333,
                    0.1831228882074356,
                    0.368247389793396,
                    -0.8908126354217529,
                    -0.33011749386787415,
                    0.43649035692214966,
                    -1.0614898204803467,
                    0.4674854278564453,
                    -0.7176376581192017,
                    0.03084581345319748,
                    1.0051932334899902,
                    0.37460583448410034,
                    0.6347729563713074,
                    -0.06520252674818039,
                    0.5695127844810486,
                    0.012535911053419113,
                    1.1227102279663086,
                    0.8830565810203552,
                    -0.48666712641716003,
                    -0.4936923086643219,
                    -1.8220674991607666,
                    0.7366607785224915,
                    -0.5246121883392334,
                    -0.21150296926498413,
                    0.29950112104415894,
                    0.20277856290340424,
                    0.8525274991989136,
                    0.4532933235168457,
                    1.4553831815719604,
                    2.00201153755188,
                    -0.6467460989952087,
                    0.07043005526065826,
                    -0.36667829751968384,
                    0.808051347732544,
                    -1.044114589691162,
                    -0.46092379093170166,
                    0.3375853896141052,
                    -0.1919570416212082,
                    0.20585687458515167,
                    0.4291980564594269,
                    0.6157999038696289,
                    0.36090803146362305,
                    1.049666166305542,
                    0.8477737903594971,
                    -0.5171621441841125,
                    0.13531291484832764,
                    -0.1465749740600586,
                    -1.183097243309021,
                    -0.4641329348087311,
                    -0.005149740260094404,
                    0.09403567761182785,
                    -0.9772456884384155,
                    1.0369751453399658,
                    0.16250362992286682,
                    -0.165562704205513,
                    -0.3782566785812378,
                    0.6278673410415649,
                    0.5122588276863098,
                    0.8416698575019836,
                    -0.03937390074133873,
                    0.06655218452215195,
                    0.7918322682380676,
                    -0.5806334614753723,
                    0.7111546397209167,
                    -0.044005170464515686,
                    -0.05291988328099251,
                    0.7406407594680786,
                    -0.08023194968700409,
                    0.062232211232185364,
                    -0.5379191040992737,
                    0.47535213828086853,
                    -0.4241126477718353,
                    0.5735709071159363,
                    -0.642845094203949,
                    -0.02893955633044243,
                    0.2798531651496887,
                    0.27964702248573303,
                    -0.12917403876781464,
                    0.4647703468799591,
                    -1.1807887554168701,
                    -0.5266356468200684,
                    -0.45512253046035767,
                    -0.8529808521270752,
                    1.1884816884994507,
                    0.348840594291687,
                    -0.30321887135505676,
                    0.6613653302192688,
                    -0.027904672548174858,
                    -1.3647843599319458,
                    1.2283855676651,
                    -0.4001462459564209,
                    0.6319212317466736,
                    -0.6041342616081238,
                    -0.4351171851158142,
                    -1.5433242321014404,
                    0.5569723844528198,
                    -0.3769403398036957,
                    0.3809053599834442,
                    -0.6441823244094849,
                    -0.5323448181152344,
                    0.6727936267852783,
                    0.8022586703300476,
                    -0.43960127234458923,
                    -0.38458314538002014,
                    -0.2456335723400116,
                    0.8815414309501648,
                    -0.3616795539855957,
                    0.01310637779533863,
                    1.2158814668655396,
                    1.2724909782409668,
                    -0.043294914066791534,
                    0.6090933680534363,
                    -0.08452664315700531,
                    0.24298670887947083,
                    -0.7375200986862183,
                    0.1987421065568924,
                    -0.18524158000946045,
                    0.3522489368915558,
                    0.20759466290473938,
                    -0.2067665159702301,
                    -0.18160289525985718,
                    0.2694433033466339,
                    -0.7852787375450134,
                    1.244932770729065,
                    -0.9433683753013611,
                    0.16239963471889496,
                    -0.7094177603721619,
                    0.49467554688453674,
                    -0.35310113430023193,
                    -0.13992303609848022,
                    0.05719168111681938,
                    0.9703968167304993,
                    -0.8192605376243591,
                    -0.0016385361086577177,
                    -0.12927281856536865,
                    0.5688675045967102,
                    -0.7486929297447205,
                    0.45538535714149475,
                    0.4280383586883545,
                    -1.3351824283599854,
                    0.23476837575435638,
                    -0.22666068375110626,
                    0.11797250807285309,
                    -0.4463983178138733,
                    0.9882358908653259,
                    -0.39090150594711304,
                    1.2019128799438477,
                    0.02176656201481819,
                    0.7023190259933472,
                    0.8550806641578674,
                    -0.4777666926383972,
                    -0.5324960350990295,
                    2.006930112838745,
                    0.547926127910614,
                    -0.5266548991203308,
                    -0.054895006120204926,
                    0.7787024974822998,
                    1.176965355873108,
                    -0.1462448686361313,
                    -0.02066824771463871,
                    -0.17924337089061737,
                    0.1186661571264267,
                    -0.0010242955759167671,
                    -0.10028628259897232,
                    -0.44624483585357666,
                    0.021747257560491562,
                    -0.7069588303565979,
                    0.040236055850982666,
                    0.28989747166633606,
                    0.41580161452293396,
                    -0.6807200312614441,
                    0.3262253701686859,
                    0.8121708035469055,
                    -0.10465899109840393,
                    -0.9312965273857117,
                    0.28012698888778687,
                    -0.597797691822052,
                    0.605131983757019,
                    -0.07179661095142365,
                    0.7705649137496948,
                    -0.1709279716014862,
                    0.9135642647743225,
                    -0.07471388578414917,
                    -0.3237970173358917,
                    1.8441433906555176,
                    0.4217229187488556,
                    0.025025758892297745,
                    0.6270307898521423,
                    0.30521053075790405,
                    -0.09849725663661957,
                    -0.883089542388916,
                    0.05168285593390465,
                    0.9796291589736938,
                    0.2403317242860794,
                    -0.026972919702529907,
                    -0.5388643145561218,
                    -0.6973298192024231,
                    0.6792712211608887,
                    -0.8585721254348755,
                    0.30893951654434204,
                    0.34392446279525757,
                    0.6237873435020447,
                    0.7095286846160889,
                    1.0633832216262817,
                    0.6833739876747131,
                    1.1423988342285156,
                    1.050044059753418,
                    -0.9400360584259033,
                    0.07640860229730606,
                    -0.3356282114982605,
                    -0.4261402189731598,
                    -0.9591689109802246,
                    -1.0964089632034302,
                    0.02027641050517559,
                    -0.5934699177742004,
                    1.4430018663406372,
                    0.16096539795398712,
                    0.8947884440422058,
                    -0.6049127578735352,
                    -0.46290746331214905,
                    -0.38167425990104675,
                    0.4547940492630005,
                    0.023799613118171692,
                    0.806160032749176,
                    1.0468111038208008,
                    -0.22005894780158997,
                    0.04286365956068039,
                    0.9604769349098206,
                    0.21394512057304382,
                    0.8047569990158081,
                    -0.7094123959541321,
                    -0.2622806429862976,
                    -0.2817038595676422,
                    0.018718700855970383,
                    -0.7131069302558899,
                    -0.3287532925605774,
                    0.16669045388698578,
                    0.5032052397727966,
                    0.10205315798521042,
                    -0.8563040494918823,
                    -0.6985375881195068,
                    -0.2992630898952484,
                    0.5675358176231384,
                    1.3895822763442993,
                    0.12516096234321594,
                    1.4073797464370728,
                    -0.004284175578504801,
                    0.3467105031013489,
                    0.1477709859609604,
                    -0.9881448149681091,
                    0.35792243480682373,
                    -0.7407392263412476,
                    0.19781190156936646,
                    0.4467313885688782,
                    -0.5678892135620117,
                    0.9286300539970398,
                    0.9750943183898926,
                    -0.5010576248168945,
                    0.6053803563117981,
                    0.8601077198982239,
                    0.3279215693473816,
                    -0.3253554105758667,
                    0.429249107837677,
                    -0.3718301057815552,
                    0.7397811412811279,
                    -0.37891441583633423,
                    0.13056811690330505,
                    1.2306506633758545,
                    -1.1342275142669678,
                    0.04719901457428932,
                    -0.9840263724327087,
                    -0.5386523604393005,
                    -0.8471441864967346,
                    -0.0326249897480011,
                    -0.4083866477012634,
                    1.1590076684951782,
                    1.1419538259506226,
                    0.3379032015800476,
                    -0.1717393845319748,
                    -0.05303991585969925,
                    0.5200282335281372,
                    -0.549772322177887,
                    1.6134281158447266,
                    0.20683033764362335,
                    -1.0768259763717651,
                    -0.3679226338863373,
                    -0.9535674452781677,
                    1.571884036064148,
                    -0.45146942138671875,
                    -0.16698433458805084,
                    -0.9566813707351685,
                    0.3867650330066681,
                    -0.23473447561264038,
                    0.13882245123386383,
                    -0.29043275117874146,
                    -0.4083996117115021,
                    -0.11105994880199432,
                    -0.41083693504333496,
                    -0.15087027847766876,
                    -0.5903654098510742,
                    -0.75716632604599,
                    -1.2937313318252563,
                    1.1475911140441895,
                    0.8312759399414062,
                    -0.1959129422903061,
                    0.28166601061820984,
                    -0.6598680019378662,
                    -0.5089790225028992,
                    -0.721988320350647,
                    0.6058942079544067,
                    0.6409118175506592,
                    -0.7040948867797852,
                    -1.4319019317626953,
                    -0.30913257598876953,
                    0.008124066516757011,
                    -0.8660362958908081,
                    -0.4857178032398224,
                    0.03503190726041794,
                    0.12724684178829193,
                    -0.6767145991325378,
                    -0.12738727033138275,
                    0.9913960695266724,
                    1.0797711610794067,
                    -1.058457374572754,
                    -1.0875885486602783,
                    -0.2935449182987213,
                    -0.402841180562973,
                    -0.31186366081237793,
                    0.29273301362991333,
                    0.2638762593269348,
                    0.4557838439941406,
                    0.26346686482429504,
                    0.5475127696990967,
                    0.44598570466041565,
                    1.0967708826065063,
                    0.1981818675994873,
                    -1.0632904767990112,
                    -0.4509090483188629,
                    -0.2447109818458557,
                    -0.27525508403778076,
                    0.32691052556037903,
                    0.3633192479610443,
                    -0.21175922453403473,
                    0.0979178249835968,
                    1.433232307434082,
                    0.1560320258140564,
                    -0.2619014084339142,
                    0.3926343619823456,
                    -0.7352768778800964,
                    -1.046560525894165,
                    -0.48170268535614014,
                    -0.8499615788459778,
                    -0.026173580437898636,
                    -0.2019415646791458,
                    -0.10424929112195969,
                    -0.629855215549469,
                    -1.1974714994430542,
                    0.7292290925979614,
                    -0.8150323629379272,
                    -0.35788461565971375,
                    -0.6958437561988831,
                    0.24668283760547638,
                    0.18443165719509125,
                    -0.5507674217224121,
                    0.3956136703491211,
                    0.496815949678421,
                    -0.9091767072677612,
                    0.903988778591156,
                    -0.3103141784667969,
                    0.5035513639450073,
                    -0.298721581697464,
                    1.2577204704284668,
                    0.6968901753425598,
                    -0.35632288455963135,
                    0.6088902354240417,
                    -0.2648617923259735
                ],
                [
                    0.468737930059433,
                    -0.7230648994445801,
                    -0.35396841168403625,
                    -0.18318209052085876,
                    -0.27162957191467285,
                    -0.4831492304801941,
                    -0.7384915947914124,
                    -0.11484736204147339,
                    0.16868169605731964,
                    -0.011063791811466217,
                    -0.05336291715502739,
                    -0.023220563307404518,
                    -0.7660644054412842,
                    -0.3084861934185028,
                    0.11535310000181198,
                    -0.28812846541404724,
                    -0.2206224799156189,
                    -0.16596075892448425,
                    -0.3855549693107605,
                    1.216387152671814,
                    -0.5922738313674927,
                    0.0049464586190879345,
                    -0.2594130337238312,
                    0.4689811170101166,
                    -1.297247052192688,
                    -0.04807480797171593,
                    -0.28150656819343567,
                    -0.29848232865333557,
                    0.39250603318214417,
                    0.8058242201805115,
                    -0.2025764137506485,
                    -0.010237098671495914,
                    -0.25672516226768494,
                    1.2973527908325195,
                    0.0034890964161604643,
                    0.4917793273925781,
                    0.9980936050415039,
                    -0.18389558792114258,
                    -0.46986374258995056,
                    0.15485841035842896,
                    1.1059781312942505,
                    -0.11002413928508759,
                    -0.5771453976631165,
                    -1.1391605138778687,
                    -0.5195606350898743,
                    0.13089556992053986,
                    -0.4725243151187897,
                    0.7161566019058228,
                    0.12513570487499237,
                    0.035117875784635544,
                    -0.15304166078567505,
                    -0.060319554060697556,
                    0.034844860434532166,
                    0.30539509654045105,
                    -0.2737909257411957,
                    -0.4105747938156128,
                    -1.1827726364135742,
                    0.3938012719154358,
                    -0.7456381916999817,
                    -1.0689412355422974,
                    -1.6381248235702515,
                    -0.2069575935602188,
                    -0.616958737373352,
                    0.6449642181396484,
                    -0.2869764566421509,
                    -1.1427419185638428,
                    -0.05422738194465637,
                    -0.4553605020046234,
                    -0.5561221837997437,
                    -0.02659514732658863,
                    -0.28887975215911865,
                    -1.0079224109649658,
                    0.14958199858665466,
                    -0.17369094491004944,
                    0.4744405448436737,
                    -0.7657754421234131,
                    -0.7076417207717896,
                    -0.5073326826095581,
                    -1.5649133920669556,
                    -1.363195776939392,
                    -0.07123841345310211,
                    0.05522098392248154,
                    0.6190633773803711,
                    0.9249662756919861,
                    0.014904038049280643,
                    -1.5452113151550293,
                    -0.27740278840065,
                    -0.19835656881332397,
                    0.7087608575820923,
                    -1.172107458114624,
                    -0.16713830828666687,
                    0.7583501935005188,
                    -0.1468379944562912,
                    -0.3311570882797241,
                    -0.6661674380302429,
                    0.039364468306303024,
                    -0.3311430513858795,
                    0.14520718157291412,
                    -0.9815580248832703,
                    -1.1018106937408447,
                    -0.9927746653556824,
                    -0.06009851396083832,
                    0.48852479457855225,
                    0.05829335376620293,
                    0.10765473544597626,
                    0.9479151964187622,
                    -0.9456745386123657,
                    -0.6964758634567261,
                    -1.3347830772399902,
                    0.33803752064704895,
                    0.13188210129737854,
                    -1.7773200273513794,
                    -0.5348117351531982,
                    0.1397213339805603,
                    0.6779882311820984,
                    -0.2049591988325119,
                    0.3628288507461548,
                    -1.2365925312042236,
                    -1.2341198921203613,
                    0.036564901471138,
                    -1.0143251419067383,
                    0.28637656569480896,
                    0.16526760160923004,
                    0.2795390188694,
                    -0.648895800113678,
                    0.7172890901565552,
                    -1.7466013431549072,
                    0.4910070300102234,
                    0.0714469850063324,
                    0.24012452363967896,
                    0.05097537487745285,
                    0.04716268181800842,
                    0.08491896092891693,
                    0.9511508345603943,
                    -0.10498974472284317,
                    -0.28703877329826355,
                    -0.3079363703727722,
                    0.4058328866958618,
                    0.82418292760849,
                    -0.5627602338790894,
                    -0.4538893699645996,
                    0.36145928502082825,
                    -0.19387763738632202,
                    -1.2470216751098633,
                    1.0425461530685425,
                    0.520176351070404,
                    -0.972841739654541,
                    -0.6206936240196228,
                    -0.11108385026454926,
                    1.0470389127731323,
                    1.136154294013977,
                    -0.6590358018875122,
                    0.6878916621208191,
                    -0.7208604216575623,
                    -1.3687071800231934,
                    -0.3468821942806244,
                    0.2671162486076355,
                    -0.36691150069236755,
                    0.6059368252754211,
                    0.5068716406822205,
                    1.5557159185409546,
                    -0.41830316185951233,
                    0.29391059279441833,
                    0.07777518033981323,
                    0.26375818252563477,
                    0.5846845507621765,
                    0.2747463881969452,
                    0.029392048716545105,
                    1.06622314453125,
                    -0.10261592268943787,
                    0.5112717151641846,
                    -0.07927265018224716,
                    -0.6476469039916992,
                    -0.722895622253418,
                    -0.8842484354972839,
                    0.09180983155965805,
                    -0.05698196589946747,
                    0.6169728636741638,
                    1.1888394355773926,
                    0.046521034091711044,
                    0.7815819382667542,
                    -0.3245939016342163,
                    -0.6913068890571594,
                    -0.6661818623542786,
                    0.8188380599021912,
                    0.8014189600944519,
                    1.5004680156707764,
                    0.31169968843460083,
                    -0.151032954454422,
                    -0.03208298608660698,
                    -0.7019298672676086,
                    0.0005483382847160101,
                    -0.4601157605648041,
                    -0.0659419521689415,
                    0.10354205220937729,
                    0.3897535502910614,
                    -0.2598654627799988,
                    -0.3648267686367035,
                    0.6202732920646667,
                    -0.2539979815483093,
                    -0.4370805621147156,
                    -0.6087700128555298,
                    1.197455883026123,
                    0.06098364666104317,
                    -0.7171585559844971,
                    0.7619603872299194,
                    -0.09388039261102676,
                    0.7090030908584595,
                    -0.48351654410362244,
                    0.5308026671409607,
                    0.594090461730957,
                    -1.7478811740875244,
                    1.8480581045150757,
                    -0.6566957831382751,
                    0.7833513617515564,
                    0.4750751852989197,
                    -0.8776094317436218,
                    -0.20885808765888214,
                    -0.3663742244243622,
                    0.710206925868988,
                    0.11579778790473938,
                    0.5455406308174133,
                    0.3319239318370819,
                    -0.44052135944366455,
                    0.33483371138572693,
                    0.6110807657241821,
                    0.9621260762214661,
                    -0.40085306763648987,
                    0.11512195318937302,
                    -1.0945444107055664,
                    -0.2962561547756195,
                    -0.2986702620983124,
                    0.7289148569107056,
                    -0.021639740094542503,
                    0.2906140983104706,
                    0.09110304713249207,
                    -0.4149547517299652,
                    0.6777772307395935,
                    -0.5969461798667908,
                    0.5795735120773315,
                    0.4837205111980438,
                    -1.5919023752212524,
                    0.3789961338043213,
                    -0.7380921244621277,
                    0.2241986244916916,
                    0.43519461154937744,
                    0.8974066376686096,
                    0.32441845536231995,
                    -0.08862358331680298,
                    0.6483033895492554,
                    -0.15139847993850708,
                    -0.2713328003883362,
                    1.6734955310821533,
                    0.09219475835561752,
                    0.1296643763780594,
                    -0.8579109311103821,
                    0.3745568096637726,
                    -0.264780730009079,
                    -0.37501832842826843,
                    -1.024259090423584,
                    -0.17082837224006653,
                    -1.2231730222702026,
                    0.3221698999404907,
                    0.7954341173171997,
                    0.19036099314689636,
                    -0.9095285534858704,
                    -0.9916836023330688,
                    -0.17833580076694489,
                    -0.6311112642288208,
                    -0.429331511259079,
                    -1.0896769762039185,
                    -0.7705066204071045,
                    -0.27884089946746826,
                    -0.4595984220504761,
                    -0.6859285235404968,
                    -0.08331423252820969,
                    1.2424911260604858,
                    -0.7757178544998169,
                    -1.071846842765808,
                    -0.09830671548843384,
                    -0.4296180009841919,
                    -1.0546016693115234,
                    0.7426180839538574,
                    0.3426178991794586,
                    -0.2993795871734619,
                    -0.2594909369945526,
                    -0.8423106074333191,
                    0.12357647716999054,
                    -0.24622444808483124,
                    1.5387002229690552,
                    0.8239955306053162,
                    -0.20935235917568207,
                    -0.4110901951789856,
                    1.1416451930999756,
                    -0.6201202869415283,
                    0.9692729115486145,
                    1.1581398248672485,
                    0.9799181818962097,
                    -1.0774509906768799,
                    0.01991465501487255,
                    0.7919934988021851,
                    -0.6894018650054932,
                    0.4921073615550995,
                    0.1376376450061798,
                    -0.2714891731739044,
                    -1.025362253189087,
                    0.32560038566589355,
                    1.18854820728302,
                    -0.9575344324111938,
                    0.19448713958263397,
                    0.04040899872779846,
                    0.034663084894418716,
                    0.09615936875343323,
                    -0.2599799633026123,
                    -0.440909743309021,
                    1.5744644403457642,
                    0.2244332730770111,
                    -0.4781593084335327,
                    -0.634031355381012,
                    -1.3024736642837524,
                    -0.641809344291687,
                    0.4375729560852051,
                    0.6911201477050781,
                    0.04033210128545761,
                    0.4293879270553589,
                    -0.6805974841117859,
                    0.2141086459159851,
                    -1.4228060245513916,
                    -0.6264923214912415,
                    0.11700952053070068,
                    -0.33953702449798584,
                    -0.7371286153793335,
                    0.49417319893836975,
                    1.0183347463607788,
                    0.36251962184906006,
                    -0.4481194019317627,
                    0.011529125273227692,
                    0.34644290804862976,
                    -0.459309846162796,
                    -0.40381792187690735,
                    -1.07937753200531,
                    0.2405077964067459,
                    0.8795068860054016,
                    -1.1414363384246826,
                    1.8946166038513184,
                    0.02374703250825405,
                    1.3712677955627441,
                    0.49218636751174927,
                    -0.22776561975479126,
                    0.6038333177566528,
                    0.23029519617557526,
                    -1.0499058961868286,
                    0.705393373966217,
                    -0.8588584661483765,
                    1.0435855388641357,
                    -0.5757895112037659,
                    -0.14800576865673065,
                    -0.2056048959493637,
                    0.0949985459446907,
                    -0.25671783089637756,
                    0.3985446095466614,
                    -0.6596255302429199,
                    -0.40333127975463867,
                    -0.8349116444587708,
                    -1.0443655252456665,
                    0.11546262353658676,
                    0.5080278515815735,
                    -1.0123176574707031,
                    0.4117918312549591,
                    -0.14162243902683258,
                    -0.7421017289161682,
                    0.31460586190223694,
                    -0.20224395394325256,
                    0.10609065741300583,
                    0.5730947852134705,
                    -0.06562522053718567,
                    0.2690703570842743,
                    -0.6694051027297974,
                    -0.1636442244052887,
                    -0.04671245440840721,
                    1.1803574562072754,
                    -0.8818324208259583,
                    0.6852966547012329,
                    0.29394790530204773,
                    0.12309025228023529,
                    0.0502937026321888,
                    -1.0649412870407104,
                    0.7343977689743042,
                    0.3995484709739685,
                    0.31661051511764526,
                    -0.8751628398895264,
                    -0.5363950133323669,
                    -0.9358721375465393,
                    0.38193103671073914,
                    0.27262723445892334,
                    -0.7523442506790161,
                    -0.9254654049873352,
                    -0.5362904071807861,
                    -0.6287700533866882,
                    0.2760598063468933,
                    -0.30385035276412964,
                    0.539576530456543,
                    1.2973729372024536,
                    0.056118305772542953,
                    -0.4680648744106293,
                    -0.04863286390900612,
                    0.6364578008651733,
                    -0.5232256650924683,
                    -0.2616075575351715,
                    1.6673990488052368,
                    -1.6781402826309204,
                    0.32797154784202576,
                    0.07817207276821136,
                    0.13985542953014374,
                    0.4707205593585968,
                    -0.39998385310173035,
                    -0.8839924931526184,
                    -0.7771509885787964,
                    0.10197696834802628,
                    0.428144633769989,
                    -0.31918686628341675,
                    -0.1771489828824997,
                    1.1382672786712646,
                    0.22615982592105865,
                    -0.5855675339698792,
                    -0.5841983556747437,
                    -0.037508346140384674,
                    0.8795774579048157,
                    -0.011168833822011948,
                    1.7151341438293457,
                    0.2981550097465515,
                    -0.49005627632141113,
                    0.03784479200839996,
                    0.4768475890159607,
                    -0.956919252872467,
                    -1.7885812520980835,
                    0.6631476283073425,
                    0.31335848569869995,
                    -0.8398667573928833,
                    0.28959372639656067,
                    0.26712074875831604,
                    -1.3578433990478516,
                    0.03948434814810753,
                    -0.10660769045352936,
                    -0.10676681995391846,
                    0.24982991814613342,
                    0.28042080998420715,
                    -0.663818359375,
                    1.4343159198760986,
                    -0.22882306575775146,
                    -0.11794554442167282,
                    -0.30515679717063904,
                    0.2310386449098587,
                    0.6061837673187256,
                    1.262513279914856,
                    -0.8330598473548889,
                    0.2031482309103012,
                    -0.8091202974319458,
                    -0.4542001485824585,
                    0.2490595281124115,
                    0.41496628522872925,
                    0.5006664991378784,
                    0.11500904709100723,
                    -0.2508462965488434,
                    0.08402464538812637,
                    -0.42535075545310974,
                    -1.7646195888519287,
                    -0.26569533348083496,
                    -0.781234622001648,
                    -0.06776084005832672,
                    0.020188145339488983,
                    0.9035391807556152,
                    0.6512036323547363,
                    -1.1182479858398438,
                    -0.3786758482456207,
                    -1.1290099620819092,
                    -0.1738671064376831,
                    -0.7918276786804199,
                    -0.02234211377799511,
                    -0.711747944355011,
                    -0.03337583318352699,
                    0.12867166101932526,
                    -0.6473063230514526,
                    -0.9029272198677063,
                    -0.6510832905769348,
                    -0.5059847235679626,
                    0.4343051016330719,
                    0.14207035303115845,
                    -0.6130989789962769,
                    0.06622263789176941,
                    -0.20470207929611206,
                    0.4209160804748535,
                    0.8351371884346008,
                    1.5914846658706665,
                    0.014912880957126617,
                    -0.5725137591362,
                    0.5241711735725403,
                    0.24853503704071045,
                    0.2447342872619629,
                    -0.8017333149909973,
                    -0.9715291261672974,
                    0.11848755180835724,
                    0.8371132016181946,
                    -0.1574011743068695,
                    0.6228333711624146,
                    -0.5440884232521057,
                    0.8957275748252869,
                    -0.23585015535354614,
                    0.19918929040431976,
                    -0.9345037341117859,
                    -1.1277954578399658,
                    0.09860119968652725,
                    0.44104522466659546,
                    0.6439422369003296,
                    0.09238243848085403,
                    0.6469113826751709,
                    1.1548972129821777,
                    0.1477370411157608,
                    1.504541277885437,
                    -0.32459381222724915,
                    -0.7476596236228943,
                    0.1830957531929016,
                    0.844921886920929,
                    -0.10597701370716095,
                    -0.2202274054288864,
                    0.6164721250534058,
                    -1.2273576259613037,
                    0.7346318364143372,
                    -0.5142621397972107,
                    -0.07228849083185196,
                    0.5121591687202454,
                    1.0806201696395874,
                    -0.0508858747780323,
                    0.13151200115680695,
                    -0.8111591935157776,
                    -0.13580051064491272,
                    -0.6643132567405701,
                    0.9114154577255249,
                    0.7593182325363159,
                    -1.1963306665420532,
                    0.36403781175613403,
                    0.9641525149345398,
                    -1.5990877151489258,
                    0.12958471477031708,
                    -0.3317369520664215,
                    -0.7219355702400208,
                    -1.3190315961837769,
                    0.3430735766887665,
                    -0.014789493754506111,
                    -0.12617553770542145,
                    0.05535310134291649,
                    -0.09684010595083237,
                    -0.38194799423217773,
                    0.6379086375236511,
                    -0.25794023275375366,
                    0.8487051129341125,
                    0.27092280983924866,
                    -0.4322877526283264,
                    1.0362746715545654,
                    1.0062909126281738,
                    -0.1951470822095871,
                    -0.5299486517906189,
                    0.6692276000976562,
                    -0.6816608905792236,
                    -0.1738317459821701,
                    0.3576159179210663,
                    0.6749750375747681,
                    0.14374662935733795,
                    -0.7890981435775757,
                    -0.9252287745475769,
                    -0.2576325535774231,
                    0.16422565281391144,
                    0.4011729955673218,
                    0.6555827856063843,
                    -0.004993385635316372,
                    0.0040800925344228745,
                    0.9379376769065857,
                    0.03434725105762482,
                    1.6095856428146362,
                    0.2116391956806183,
                    -0.5845135450363159,
                    -0.37785544991493225,
                    -0.6391716003417969,
                    0.6051347851753235,
                    0.20161162316799164,
                    -0.08843579888343811,
                    0.5996213555335999,
                    -0.4384082853794098,
                    -0.7365622520446777,
                    -0.04719693213701248,
                    0.3038363456726074,
                    -0.8772801160812378,
                    0.5031222701072693,
                    0.4628753364086151,
                    0.8380295038223267,
                    0.9925135970115662,
                    -0.8982178568840027,
                    -0.8309583067893982,
                    -0.26408669352531433,
                    -0.07366746664047241,
                    0.6444315314292908,
                    -0.5226367712020874,
                    -0.09586828947067261,
                    -0.6161925196647644,
                    -0.12923529744148254,
                    -0.4373411238193512,
                    0.688412070274353,
                    -0.043554894626140594,
                    0.19757242500782013,
                    -0.25511634349823,
                    0.22792960703372955,
                    -0.6817247867584229,
                    1.3038753271102905,
                    -0.5300499200820923,
                    1.253463864326477,
                    1.196779489517212,
                    0.38182318210601807,
                    -1.1094297170639038,
                    0.8605996370315552,
                    0.22840853035449982,
                    0.19553694128990173,
                    0.7518303394317627,
                    -1.1514688730239868,
                    -0.30017951130867004,
                    -0.3630000352859497,
                    0.8304805159568787,
                    -1.6091574430465698,
                    1.3705328702926636,
                    -0.4852434992790222,
                    -0.19941136240959167,
                    -1.8141263723373413,
                    0.04963365197181702,
                    -0.5104077458381653,
                    1.1924561262130737,
                    0.8631718158721924,
                    0.9772714972496033,
                    -1.6595865488052368,
                    0.7403467893600464,
                    -0.29958829283714294,
                    -0.8100296854972839,
                    -0.28125879168510437,
                    -0.25124233961105347,
                    -0.4722882807254791,
                    0.718119204044342,
                    0.9776084423065186,
                    0.23953166604042053,
                    -0.09279163181781769,
                    1.0322662591934204,
                    1.3208597898483276,
                    -0.5079317092895508,
                    1.1702258586883545,
                    -0.0656643733382225,
                    1.5390081405639648,
                    1.7955012321472168,
                    -0.5488995909690857,
                    0.4392625391483307,
                    0.3076246976852417,
                    -0.33900168538093567,
                    -0.35594311356544495,
                    0.3803987503051758,
                    0.8082692623138428,
                    -0.9633257985115051,
                    -0.8817566633224487,
                    0.1592859923839569,
                    0.02425023354589939,
                    0.5368095636367798,
                    -0.3669981062412262,
                    0.257318377494812,
                    0.42833206057548523,
                    1.137358546257019,
                    1.4921678304672241,
                    -0.2701258361339569,
                    -0.09914698451757431,
                    -0.9208751916885376,
                    0.20058372616767883,
                    0.7998917698860168,
                    1.0770161151885986,
                    -0.14976218342781067,
                    -0.6212050914764404,
                    0.7642621994018555,
                    -0.6159564256668091,
                    0.04488937556743622,
                    0.7809567451477051,
                    0.30468645691871643,
                    0.6287139654159546,
                    -1.0871260166168213,
                    -0.3762133717536926,
                    0.5610354542732239,
                    0.42604517936706543,
                    0.8271106481552124,
                    0.37733227014541626,
                    0.038851864635944366,
                    -0.3699171245098114,
                    -0.34580299258232117,
                    -0.621626079082489,
                    0.6981859803199768,
                    -0.22192545235157013,
                    -0.9696851968765259,
                    -0.04002330079674721,
                    0.32163429260253906,
                    -0.21325594186782837,
                    0.8031916618347168,
                    0.26269203424453735,
                    -0.3562964200973511,
                    0.0797242820262909,
                    0.7896261811256409,
                    -0.2948286533355713,
                    0.7852340340614319,
                    0.9214491248130798,
                    0.0021527628414332867,
                    -0.3562857210636139,
                    -0.23424698412418365,
                    -0.6085513830184937,
                    -0.7052341103553772,
                    -0.9163392782211304,
                    -0.45784223079681396,
                    0.4284552335739136,
                    -0.6008303165435791,
                    0.3297887444496155,
                    -0.6602826118469238,
                    -0.8809863924980164,
                    0.05239369720220566,
                    0.17309367656707764,
                    -0.05029384419322014,
                    -0.027202801778912544,
                    -0.2268887758255005,
                    -0.6094852685928345,
                    -1.0265315771102905,
                    -0.3389432430267334,
                    -0.7701299786567688,
                    0.07652024924755096,
                    -0.3634266257286072,
                    -0.4823634922504425,
                    -0.63010174036026,
                    0.31840646266937256,
                    0.3789581060409546,
                    -0.4483954906463623,
                    0.7374938130378723,
                    -1.2670787572860718,
                    0.2964431941509247,
                    -0.856957733631134,
                    0.49535638093948364,
                    0.15767966210842133,
                    -0.445252001285553,
                    -0.9415478110313416,
                    0.6175118088722229,
                    -1.177735447883606,
                    -1.0735225677490234,
                    0.2329370379447937,
                    0.925309956073761,
                    -0.0906577855348587,
                    -1.018192172050476,
                    0.7020246982574463,
                    0.0032868334092199802,
                    -0.5269304513931274,
                    -1.134361982345581,
                    -0.34566545486450195,
                    0.08361499756574631,
                    -0.10995925962924957,
                    -0.6641384363174438,
                    -1.5462872982025146,
                    0.569510817527771,
                    -0.15782848000526428,
                    -0.027455925941467285,
                    -0.3026806712150574,
                    0.6242753863334656,
                    0.20504695177078247,
                    -0.24310506880283356,
                    0.4992758333683014,
                    0.264004111289978,
                    0.28512412309646606,
                    1.678554892539978,
                    -0.04137516766786575,
                    -0.3888710141181946,
                    0.8940056562423706,
                    -0.027360858395695686,
                    -0.20792336761951447,
                    -0.7743719816207886,
                    0.156831294298172,
                    0.8440895676612854,
                    -0.45368096232414246,
                    -0.34141358733177185,
                    -0.5938998460769653,
                    -0.8919559717178345
                ],
                [
                    0.7520943880081177,
                    -0.6496126055717468,
                    -0.5705054402351379,
                    -0.6951314210891724,
                    -0.4326285719871521,
                    -0.6781938076019287,
                    -0.40248677134513855,
                    -0.8002820014953613,
                    -0.6603463292121887,
                    -0.06349626928567886,
                    -0.4279235303401947,
                    1.1857659816741943,
                    1.0675092935562134,
                    0.3198009729385376,
                    0.47124189138412476,
                    -0.8757140636444092,
                    -0.3252362310886383,
                    -0.38447099924087524,
                    -0.4543609917163849,
                    -0.026364725083112717,
                    -0.850415050983429,
                    1.1923328638076782,
                    0.24391809105873108,
                    0.07080014050006866,
                    -0.36241406202316284,
                    -0.366446852684021,
                    0.680935263633728,
                    0.3065136671066284,
                    0.6744910478591919,
                    -0.04700439050793648,
                    -0.4590435326099396,
                    0.8221034407615662,
                    -0.5718379020690918,
                    1.1495622396469116,
                    -0.03493821620941162,
                    -0.4863992929458618,
                    1.054689884185791,
                    -0.9379078149795532,
                    1.523934006690979,
                    -1.5520589351654053,
                    -0.26307395100593567,
                    -0.7566537857055664,
                    -0.9507545828819275,
                    0.09755199402570724,
                    1.1346663236618042,
                    0.528612494468689,
                    -0.6999093294143677,
                    -0.16775347292423248,
                    -0.6639946103096008,
                    -0.3895014822483063,
                    -0.5552325248718262,
                    -0.1818796992301941,
                    0.28356727957725525,
                    0.5832375884056091,
                    -0.19000786542892456,
                    0.7279679775238037,
                    -0.20849165320396423,
                    1.4816298484802246,
                    0.9661957025527954,
                    -0.8735697269439697,
                    0.5064888596534729,
                    -0.2642093300819397,
                    1.1145321130752563,
                    -0.8627994060516357,
                    -0.036060601472854614,
                    1.4160025119781494,
                    0.7162722945213318,
                    -0.8041428923606873,
                    -0.21062292158603668,
                    -0.5255658030509949,
                    1.0619354248046875,
                    0.7608797550201416,
                    0.9194414615631104,
                    -0.3110232353210449,
                    0.5580322742462158,
                    -0.6723198294639587,
                    -0.31522509455680847,
                    -1.2899551391601562,
                    -0.7381448745727539,
                    -0.30445605516433716,
                    0.08753392845392227,
                    0.5788047909736633,
                    0.5102322101593018,
                    0.6365768313407898,
                    0.19619789719581604,
                    0.8492739200592041,
                    -0.47157084941864014,
                    0.6083903908729553,
                    -0.09386555850505829,
                    -1.235905408859253,
                    -1.1000391244888306,
                    0.05567965656518936,
                    -1.2350560426712036,
                    0.7679537534713745,
