{
    "layers": [
        {
            "weights": [
                [
                    -0.5161766409873962,
                    -0.044920604676008224,
                    -0.11193108558654785,
                    -0.1007085070014,
                    -0.44275346398353577,
                    -0.5921595692634583,
                    0.3259734511375427,
                    -0.08880733698606491,
                    0.5063371658325195,
                    0.11335188150405884,
                    0.1867745965719223,
                    0.1431637406349182,
                    -0.11596586555242538,
                    0.7034583687782288,
                    -0.4356034994125366,
                    -0.05214603617787361,
                    0.10652769356966019,
                    -0.4718586206436157,
                    -0.19314223527908325,
                    0.4409419000148773,
                    0.7127590775489807,
                    0.11188783496618271,
                    -0.056640803813934326,
                    -0.2003556787967682,
                    -0.6822673082351685,
                    -0.5437440872192383,
                    -0.10336332768201828,
                    0.7657272219657898,
                    0.3338722586631775,
                    0.06972037255764008,
                    0.43136465549468994,
                    -0.14563852548599243,
                    0.0009958446025848389,
                    0.0849624052643776,
                    0.5363407135009766,
                    0.1473155915737152,
                    0.07953318953514099,
                    -0.5384687781333923,
                    0.33225202560424805,
                    0.4066872000694275,
                    -0.02044057473540306,
                    -0.18274502456188202,
                    0.10099942982196808,
                    -0.2233009785413742,
                    -0.08184301853179932,
                    -0.38426634669303894,
                    0.6853488087654114,
                    -0.010653109289705753,
                    0.05901143699884415,
                    -0.2807406187057495,
                    -0.20883804559707642,
                    -0.08727335184812546,
                    0.3716374635696411,
                    0.0632251426577568,
                    0.36028674244880676,
                    -0.12217935174703598,
                    -0.10701560974121094,
                    0.4743935763835907,
                    0.1033044308423996,
                    -0.05970828980207443,
                    0.6576589941978455,
                    0.550995945930481,
                    -0.11248703300952911,
                    0.4573329985141754,
                    -0.571316123008728,
                    -0.4087769389152527,
                    -0.016611792147159576,
                    -0.037684500217437744,
                    0.11338713020086288,
                    0.16534218192100525,
                    0.1078852191567421,
                    0.13910695910453796,
                    -0.09898221492767334,
                    0.23357178270816803,
                    0.1298588365316391,
                    -0.07292359322309494,
                    -0.3095376193523407,
                    0.03666345775127411,
                    0.2558614909648895,
                    -0.058327894657850266,
                    -0.9875914454460144,
                    -0.15145285427570343,
                    0.783565878868103,
                    0.5805709958076477,
                    -0.16648343205451965,
                    0.29621973633766174,
                    -0.022848499938845634,
                    0.2843463718891144,
                    -0.34668517112731934,
                    1.2021000385284424,
                    0.2888140082359314,
                    0.07622229307889938,
                    -0.265985906124115,
                    -0.3302886486053467,
                    0.3965265452861786,
                    0.16865740716457367,
                    -0.2511623203754425,
                    -0.047941505908966064,
                    0.07817206531763077,
                    0.35924452543258667,
                    0.024047933518886566,
                    -0.4659818112850189,
                    -0.1808428019285202,
                    0.41859695315361023,
                    -0.8552764058113098,
                    -0.5955191254615784,
                    -0.33769145607948303,
                    -0.061121560633182526,
                    -0.12774129211902618,
                    -0.14671176671981812,
                    -0.3089763820171356,
                    0.496914267539978,
                    0.16633853316307068,
                    -0.2759726047515869,
                    0.04008418694138527,
                    0.2539716958999634,
                    0.3701867461204529,
                    0.4984634816646576,
                    -0.2394973188638687,
                    -0.060723915696144104,
                    0.5598626136779785,
                    0.2951185405254364,
                    0.4896973967552185,
                    -0.08509887009859085,
                    0.02757932059466839,
                    -0.025693511590361595,
                    -0.28082075715065,
                    -0.36790359020233154,
                    1.1275771856307983,
                    -0.6318969130516052,
                    -0.4217403531074524,
                    -0.14426544308662415,
                    0.1546596884727478,
                    -0.4794166088104248,
                    0.35268115997314453,
                    -0.45903724431991577,
                    -0.12498561292886734,
                    0.061120808124542236,
                    -0.07869809120893478,
                    0.6187360286712646,
                    0.49778273701667786,
                    0.7556318640708923,
                    -0.6282116770744324,
                    -0.6511606574058533,
                    0.15028861165046692,
                    0.03334612771868706,
                    -0.1459040492773056,
                    -0.12775206565856934,
                    -0.025432107970118523,
                    -0.23117439448833466,
                    -0.1368316411972046,
                    0.4287729263305664,
                    0.4169585108757019,
                    0.5087014436721802,
                    0.6915291547775269,
                    0.09170981496572495,
                    0.32106220722198486,
                    -0.13468074798583984,
                    0.34553131461143494,
                    -0.12382199615240097,
                    0.4934418201446533,
                    -0.22614829242229462,
                    0.22797513008117676,
                    0.11816916614770889,
                    0.163418710231781,
                    0.1239972710609436,
                    0.23763348162174225,
                    -0.49660712480545044,
                    -0.20018133521080017,
                    -0.3580256402492523,
                    -0.5388568043708801,
                    0.328682005405426,
                    0.5534096360206604,
                    0.19141314923763275,
                    -0.22900550067424774,
                    0.43341803550720215,
                    -0.4306482970714569,
                    0.2365909367799759,
                    -0.4034879505634308,
                    -0.003990303259342909,
                    -0.3892850875854492,
                    0.2748550474643707,
                    0.5907695293426514,
                    -0.01477311085909605,
                    0.3505136966705322,
                    0.5982342958450317,
                    -0.3386951982975006,
                    -0.5894883871078491,
                    -0.10917717218399048,
                    -0.42858245968818665,
                    0.17934828996658325,
                    -0.4976285696029663,
                    0.4845624566078186,
                    0.23248028755187988,
                    -0.9351276159286499,
                    0.4350642263889313,
                    -0.20863847434520721,
                    1.0349152088165283,
                    -0.14689901471138,
                    0.40867021679878235,
                    -0.35397815704345703,
                    -0.5954179167747498,
                    -0.10379518568515778,
                    0.10663770884275436,
                    0.33450961112976074,
                    0.1506299376487732,
                    0.7087687849998474,
                    0.6471720337867737,
                    0.13587459921836853,
                    0.6794255375862122,
                    -0.9598893523216248,
                    0.5450881719589233,
                    0.0026156320236623287,
                    -0.4162130057811737,
                    -0.6395776867866516,
                    0.29815033078193665,
                    0.165678009390831,
                    0.18583627045154572,
                    0.21813622117042542,
                    0.4336717128753662,
                    -0.1193741112947464,
                    0.03462127968668938,
                    0.1581350415945053,
                    -0.1905500292778015,
                    -0.6578270196914673,
                    0.6322488784790039,
                    -0.20476604998111725,
                    0.21579457819461823,
                    -0.23730643093585968,
                    -0.0673879012465477,
                    -0.24724364280700684,
                    0.5002925395965576,
                    0.6708019375801086,
                    0.07113107293844223,
                    0.2298792451620102,
                    0.2781716287136078,
                    0.019229698926210403,
                    0.32922685146331787,
                    -0.2575788199901581,
                    0.320899099111557,
                    0.31661784648895264,
                    -0.23850002884864807,
                    0.5825428366661072,
                    -0.23700155317783356,
                    -0.6163564920425415,
                    -0.22702838480472565,
                    0.4349316954612732,
                    -0.1163354367017746,
                    -0.37019994854927063,
                    -0.5745401382446289,
                    -0.7282846570014954,
                    0.13461819291114807,
                    -0.5838145613670349,
                    0.19241726398468018,
                    0.009993779473006725,
                    -0.38201647996902466,
                    0.30821236968040466,
                    -0.02120106667280197,
                    0.6499466896057129,
                    -0.3963077664375305,
                    -0.4581007957458496,
                    -0.47364291548728943,
                    -0.8890027403831482,
                    -0.04489506408572197,
                    -0.031828392297029495,
                    0.41227373480796814,
                    0.5523760318756104,
                    -0.02800096571445465,
                    -0.03516482934355736,
                    -0.06888984888792038,
                    -0.23486624658107758,
                    0.7570616602897644,
                    0.5162324905395508,
                    -0.25773942470550537,
                    0.775034487247467,
                    -0.7692384719848633,
                    0.6509811878204346,
                    -0.0602765828371048,
                    0.27422547340393066,
                    -0.8368867039680481,
                    0.8942971229553223,
                    -0.15373612940311432,
                    -0.4389210343360901,
                    -0.04589802399277687,
                    -0.19573743641376495,
                    -0.20985741913318634,
                    -0.03214722126722336,
                    0.06667914986610413,
                    0.000251179066253826,
                    0.5514126420021057,
                    0.1452244371175766,
                    -0.812151312828064,
                    -0.5292412042617798,
                    -0.38937532901763916,
                    -0.14618372917175293,
                    -0.02347257174551487,
                    0.4498888850212097,
                    0.09711603075265884,
                    0.4716379642486572,
                    -0.23834829032421112,
                    0.05128408595919609,
                    0.7733055353164673,
                    -0.38641318678855896,
                    -0.2049257755279541,
                    0.009644024074077606,
                    0.5184559226036072,
                    0.1567578762769699,
                    0.40491777658462524,
                    -0.6482548713684082,
                    -0.011341064237058163,
                    0.06859541684389114,
                    0.006501993630081415,
                    0.4192412197589874,
                    -0.040567927062511444,
                    -0.736433207988739,
                    -0.3774549663066864,
                    -0.20664936304092407,
                    -0.24483908712863922,
                    -0.5188654661178589,
                    -0.16689619421958923,
                    -0.22033242881298065,
                    -0.5136435031890869,
                    0.21134278178215027,
                    -0.5373338460922241,
                    0.3530290722846985,
                    -0.09655588120222092,
                    0.21836447715759277,
                    0.28929176926612854,
                    0.3901098668575287,
                    -0.3070066273212433,
                    -0.579433262348175,
                    -0.09617602080106735,
                    0.4349924325942993,
                    -0.16569629311561584,
                    -0.36051326990127563,
                    -0.5198161602020264,
                    0.863335132598877,
                    0.2887389361858368,
                    -0.22453314065933228,
                    -0.09242142736911774,
                    -0.14130821824073792,
                    -0.7677792906761169,
                    -0.4697229564189911,
                    0.17831437289714813,
                    0.469257652759552,
                    -0.4737301468849182,
                    -0.7738516926765442,
                    -0.11130642145872116,
                    -0.1326228827238083,
                    -0.21441419422626495,
                    -0.6661616563796997,
                    -0.389201283454895,
                    0.13343356549739838,
                    0.3644282817840576,
                    -0.0797262117266655,
                    -0.33196622133255005,
                    -0.1899970918893814,
                    0.04977079853415489,
                    0.17016726732254028,
                    0.4293676018714905,
                    0.23187442123889923,
                    -0.4873726963996887,
                    -0.131656676530838,
                    0.19627878069877625,
                    -0.12036644667387009,
                    0.47920191287994385,
                    -0.3630390167236328,
                    -0.04617028310894966,
                    0.10038412362337112,
                    -0.7070838809013367,
                    -0.6353043913841248,
                    -0.156217560172081,
                    -0.42213043570518494,
                    -0.19903671741485596,
                    -0.239295095205307,
                    -1.0867267847061157,
                    0.1405150294303894,
                    0.3130260407924652,
                    -0.8047879934310913,
                    0.01316949911415577,
                    0.26291248202323914,
                    -0.23615217208862305,
                    -0.041323915123939514,
                    -0.40685179829597473,
                    0.12985539436340332,
                    -0.2768653929233551,
                    0.1611308604478836,
                    -0.04456585273146629,
                    0.1963498890399933,
                    -0.3694772720336914,
                    0.047131214290857315,
                    0.6424174308776855,
                    0.5827578902244568,
                    -0.39005324244499207,
                    0.1612391471862793,
                    0.1496937870979309,
                    -0.08571704477071762,
                    0.35540565848350525,
                    0.03188633546233177,
                    -0.04657619819045067,
                    -0.006296729203313589,
                    -0.5474403500556946,
                    -0.5607439875602722,
                    -0.03259345516562462,
                    -0.4958900511264801,
                    -0.6928811073303223,
                    0.12761032581329346,
                    0.6925385594367981,
                    -0.209054097533226,
                    -0.249313086271286,
                    0.3827652037143707,
                    -0.08849260956048965,
                    -0.4088011384010315,
                    0.314327210187912,
                    -0.3177814483642578,
                    0.38056352734565735,
                    0.2835165560245514,
                    0.24897624552249908,
                    0.049880679696798325,
                    -0.07346785068511963,
                    -0.14345501363277435,
                    0.7505847811698914,
                    -0.12113866955041885,
                    -0.7079033851623535,
                    -0.4194432497024536,
                    -0.5632719397544861,
                    -0.04394986480474472,
                    -0.373762309551239,
                    0.6459084153175354,
                    -0.001240433193743229,
                    -0.03331739082932472,
                    -0.25358837842941284,
                    0.10713231563568115,
                    0.05831129103899002,
                    0.6126042604446411,
                    0.5660054683685303,
                    0.42849472165107727,
                    0.2757616639137268,
                    0.022562066093087196,
                    -0.047678325325250626,
                    0.304202675819397,
                    0.10295217484235764,
                    -0.2690592408180237,
                    0.12460704147815704,
                    -0.11221134662628174,
                    -0.49289679527282715,
                    -0.19444820284843445,
                    0.08779621869325638,
                    0.1549476683139801,
                    -0.12263175845146179,
                    -0.29366567730903625,
                    0.015014136210083961,
                    0.2835537791252136,
                    0.41238152980804443,
                    0.4268922507762909,
                    0.2567582428455353,
                    0.5517883896827698,
                    -0.28028640151023865,
                    -0.5004841685295105,
                    -0.08279862254858017,
                    -0.16337011754512787,
                    -0.08994410187005997,
                    -0.3274775445461273,
                    0.5245466828346252,
                    -0.26159560680389404,
                    0.4260730743408203,
                    -0.5522178411483765,
                    0.3566063642501831,
                    -0.5126968622207642,
                    0.7147135734558105,
                    0.2567099332809448,
                    -0.06807945668697357,
                    -0.3570359945297241,
                    -0.021198665723204613,
                    -0.36765554547309875,
                    0.3759891390800476,
                    -0.39005622267723083,
                    -0.3763033449649811,
                    -0.19284480810165405,
                    1.1046817302703857,
                    0.14473652839660645,
                    0.5631158947944641,
                    -0.5301100015640259,
                    0.25802409648895264,
                    -0.9358263611793518,
                    -0.4655390977859497,
                    -0.08494384586811066,
                    1.14690363407135,
                    0.4431389570236206,
                    0.018714020028710365,
                    -0.2106950432062149,
                    0.3125205636024475,
                    0.44347819685935974,
                    0.21080343425273895,
                    0.050391148775815964,
                    -0.7154562473297119,
                    0.031660858541727066,
                    0.18239745497703552,
                    0.29590192437171936,
                    0.2725895047187805,
                    -0.4184061586856842,
                    0.42795222997665405,
                    -0.10904157906770706,
                    0.09714130312204361,
                    -0.13513419032096863,
                    0.047466859221458435,
                    -0.04052667319774628,
                    -0.6048654913902283,
                    -0.03360709547996521,
                    0.5415499210357666,
                    0.26096516847610474,
                    0.5178117156028748,
                    0.15670131146907806,
                    -0.3378863036632538,
                    0.7167811393737793,
                    0.30039557814598083,
                    0.17416809499263763,
                    -0.3859207034111023,
                    -0.058844998478889465,
                    0.03984416648745537,
                    -0.059088580310344696,
                    0.10945641994476318,
                    -0.4411133825778961,
                    -0.01611703261733055,
                    0.005573772359639406,
                    0.2114744335412979,
                    -0.7019105553627014,
                    0.30616700649261475,
                    0.7892041802406311,
                    -0.015749970450997353,
                    -0.1170157790184021,
                    -0.29646918177604675,
                    -0.09149794280529022,
                    0.5597476959228516,
                    -0.31111976504325867,
                    -0.06692802906036377,
                    -0.5175514221191406,
                    -0.3585750162601471,
                    0.3432281017303467,
                    -0.6544507145881653,
                    -0.09285762161016464,
                    -0.3108488917350769,
                    0.6431154608726501,
                    -0.4495326280593872,
                    0.469307005405426,
                    -0.11895529925823212,
                    -0.11076182126998901,
                    0.26217442750930786,
                    -0.2894967198371887,
                    -0.056649740785360336,
                    -0.43614938855171204,
                    0.6722571849822998,
                    0.055026039481163025,
                    -1.3892416954040527,
                    0.35155153274536133,
                    -0.11333148926496506,
                    0.061710257083177567,
                    0.14881987869739532,
                    0.11055540293455124,
                    -0.38375046849250793,
                    0.39500805735588074,
                    0.19544366002082825,
                    -0.07271592319011688,
                    -0.19717715680599213,
                    -0.2556925117969513,
                    0.09312492609024048,
                    -0.35336384177207947,
                    -0.16610045731067657,
                    -0.12592917680740356,
                    0.278561532497406,
                    0.018615899607539177,
                    0.22553597390651703,
                    0.439065158367157,
                    0.1987542361021042,
                    0.4224490821361542,
                    -0.11618991941213608,
                    -0.3935699164867401,
                    -0.42249611020088196,
                    -0.13705304265022278,
                    0.31770092248916626,
                    -0.31322482228279114,
                    0.3969608545303345,
                    -0.10640422999858856,
                    0.27697885036468506,
                    -0.17006109654903412,
                    -0.34258732199668884,
                    0.5253615975379944,
                    0.40784192085266113,
                    0.08782275021076202,
                    0.5378856658935547,
                    0.15261632204055786,
                    -0.04094797372817993,
                    0.2334461212158203,
                    0.6438262462615967,
                    0.2667432427406311,
                    0.20165470242500305,
                    -0.22581152617931366,
                    -0.05879197269678116,
                    -0.4782436490058899,
                    0.4302256405353546,
                    -0.5945022106170654,
                    -0.044796135276556015,
                    0.11227438598871231,
                    0.4888615906238556,
                    -0.36724889278411865,
                    0.5751068592071533,
                    -0.4737543761730194,
                    -3.4974793379660696e-05,
                    -0.9778501987457275,
                    0.4132998585700989,
                    0.28329068422317505,
                    0.3878233730792999,
                    0.07106659561395645,
                    0.065572090446949,
                    -0.2616801857948303,
                    0.7772178649902344,
                    -0.08504383265972137,
                    -0.28737375140190125,
                    -0.8371719121932983,
                    0.1314086616039276,
                    -0.3970613479614258,
                    0.3258790969848633,
                    -0.42394039034843445,
                    -0.2827591300010681,
                    0.5745401978492737,
                    -0.24925610423088074,
                    0.20728790760040283,
                    0.007283045444637537,
                    0.5882267355918884,
                    0.03131252899765968,
                    0.4764065742492676,
                    0.06372915208339691,
                    -0.09560372680425644,
                    -0.662179708480835,
                    -0.011100824922323227,
                    -0.05319375917315483,
                    -0.5225698351860046,
                    -0.2779601514339447,
                    0.979400098323822,
                    0.14294324815273285,
                    -0.000167491685715504,
                    0.22759635746479034,
                    0.7240046262741089,
                    0.25860998034477234,
                    0.1463789939880371,
                    0.020129792392253876,
                    -0.576325535774231,
                    -0.538306474685669,
                    0.6297264695167542,
                    0.30904993414878845,
                    0.14859044551849365,
                    -0.5225895047187805,
                    0.4044555723667145,
                    -0.5633225440979004,
                    0.0999678373336792,
                    0.023846905678510666,
                    0.11442787200212479,
                    -0.4923163950443268,
                    0.43701860308647156,
                    -0.07318226248025894,
                    0.48941901326179504,
                    -0.8607940077781677,
                    -0.09596289694309235,
                    0.46019983291625977,
                    0.05594037100672722,
                    -0.22184820473194122,
                    0.20485727488994598,
                    -0.9832935333251953,
                    -0.12897297739982605,
                    -0.19783565402030945,
                    -0.40376999974250793,
                    -0.1369636505842209,
                    0.5038114786148071,
                    0.18828240036964417,
                    0.3710189461708069,
                    0.6197148561477661,
                    -0.3645828366279602,
                    -0.17185719311237335,
                    0.34892770648002625,
                    -1.0204228162765503,
                    -0.12987415492534637,
                    0.602202296257019,
                    0.22749391198158264,
                    0.2845572829246521,
                    0.4033151865005493,
                    0.03845568373799324,
                    0.4687706530094147,
                    -0.0013286033645272255,
                    0.0009183348156511784,
                    0.2960503399372101,
                    0.0754857137799263,
                    -0.1530369371175766,
                    0.24710425734519958,
                    0.22505217790603638,
                    -0.4374603033065796,
                    -0.5196807384490967,
                    -0.25176382064819336,
                    -0.3820905089378357,
                    -0.2171001434326172,
                    -0.5522956252098083,
                    0.17087391018867493,
                    -0.5318008661270142,
                    -0.06441369652748108,
                    -0.14409758150577545,
                    0.11824701726436615,
                    -0.4745562970638275,
                    -0.2927635610103607,
                    0.42797714471817017,
                    0.6038866639137268,
                    0.14396215975284576,
                    0.7890627980232239,
                    0.25999516248703003,
                    -0.24999240040779114,
                    0.7330934405326843,
                    0.2016443908214569,
                    -0.30258709192276,
                    -0.41883981227874756,
                    -0.5688950419425964,
                    -0.39555779099464417,
                    -0.38348403573036194,
                    -0.029236767441034317,
                    -0.10216355323791504,
                    0.44265952706336975,
                    -0.30197256803512573,
                    -0.1953427940607071,
                    0.24488939344882965,
                    0.1775018572807312,
                    -0.1595054268836975,
                    0.3375963866710663,
                    -0.06043414771556854,
                    0.6133806109428406,
                    -0.27412551641464233,
                    -0.4047703146934509,
                    -0.44071516394615173,
                    0.22918450832366943,
                    -0.26023268699645996,
                    -0.15190210938453674,
                    0.35071977972984314,
                    -0.1777344048023224,
                    0.4256073236465454,
                    0.3168224096298218,
                    -0.8967870473861694,
                    0.16767768561840057,
                    0.246458038687706,
                    0.7737955451011658,
                    -0.4549902379512787,
                    0.0023472346365451813,
                    -0.16654181480407715,
                    0.20502623915672302,
                    0.019303759559988976,
                    0.26697900891304016,
                    -0.6511295437812805,
                    0.13927920162677765,
                    -0.222322016954422,
                    -0.6646096706390381,
                    -0.8308301568031311,
                    -0.5406378507614136,
                    -0.26803654432296753,
                    -0.37859266996383667,
                    -0.354303777217865,
                    -0.41677775979042053,
                    -0.038514263927936554,
                    0.2145075500011444,
                    0.11000528186559677,
                    -0.3906500041484833,
                    0.11452998965978622,
                    -0.34936705231666565,
                    -0.3903835117816925,
                    0.08481825143098831,
                    0.09359105676412582,
                    -0.5262998342514038,
                    -0.7008572816848755,
                    -0.2469019740819931,
                    -0.32751765847206116,
                    0.04912131279706955,
                    -0.26102352142333984,
                    -0.1548626869916916,
                    -0.022049861028790474,
                    0.6696948409080505,
                    0.04612006992101669,
                    0.032006099820137024,
                    -0.40511882305145264,
                    0.3069164454936981,
                    -0.4156462848186493
                ],
                [
                    0.31125158071517944,
                    -0.4361129403114319,
                    -0.095675989985466,
                    0.07695651799440384,
                    -0.8153931498527527,
                    -0.321664959192276,
                    0.1276235431432724,
                    0.10198304057121277,
                    -0.08771719038486481,
                    0.09177107363939285,
                    0.08453377336263657,
                    0.14655059576034546,
                    0.25985187292099,
                    0.4622521698474884,
                    0.39940088987350464,
                    -0.2230750173330307,
                    0.12894000113010406,
                    0.21342016756534576,
                    -0.5006993412971497,
                    -0.3494025766849518,
                    0.034826140850782394,
                    0.30799245834350586,
                    0.0812276303768158,
                    -0.38369274139404297,
                    0.01412016712129116,
                    -0.5269113183021545,
                    0.6802583932876587,
                    -0.13754014670848846,
                    -0.03603680804371834,
                    0.9006743431091309,
                    0.0534086711704731,
                    -0.16212640702724457,
                    -0.17112354934215546,
                    -0.3946017622947693,
                    -0.2872758209705353,
                    -0.019197775050997734,
                    0.04191449657082558,
                    0.38089144229888916,
                    -0.23366151750087738,
                    0.6433950662612915,
                    -0.1339581459760666,
                    0.25525203347206116,
                    -0.5243710279464722,
                    0.005526034627109766,
                    -0.5764178037643433,
                    0.1076115071773529,
                    -0.10399188101291656,
                    -0.4543353021144867,
                    0.6295322775840759,
                    -0.08210977911949158,
                    -0.07509826123714447,
                    0.23882754147052765,
                    0.06006993353366852,
                    0.03922466188669205,
                    -0.22513532638549805,
                    0.21856164932250977,
                    -0.13815507292747498,
                    -0.012937511317431927,
                    -0.8425797820091248,
                    -0.4214111268520355,
                    0.25106126070022583,
                    5.537421384360641e-05,
                    -0.17324142158031464,
                    0.20011021196842194,
                    0.01663740538060665,
                    -0.7397371530532837,
                    -0.5814867615699768,
                    -0.6824511885643005,
                    -0.26851990818977356,
                    -0.048497315496206284,
                    0.7288419008255005,
                    0.5606467127799988,
                    0.7735663652420044,
                    -0.15942510962486267,
                    -0.30273303389549255,
                    -0.13532781600952148,
                    0.24804554879665375,
                    0.02330603450536728,
                    0.02626948058605194,
                    -0.34373804926872253,
                    -0.1733328402042389,
                    0.9403758645057678,
                    0.0963233932852745,
                    -0.8030496835708618,
                    0.22171854972839355,
                    0.09739279747009277,
                    0.9235773086547852,
                    0.5471756458282471,
                    -0.5198971629142761,
                    -0.27393442392349243,
                    0.7249581217765808,
                    -0.29509997367858887,
                    0.5551587343215942,
                    0.0056936414912343025,
                    -0.8844691514968872,
                    -0.4522978961467743,
                    -0.25998350977897644,
                    -0.34240689873695374,
                    0.3726503252983093,
                    0.1484648585319519,
                    -0.5840741991996765,
                    -0.07198551297187805,
                    0.2225220799446106,
                    -0.046499960124492645,
                    -0.21025297045707703,
                    0.022526850923895836,
                    -0.16254764795303345,
                    -0.7453530430793762,
                    0.4304119646549225,
                    -0.13387878239154816,
                    -0.21452631056308746,
                    0.526382327079773,
                    -0.1766536682844162,
                    -0.4155481159687042,
                    0.45128053426742554,
                    -0.09393817186355591,
                    -0.3020804226398468,
                    0.4030216336250305,
                    -0.2666679918766022,
                    0.20950157940387726,
                    0.41126227378845215,
                    -0.32921102643013,
                    -0.15051522850990295,
                    0.6144803166389465,
                    -0.6371825337409973,
                    -0.07767291367053986,
                    -0.23829148709774017,
                    -0.3957861065864563,
                    0.4242335557937622,
                    -0.29558247327804565,
                    -0.20153293013572693,
                    -0.24221213161945343,
                    -0.3579805791378021,
                    -0.0878707692027092,
                    -0.5331652164459229,
                    -0.4999386668205261,
                    0.02714868076145649,
                    0.11292410641908646,
                    0.23851433396339417,
                    -0.07515963912010193,
                    -0.14490149915218353,
                    0.04109451174736023,
                    0.1888573318719864,
                    -0.2267037183046341,
                    -0.2144264280796051,
                    0.42650896310806274,
                    -0.14751200377941132,
                    -0.27778083086013794,
                    0.13816508650779724,
                    -0.6186249256134033,
                    0.4113819897174835,
                    0.286251425743103,
                    0.7473726868629456,
                    -0.08859899640083313,
                    0.6370931267738342,
                    0.17884215712547302,
                    -0.22702470421791077,
                    -0.11675547063350677,
                    -0.3410855233669281,
                    -0.17817392945289612,
                    0.40149861574172974,
                    -0.6749855279922485,
                    0.19466328620910645,
                    0.6256267428398132,
                    -0.038393162190914154,
                    -0.11872895061969757,
                    -0.06530889868736267,
                    -0.05749015137553215,
                    0.1848945915699005,
                    0.23205558955669403,
                    0.42201492190361023,
                    0.2287105768918991,
                    -0.010549632832407951,
                    0.12717819213867188,
                    0.13624516129493713,
                    -0.3445805609226227,
                    -0.2827742099761963,
                    0.39249518513679504,
                    -0.12957745790481567,
                    0.14880573749542236,
                    -0.0378667451441288,
                    0.21228452026844025,
                    0.25483638048171997,
                    -0.23967567086219788,
                    -0.0663938969373703,
                    -0.07026047259569168,
                    -0.19150112569332123,
                    -0.46766161918640137,
                    -0.12710605561733246,
                    0.10830878466367722,
                    0.001341726048849523,
                    0.4152452349662781,
                    0.2214123159646988,
                    0.04677267000079155,
                    -0.37432458996772766,
                    0.3700813949108124,
                    0.12395121157169342,
                    -0.29773810505867004,
                    1.15305757522583,
                    0.18887054920196533,
                    0.0045319534838199615,
                    0.26084378361701965,
                    0.1379638910293579,
                    0.25447016954421997,
                    0.08875501900911331,
                    -0.5131151676177979,
                    0.5941362977027893,
                    0.08052609860897064,
                    -0.2728835940361023,
                    0.0994599461555481,
                    -0.1553235650062561,
                    -0.66435706615448,
                    0.011767053045332432,
                    0.502608597278595,
                    0.5179601907730103,
                    -0.13559231162071228,
                    -0.45189785957336426,
                    0.29474902153015137,
                    0.035435352474451065,
                    0.054400794208049774,
                    -0.1996944546699524,
                    -0.07272937148809433,
                    0.5742101669311523,
                    0.22402776777744293,
                    -0.1146233007311821,
                    -0.9895304441452026,
                    -0.050700582563877106,
                    -0.5873911380767822,
                    0.2322234958410263,
                    0.3019587993621826,
                    -0.38159871101379395,
                    0.8765750527381897,
                    0.6812008619308472,
                    0.13017940521240234,
                    -0.17343702912330627,
                    -0.2291439324617386,
                    0.3900286853313446,
                    0.7555044293403625,
                    -0.22104115784168243,
                    0.07587910443544388,
                    -0.047250691801309586,
                    -0.45938485860824585,
                    -0.15866859257221222,
                    -0.05813324823975563,
                    -0.5340340733528137,
                    -0.22958914935588837,
                    -0.0052452790550887585,
                    0.18705597519874573,
                    0.600028932094574,
                    0.0041728029027581215,
                    0.26688292622566223,
                    0.16068829596042633,
                    -0.047562744468450546,
                    -0.09268157929182053,
                    -0.2358035147190094,
                    0.17305536568164825,
                    -0.1480850875377655,
                    -0.21370020508766174,
                    -0.07795867323875427,
                    -0.48223599791526794,
                    -0.1270342618227005,
                    0.3891189992427826,
                    0.6862872242927551,
                    0.2486778050661087,
                    0.16450698673725128,
                    0.793337345123291,
                    -0.019285457208752632,
                    0.36998340487480164,
                    0.2402186542749405,
                    -0.19767378270626068,
                    0.3198091983795166,
                    -0.20742298662662506,
                    -0.30716997385025024,
                    0.1030181273818016,
                    0.0839063748717308,
                    0.4605327248573303,
                    0.06183293089270592,
                    0.17594730854034424,
                    -0.03501945734024048,
                    0.07123565673828125,
                    0.23605017364025116,
                    -0.47810831665992737,
                    -0.40516480803489685,
                    -0.1651349663734436,
                    0.24548092484474182,
                    -0.21186217665672302,
                    -0.5925540328025818,
                    -0.08956592530012131,
                    -1.3164646625518799,
                    0.1591033637523651,
                    -0.2020912766456604,
                    -0.3831578195095062,
                    -0.012958483770489693,
                    0.6671758890151978,
                    0.22806930541992188,
                    0.2951274514198303,
                    0.5793954730033875,
                    -0.4247210919857025,
                    0.12088728696107864,
                    -0.04050728306174278,
                    0.559268593788147,
                    0.19458413124084473,
                    0.023426702246069908,
                    -0.03800015524029732,
                    -0.3746906816959381,
                    -0.051691457629203796,
                    0.2839091718196869,
                    -0.29693374037742615,
                    0.23394343256950378,
                    -0.42229437828063965,
                    -0.035992927849292755,
                    0.09755062311887741,
                    -0.008327758871018887,
                    -0.5507073998451233,
                    -0.5553876757621765,
                    -0.37194424867630005,
                    -0.042969994246959686,
                    -0.17841976881027222,
                    -0.04953194409608841,
                    -0.41273102164268494,
                    -0.34451475739479065,
                    -0.8908224701881409,
                    0.05783824622631073,
                    -0.4678799510002136,
                    -0.29427236318588257,
                    -0.7977181673049927,
                    0.473802775144577,
                    0.20746667683124542,
                    0.14487896859645844,
                    -0.6366391181945801,
                    -0.30211034417152405,
                    0.6012454628944397,
                    0.12840090692043304,
                    -0.4526520371437073,
                    0.3031773567199707,
                    -0.08034825325012207,
                    -0.6442945003509521,
                    -0.4380098581314087,
                    0.01497340202331543,
                    0.31383466720581055,
                    -0.8828588128089905,
                    -0.10750675201416016,
                    -0.06240718439221382,
                    -0.6339703798294067,
                    -0.2102583944797516,
                    -0.007101826369762421,
                    -0.3117307722568512,
                    0.49476930499076843,
                    0.3333051800727844,
                    -0.37073567509651184,
                    0.3288600742816925,
                    0.4290204644203186,
                    -0.019534729421138763,
                    0.16344301402568817,
                    0.593617856502533,
                    -0.03643729165196419,
                    0.46199947595596313,
                    -0.29767441749572754,
                    -0.4088519513607025,
                    0.10204070061445236,
                    0.032793913036584854,
                    0.02557176724076271,
                    -0.2561931014060974,
                    0.27956193685531616,
                    -0.2829050123691559,
                    -0.3254762589931488,
                    0.8258873224258423,
                    0.35847169160842896,
                    -0.4325866401195526,
                    -0.1731833666563034,
                    -1.2177104949951172,
                    -0.259471595287323,
                    0.41262659430503845,
                    -0.06916040182113647,
                    -0.27355819940567017,
                    0.18540458381175995,
                    -0.363644003868103,
                    -0.11717540770769119,
                    -0.39136362075805664,
                    0.19551527500152588,
                    0.3473561108112335,
                    0.279470294713974,
                    -0.16437365114688873,
                    -0.10050137341022491,
                    0.4491040110588074,
                    0.10071098804473877,
                    -0.02869853377342224,
                    -0.6817794442176819,
                    0.05760858952999115,
                    -0.6896294951438904,
                    -0.04277625307440758,
                    0.5010786652565002,
                    -0.5399045944213867,
                    0.12422659993171692,
                    -0.6723626852035522,
                    -0.4313028156757355,
                    -0.13182012736797333,
                    0.30530092120170593,
                    0.06949543952941895,
                    0.5292140245437622,
                    0.20978139340877533,
                    0.7232599854469299,
                    -0.3897404670715332,
                    -0.6510149836540222,
                    -0.24283087253570557,
                    -0.37914910912513733,
                    -0.552139401435852,
                    0.4741986393928528,
                    0.16097824275493622,
                    -0.21852058172225952,
                    -0.41006556153297424,
                    0.41546326875686646,
                    0.17882393300533295,
                    -0.0191220510751009,
                    -0.059644199907779694,
                    0.32619649171829224,
                    0.059545498341321945,
                    -0.12611989676952362,
                    0.4680243134498596,
                    -0.056187842041254044,
                    -0.01227608323097229,
                    -0.01183281559497118,
                    0.034791167825460434,
                    0.2109946459531784,
                    -0.3853745460510254,
                    -0.4160645008087158,
                    -0.201156347990036,
                    -0.11834360659122467,
                    -0.3863963484764099,
                    0.59996497631073,
                    -0.02383638173341751,
                    0.2507965862751007,
                    -0.9450826048851013,
                    0.5322346687316895,
                    0.7588332295417786,
                    -0.18973973393440247,
                    0.10038910061120987,
                    -0.21417389810085297,
                    -0.07346182316541672,
                    -0.01638362556695938,
                    0.7977179288864136,
                    0.033809661865234375,
                    -0.3172682523727417,
                    -0.07447580248117447,
                    1.1306270360946655,
                    0.0014848950086161494,
                    0.07167771458625793,
                    0.36689189076423645,
                    -0.2690120041370392,
                    0.8202441334724426,
                    0.11279506981372833,
                    0.5735677480697632,
                    -0.0886591300368309,
                    0.6303432583808899,
                    -0.23490628600120544,
                    -0.06765836477279663,
                    0.3127015233039856,
                    -0.5886257886886597,
                    0.005966090597212315,
                    -0.6748206615447998,
                    0.24828985333442688,
                    -0.9294412732124329,
                    0.3555760979652405,
                    0.002433688146993518,
                    0.15833938121795654,
                    0.546289324760437,
                    0.31057342886924744,
                    0.4131256639957428,
                    0.15625683963298798,
                    -0.2602027356624603,
                    -0.32111501693725586,
                    0.06412607431411743,
                    -0.052126914262771606,
                    0.10836254805326462,
                    -0.2967616319656372,
                    0.1636349856853485,
                    0.45114246010780334,
                    -0.7005075216293335,
                    -0.6701005101203918,
                    0.4002741277217865,
                    0.2644725739955902,
                    -0.7284004092216492,
                    -0.1750337779521942,
                    -0.7088882327079773,
                    -0.34697210788726807,
                    0.22293221950531006,
                    -0.04385070130228996,
                    -0.5474328398704529,
                    -0.02336134761571884,
                    -0.040220119059085846,
                    0.14060987532138824,
                    0.44250428676605225,
                    -0.49829456210136414,
                    -0.08261359483003616,
                    -0.32873573899269104,
                    -0.3564692735671997,
                    0.24174751341342926,
                    -0.4613158404827118,
                    0.030187373980879784,
                    0.11826342344284058,
                    -0.5227408409118652,
                    -0.09753227233886719,
                    -0.3953273296356201,
                    0.06895362585783005,
                    -0.11937520653009415,
                    0.5569463968276978,
                    0.5465379953384399,
                    -0.31498703360557556,
                    0.15205763280391693,
                    -0.8283277153968811,
                    -0.49319082498550415,
                    -0.3362358510494232,
                    0.11303466558456421,
                    -0.07135059684515,
                    -0.16145147383213043,
                    -0.16982251405715942,
                    -0.015221470966935158,
                    0.5030696988105774,
                    -0.037431810051202774,
                    -0.1671673208475113,
                    -0.05340588465332985,
                    -0.5841065645217896,
                    -0.08014800399541855,
                    0.27849969267845154,
                    -0.0763980820775032,
                    0.2643212378025055,
                    -0.03108074702322483,
                    0.12332665175199509,
                    -0.5386268496513367,
                    0.4119258522987366,
                    0.29700469970703125,
                    0.6760062575340271,
                    -0.22209511697292328,
                    -0.13264063000679016,
                    -0.4691143035888672,
                    -0.28629612922668457,
                    -0.13814248144626617,
                    0.3053678870201111,
                    -0.48774340748786926,
                    -0.04574442654848099,
                    0.4301682710647583,
                    -0.00022588831780012697,
                    0.44091230630874634,
                    0.09769830107688904,
                    -0.07230942696332932,
                    0.09838063269853592,
                    0.4127833843231201,
                    0.5448203682899475,
                    0.08394337445497513,
                    0.052179139107465744,
                    0.23104991018772125,
                    0.3546576201915741,
                    -0.11123120784759521,
                    -0.46529772877693176,
                    0.5809282660484314,
                    -0.30750003457069397,
                    -0.13257914781570435,
                    0.33870163559913635,
                    0.13329333066940308,
                    0.2096800059080124,
                    -0.09751875698566437,
                    0.28825831413269043,
                    0.21651116013526917,
                    0.7394525408744812,
                    0.02254946157336235,
                    0.5923947691917419,
                    0.0282722357660532,
                    -1.0624598264694214,
                    0.17124757170677185,
                    -0.055376697331666946,
                    -0.24376635253429413,
                    -0.5461374521255493,
                    -0.20241424441337585,
                    0.2069031149148941,
                    0.2000982016324997,
                    0.19388635456562042,
                    0.021056773141026497,
                    -0.0012354230275377631,
                    0.053359854966402054,
                    0.5007956624031067,
                    0.18783067166805267,
                    -0.14872153103351593,
                    -0.19979751110076904,
                    0.8865721821784973,
                    0.41598236560821533,
                    -0.690744936466217,
                    0.2026681900024414,
                    0.338341623544693,
                    -0.0885535404086113,
                    0.5277875065803528,
                    0.4085860252380371,
                    -0.24870048463344574,
                    -0.4351224899291992,
                    -0.27955302596092224,
                    0.2003038078546524,
                    0.22610382735729218,
                    -0.22171469032764435,
                    0.07649537175893784,
                    -0.016693972051143646,
                    0.07969871908426285,
                    -0.24761603772640228,
                    -0.3605247437953949,
                    0.06696788966655731,
                    0.5279639959335327,
                    0.19563379883766174,
                    0.2154804915189743,
                    -0.11627620458602905,
                    -0.3783804178237915,
                    0.8041439056396484,
                    0.40267670154571533,
                    0.32792943716049194,
                    -0.23458968102931976,
                    0.7907694578170776,
                    -0.4659460484981537,
                    -0.12306467443704605,
                    -0.27028968930244446,
                    0.2505282461643219,
                    0.7760260105133057,
                    0.44122499227523804,
                    0.050186723470687866,
                    -0.1718459278345108,
                    0.6409393548965454,
                    -0.33082231879234314,
                    0.09133939445018768,
                    -0.06153832748532295,
                    0.8114373087882996,
                    -0.01765216328203678,
                    0.033713579177856445,
                    0.21146951615810394,
                    -0.08020256459712982,
                    -0.8073057532310486,
                    0.2143692523241043,
                    0.6779642105102539,
                    -0.5406582355499268,
                    0.49158191680908203,
                    0.032497160136699677,
                    0.5929681062698364,
                    0.5674686431884766,
                    0.2261475920677185,
                    0.3368862569332123,
                    0.3370474576950073,
                    0.0383688248693943,
                    0.163268581032753,
                    -0.099925696849823,
                    -0.742557168006897,
                    -0.4817553460597992,
                    0.44710415601730347,
                    -0.3118744492530823,
                    -0.05115141347050667,
                    -0.4244611859321594,
                    0.13373444974422455,
                    -0.04843813553452492,
                    -0.07834183424711227,
                    -0.6742032766342163,
                    -0.04572487249970436,
                    -0.23345312476158142,
                    -0.7307325601577759,
                    0.22336922585964203,
                    -0.8035723567008972,
                    0.02287113107740879,
                    0.08487972617149353,
                    -0.17361514270305634,
                    -0.22278818488121033,
                    -0.19886809587478638,
                    0.1303800493478775,
                    -0.5847252011299133,
                    -0.222352996468544,
                    -0.07797908037900925,
                    0.27177703380584717,
                    0.44643256068229675,
                    -0.4322344958782196,
                    0.22627446055412292,
                    -0.04199821129441261,
                    -0.30108585953712463,
                    -0.5441941022872925,
                    0.8839952349662781,
                    0.5467714071273804,
                    0.40781018137931824,
                    -0.15711890161037445,
                    0.35375648736953735,
                    0.503621518611908,
                    -0.09452874213457108,
                    -0.33527445793151855,
                    0.9239431023597717,
                    -0.3022780120372772,
                    -0.6859907507896423,
                    0.6224101185798645,
                    -0.060837481170892715,
                    -0.27489253878593445,
                    -0.22736580669879913,
                    0.4624236226081848,
                    0.1170576736330986,
                    -0.6772646903991699,
                    0.014861206524074078,
                    -0.35497739911079407,
                    0.6109351515769958,
                    -0.19598108530044556,
                    0.2604334354400635,
                    -0.6290556788444519,
                    -0.682610273361206,
                    -0.18276336789131165,
                    0.3747507631778717,
                    -0.36176934838294983,
                    -0.2715021073818207,
                    0.4879709780216217,
                    0.03179764747619629,
                    -0.9454545974731445,
                    0.04221419245004654,
                    -0.2215823233127594,
                    -0.3332750201225281,
                    -0.24794724583625793,
                    -0.47732287645339966,
                    -0.08711937069892883,
                    0.40488648414611816,
                    0.21685610711574554,
                    -0.1333017349243164,
                    -0.11535777151584625,
                    -0.1289588212966919,
                    -0.5065813660621643,
                    -0.3720596730709076,
                    -0.2253817468881607,
                    -0.2041308730840683,
                    -0.048785705119371414,
                    0.060458436608314514,
                    -0.316385418176651,
                    -0.7214840650558472,
                    0.434871643781662,
                    0.7773401737213135,
                    0.22444391250610352,
                    0.5521829724311829,
                    0.32960644364356995,
                    -0.7012466788291931,
                    -0.03705747798085213,
                    -0.3387562930583954,
                    -0.6035135984420776,
                    0.22584959864616394,
                    0.2441677302122116,
                    0.2637980580329895,
                    -0.5535568594932556,
                    -0.33495622873306274,
                    0.6481025815010071,
                    0.4248999357223511,
                    -0.3492094576358795,
                    -0.6419361233711243,
                    -0.29113325476646423,
                    -0.416862428188324,
                    0.06773889809846878,
                    0.4523317217826843,
                    -0.3280687630176544,
                    -0.013929227367043495,
                    -0.23227240145206451,
                    -0.3725470006465912,
                    0.03155523166060448,
                    0.2835674285888672,
                    -0.7494587302207947,
                    -0.09872051328420639,
                    0.2494242638349533,
                    0.1385137140750885,
                    0.1966724842786789,
                    0.5774748921394348,
                    0.1475386917591095,
                    -0.19462814927101135,
                    0.053948238492012024,
                    0.06666763126850128,
                    0.24172911047935486,
                    -0.13815781474113464,
                    0.22985684871673584,
                    -0.4222944974899292,
                    -0.004223264288157225,
                    -0.35219189524650574,
                    -0.4568781852722168,
                    -0.34454888105392456,
                    -0.23092779517173767,
                    0.7785611748695374,
                    0.29235053062438965,
                    -0.31711703538894653,
                    -0.14459814131259918,
                    -0.565595269203186,
                    -0.47315463423728943,
                    -0.31271830201148987,
                    0.30320578813552856,
                    -0.20324763655662537,
                    0.09185025095939636,
                    0.20439206063747406
                ],
                [
                    1.0923199653625488,
                    -0.08236907422542572,
                    0.427021324634552,
                    -0.011598557233810425,
                    0.25517934560775757,
                    0.3003906011581421,
                    0.2915332019329071,
                    0.11927410215139389,
                    1.3138426542282104,
                    -0.42112648487091064,
                    0.0374845452606678,
                    0.20591984689235687,
                    -0.19565105438232422,
                    -0.3579510748386383,
                    -0.16629663109779358,
                    -1.3430737257003784,
                    0.17335839569568634,
                    -0.16569645702838898,
                    -0.21397311985492706,
                    -0.5149191617965698,
                    0.5559148788452148,
                    0.26494672894477844,
                    0.07465750724077225,
                    0.11395358294248581,
                    -0.3368319272994995,
                    0.4749780297279358,
                    0.690324068069458,
                    -0.12062647938728333,
                    0.050866663455963135,
                    -0.5017414093017578,
                    -0.22260530292987823,
                    0.3623635470867157,
                    0.0037987781688570976,
                    -0.24157197773456573,
                    0.27512064576148987,
                    -0.7509483695030212,
                    -0.33450135588645935,
                    -0.19826756417751312,
                    -0.550591766834259,
                    -0.32812032103538513,
                    0.35107728838920593,
                    -0.23397834599018097,
                    0.054805997759103775,
                    -0.12225362658500671,
                    0.5057687759399414,
                    -0.42968159914016724,
                    0.04673648998141289,
                    0.3041967451572418,
                    -0.2796393036842346,
                    -0.2334984689950943,
                    -0.6814627051353455,
                    0.14075921475887299,
                    -0.1939624398946762,
                    0.2689380943775177,
                    -0.03807147219777107,
                    0.026193467900156975,
                    -0.8623725175857544,
                    0.5342468619346619,
                    0.7338332533836365,
                    0.28438282012939453,
                    0.13684788346290588,
                    0.2784159779548645,
                    -0.16884997487068176,
                    0.10258712619543076,
                    0.0170825757086277,
                    0.33076679706573486,
                    0.19225923717021942,
                    -0.26931634545326233,
                    0.12451597303152084,
                    0.09755666553974152,
                    0.29126694798469543,
                    -0.0360751673579216,
                    -0.8189579248428345,
                    0.30502837896347046,
                    -0.12293465435504913,
                    -0.15590335428714752,
                    0.08697278797626495,
                    -0.32007864117622375,
                    0.46456801891326904,
                    0.23465567827224731,
                    0.12521599233150482,
                    -0.5338349342346191,
                    -0.5128887295722961,
                    -0.0554654560983181,
                    -0.06200481951236725,
                    0.4175819754600525,
                    -0.3585127294063568,
                    0.5854372978210449,
                    0.0032764608040452003,
                    -0.15917962789535522,
                    0.23463432490825653,
                    -0.5514950156211853,
                    0.7661929130554199,
                    -0.004456796683371067,
                    0.4236525297164917,
                    0.6602659225463867,
                    0.14813625812530518,
                    -0.8771746754646301,
                    0.3205564022064209,
                    -0.44699448347091675,
                    0.0846768170595169,
                    0.35182783007621765,
                    0.007285441271960735,
                    0.3913343846797943,
                    0.10317610204219818,
                    0.4969722628593445,
                    0.1718769371509552,
                    0.25717926025390625,
                    -0.033203113824129105,
                    -0.6762747764587402,
                    0.7481091618537903,
                    -0.15960125625133514,
                    0.33668944239616394,
                    0.7398224472999573,
                    0.26536911725997925,
                    -0.3902167081832886,
                    -0.8297798037528992,
                    -0.5969935655593872,
                    -0.2859674096107483,
                    -0.2769147753715515,
                    -0.43561428785324097,
                    0.16685743629932404,
                    0.1342141181230545,
                    -0.30473771691322327,
                    1.1724941730499268,
                    -0.2744612693786621,
                    -0.5562405586242676,
                    -0.734592616558075,
                    0.5057374238967896,
                    -0.19008959829807281,
                    0.2666349411010742,
                    0.15111756324768066,
                    -0.595623254776001,
                    0.19123026728630066,
                    -0.3190532922744751,
                    -0.48049595952033997,
                    -0.03361501544713974,
                    -0.33641186356544495,
                    0.463283896446228,
                    0.22040165960788727,
                    0.011085246689617634,
                    0.27160024642944336,
                    0.6560742259025574,
                    0.2842225730419159,
                    -0.2926784157752991,
                    -0.1886724829673767,
                    -0.1277773231267929,
                    0.5509956479072571,
                    0.4192289710044861,
                    0.1338890641927719,
                    -1.0313950777053833,
                    -0.4263596832752228,
                    0.015874337404966354,
                    0.30899593234062195,
                    0.38069474697113037,
                    0.248949334025383,
                    -0.23186323046684265,
                    0.7041977643966675,
                    0.877571702003479,
                    0.09962991625070572,
                    0.04094619303941727,
                    -0.040996771305799484,
                    -0.5176200866699219,
                    -0.23718486726284027,
                    -1.0484397411346436,
                    -0.45319822430610657,
                    -0.3637610375881195,
                    0.4939476549625397,
                    -0.3948594033718109,
                    0.09017226099967957,
                    0.45861417055130005,
                    -0.18680888414382935,
                    0.10165359079837799,
                    -0.19523677229881287,
                    0.022042324766516685,
                    0.1458442211151123,
                    0.49648183584213257,
                    -0.10814845561981201,
                    -0.6144464612007141,
                    -0.9047728776931763,
                    0.07747049629688263,
                    -0.5023595094680786,
                    -0.02389468066394329,
                    0.7788472175598145,
                    -0.3405538499355316,
                    0.201585590839386,
                    0.4987086057662964,
                    -0.004378350451588631,
                    -0.168911412358284,
                    0.0034600701183080673,
                    -0.08892697095870972,
                    -0.0521199107170105,
                    -1.1019244194030762,
                    -0.07678169757127762,
                    0.19718682765960693,
                    0.058087803423404694,
                    -0.6840066313743591,
                    -0.5675899982452393,
                    0.622738242149353,
                    -0.1480540633201599,
                    0.3214515447616577,
                    -0.49405229091644287,
                    -0.07131087779998779,
                    0.3438587784767151,
                    -0.3189260959625244,
                    -0.26814550161361694,
                    -0.18000362813472748,
                    0.4043179750442505,
                    -0.41964206099510193,
                    0.3379262089729309,
                    -0.1039232686161995,
                    0.3786187767982483,
                    0.06147937476634979,
                    0.34604012966156006,
                    0.027649423107504845,
                    -0.45797592401504517,
                    0.7374480366706848,
                    -0.1465793401002884,
                    0.491119384765625,
                    0.17165765166282654,
                    -0.001316944370046258,
                    -0.5295431613922119,
                    -0.11028348654508591,
                    0.06272836029529572,
                    0.39632678031921387,
                    -0.5129404067993164,
                    0.11349020153284073,
                    0.42952752113342285,
                    0.37534433603286743,
                    0.4938967823982239,
                    -0.06899376213550568,
                    -0.17625395953655243,
                    0.2086474597454071,
                    -0.19750089943408966,
                    0.3592011332511902,
                    -0.3231988549232483,
                    0.7375032305717468,
                    -0.31361454725265503,
                    -0.36474570631980896,
                    -0.831028163433075,
                    -0.35604050755500793,
                    0.4257931113243103,
                    0.576126217842102,
                    -0.3982197940349579,
                    -0.5684431791305542,
                    -0.17451974749565125,
                    0.5540603995323181,
                    -0.4502301812171936,
                    -0.46824485063552856,
                    0.002855967963114381,
                    0.020422881469130516,
                    0.06577201932668686,
                    -0.03787464648485184,
                    0.3556922376155853,
                    -0.15726110339164734,
                    -0.019913744181394577,
                    -1.1222498416900635,
                    -0.09025304019451141,
                    0.29244154691696167,
                    -0.17409349977970123,
                    -0.2895859479904175,
                    -0.2122851312160492,
                    -0.2919498383998871,
                    0.2165888398885727,
                    -0.34443405270576477,
                    0.21788367629051208,
                    -0.25284162163734436,
                    0.017955075949430466,
                    -0.6581634283065796,
                    0.20990192890167236,
                    -0.6128022074699402,
                    -0.445088654756546,
                    0.009473543614149094,
                    0.501068115234375,
                    -0.40625718235969543,
                    0.5294654965400696,
                    -0.2960788309574127,
                    0.618845522403717,
                    0.27859845757484436,
                    0.40560057759284973,
                    -0.8511430621147156,
                    -0.17324332892894745,
                    -0.38974523544311523,
                    -0.5070191621780396,
                    0.3037582337856293,
                    -0.7022143006324768,
                    0.06844789534807205,
                    -0.08302341401576996,
                    -0.25820407271385193,
                    -0.653193473815918,
                    -0.46364080905914307,
                    -0.3132430911064148,
                    -0.19813212752342224,
                    -0.05226412042975426,
                    -0.1405637264251709,
                    -0.513173520565033,
                    0.20261161029338837,
                    0.7000204920768738,
                    0.1501753330230713,
                    0.8067416548728943,
                    0.09604267030954361,
                    -0.08014042675495148,
                    0.6379134058952332,
                    0.44194120168685913,
                    -0.6980845332145691,
                    -0.1741238832473755,
                    -0.2966689467430115,
                    0.5884579420089722,
                    -0.20602482557296753,
                    0.16333357989788055,
                    0.3323122560977936,
                    0.315335750579834,
                    -0.5929532647132874,
                    -0.5853515863418579,
                    0.190849170088768,
                    -0.11769749224185944,
                    0.16662085056304932,
                    -0.8052532076835632,
                    0.22254864871501923,
                    0.06790801882743835,
                    -0.6096287965774536,
                    -0.29886433482170105,
                    -0.044747643172740936,
                    0.14322155714035034,
                    -0.282368540763855,
                    -0.34461289644241333,
                    -0.8415861129760742,
                    -0.5617477297782898,
                    0.11803343147039413,
                    0.02684866078197956,
                    0.7357545495033264,
                    0.3057444095611572,
                    -0.2566317617893219,
                    0.3222053647041321,
                    -0.07002194225788116,
                    -0.17375527322292328,
                    -0.6521144509315491,
                    -0.6426342129707336,
                    0.2263677418231964,
                    -0.606598973274231,
                    0.35278353095054626,
                    -0.364338755607605,
                    0.026112593710422516,
                    0.7120087146759033,
                    -0.6014901399612427,
                    0.19023695588111877,
                    0.19986820220947266,
                    1.2495813369750977,
                    -0.12331622838973999,
                    0.014078790321946144,
                    -0.04860961437225342,
                    -0.606989860534668,
                    -0.48969364166259766,
                    0.06569891422986984,
                    -0.5690882205963135,
                    0.44224050641059875,
                    0.0007269640918821096,
                    -0.05598632991313934,
                    0.3575766980648041,
                    -0.47752663493156433,
                    -0.3712663948535919,
                    -0.4858757555484772,
                    0.14802516996860504,
                    -0.3806760907173157,
                    0.29568731784820557,
                    -0.014779902994632721,
                    -0.10504814237356186,
                    -0.2889024019241333,
                    0.12725238502025604,
                    -0.15211999416351318,
                    0.5175105333328247,
                    -0.2664225697517395,
                    0.29645872116088867,
                    0.056454550474882126,
                    -0.7907764911651611,
                    0.1286969780921936,
                    0.027108775451779366,
                    -0.9523766040802002,
                    0.17328397929668427,
                    0.2087455838918686,
                    -0.6439533829689026,
                    0.5748066306114197,
                    -0.27400490641593933,
                    -0.49634918570518494,
                    -0.2280159741640091,
                    -0.24653679132461548,
                    0.18707230687141418,
                    -0.17424874007701874,
                    -0.20420201122760773,
                    -0.10296432673931122,
                    0.4524342119693756,
                    -0.6735338568687439,
                    0.10404837131500244,
                    -0.48507025837898254,
                    -0.5332207083702087,
                    -0.5860073566436768,
                    0.08159636706113815,
                    0.2880552113056183,
                    -0.41953712701797485,
                    -0.5767918229103088,
                    0.3322192430496216,
                    0.19245663285255432,
                    0.08501632511615753,
                    -0.44118839502334595,
                    0.02038116566836834,
                    -0.2682466208934784,
                    0.4222509264945984,
                    -0.2830648124217987,
                    -0.6063992381095886,
                    -0.3435491621494293,
                    0.5583476424217224,
                    -0.022007973864674568,
                    -0.9222429990768433,
                    0.2888523042201996,
                    0.37173521518707275,
                    0.2749866545200348,
                    0.17855899035930634,
                    -0.49492204189300537,
                    -0.1207137480378151,
                    0.17315299808979034,
                    0.27818775177001953,
                    -0.5218749046325684,
                    -0.6130409836769104,
                    -0.24365311861038208,
                    0.8067178726196289,
                    0.15586133301258087,
                    0.5764155387878418,
                    0.37986689805984497,
                    -0.1586931347846985,
                    0.4152525067329407,
                    0.10462687164545059,
                    0.45958197116851807,
                    -0.8688187599182129,
                    -0.12756696343421936,
                    0.15726213157176971,
                    -0.07717910408973694,
                    -0.40208864212036133,
                    -0.23010288178920746,
                    -0.3105549216270447,
                    -0.16938485205173492,
                    -0.1942690908908844,
                    -0.3125198781490326,
                    0.5847340822219849,
                    -0.81968754529953,
                    -0.33468911051750183,
                    0.14552682638168335,
                    0.29621729254722595,
                    0.17892472445964813,
                    -0.16035118699073792,
                    -0.41862398386001587,
                    -0.3377437889575958,
                    0.004124777391552925,
                    -0.014665418304502964,
                    0.13121061027050018,
                    0.45501208305358887,
                    -0.7773021459579468,
                    -0.5659744143486023,
                    -0.18291951715946198,
                    -0.5843020081520081,
                    -0.07421911507844925,
                    -0.0886005386710167,
                    0.37875866889953613,
                    -0.0340488962829113,
                    0.1741613894701004,
                    -0.3161941468715668,
                    0.3626844882965088,
                    0.36173781752586365,
                    0.1282336264848709,
                    -0.30319833755493164,
                    -0.4348796010017395,
                    -0.0693478062748909,
                    0.5058568716049194,
                    0.5660659074783325,
                    -0.16926075518131256,
                    -0.663828432559967,
                    -0.433448851108551,
                    -0.8674209713935852,
                    -0.24566331505775452,
                    -0.6090414524078369,
                    -0.5745919942855835,
                    -0.5066639184951782,
                    -0.37478867173194885,
                    0.06191428005695343,
                    0.8173018097877502,
                    0.3976968228816986,
                    -0.570709228515625,
                    -0.35772737860679626,
                    0.36585915088653564,
                    0.4120277762413025,
                    0.40722212195396423,
                    -0.058248259127140045,
                    0.0772145688533783,
                    0.2156529426574707,
                    -0.4768620431423187,
                    -0.5096399188041687,
                    -0.08930791169404984,
                    0.176968052983284,
                    0.1300239861011505,
                    0.7132095098495483,
                    -0.3903965353965759,
                    0.5581952929496765,
                    0.04657423496246338,
                    -0.04214709624648094,
                    0.6799479126930237,
                    0.15219299495220184,
                    0.36759769916534424,
                    0.27138927578926086,
                    -0.15513457357883453,
                    -0.435295432806015,
                    -0.5050441026687622,
                    0.1164412572979927,
                    0.23070798814296722,
                    -0.47416794300079346,
                    -0.38798028230667114,
                    0.1605369597673416,
                    0.30996420979499817,
                    0.18719050288200378,
                    -0.058371830731630325,
                    0.22452335059642792,
                    -0.638849139213562,
                    -0.1408071666955948,
                    0.17799387872219086,
                    0.3682176470756531,
                    0.09177862107753754,
                    -0.1424344927072525,
                    -0.07277652621269226,
                    0.10052691400051117,
                    0.612000048160553,
                    0.0369538851082325,
                    -0.7483636140823364,
                    0.0672668069601059,
                    0.030109982937574387,
                    0.25290176272392273,
                    -0.25512588024139404,
                    -0.15508145093917847,
                    -0.12063424289226532,
                    -0.5634762048721313,
                    -0.4706054627895355,
                    0.33146002888679504,
                    -0.8720877766609192,
                    -0.09233606606721878,
                    -0.270717054605484,
                    -1.0167542695999146,
                    -0.250052273273468,
                    0.05712813884019852,
                    -0.15632541477680206,
                    0.09464891254901886,
                    0.06357108056545258,
                    0.08686105161905289,
                    -0.027204405516386032,
                    0.025209220126271248,
                    -0.08491577208042145,
                    0.5411904454231262,
                    0.388923704624176,
                    -0.6642898321151733,
                    0.1650722622871399,
                    -0.32681676745414734,
                    0.29403212666511536,
                    -0.273260235786438,
                    0.21307681500911713,
                    0.8613736629486084,
                    0.5070048570632935,
                    -0.729531466960907,
                    -0.7063411474227905,
                    -0.1959022581577301,
                    -1.3606407642364502,
                    -0.21136270463466644,
                    -0.46417099237442017,
                    0.015212255530059338,
                    0.37341585755348206,
                    0.6793838739395142,
                    -0.5250958800315857,
                    -0.29421767592430115,
                    0.5571495294570923,
                    -0.020489303395152092,
                    0.18799515068531036,
                    0.16449464857578278,
                    0.5809218883514404,
                    -0.7163885831832886,
                    -0.5860573053359985,
                    -0.13844744861125946,
                    0.11941832304000854,
                    0.4833386540412903,
                    -0.47016045451164246,
                    0.025661146268248558,
                    0.3882611095905304,
                    -0.6990686655044556,
                    0.41238656640052795,
                    -0.3983696401119232,
                    1.0148603916168213,
                    -0.6197145581245422,
                    -0.33465200662612915,
                    0.1780920773744583,
                    -0.6959186792373657,
                    0.5565130114555359,
                    0.0395432747900486,
                    0.5026091933250427,
                    -0.0314793698489666,
                    0.03535262867808342,
                    -0.035523075610399246,
                    0.2957157790660858,
                    0.15208682417869568,
                    -0.233068585395813,
                    -0.1623096764087677,
                    -0.05146326497197151,
                    -0.2170037180185318,
                    0.2095365971326828,
                    0.09179586917161942,
                    -0.2629234194755554,
                    -0.17233224213123322,
                    0.4398743212223053,
                    0.13628825545310974,
                    0.5652821063995361,
                    -0.35656872391700745,
                    -0.47918373346328735,
                    0.5057806372642517,
                    -0.3641136586666107,
                    0.5609899163246155,
                    -0.20844882726669312,
                    0.09445090591907501,
                    -0.039724379777908325,
                    -0.11184104532003403,
                    -0.09347785264253616,
                    0.22633883357048035,
                    0.3951568007469177,
                    0.18707290291786194,
                    -0.14064772427082062,
                    0.1917206048965454,
                    -0.25513240694999695,
                    0.3907804787158966,
                    1.134659767150879,
                    -0.0645817220211029,
                    -0.07537113130092621,
                    -0.005179319065064192,
                    -0.6469786167144775,
                    -0.24940893054008484,
                    -0.4557218849658966,
                    0.05241303890943527,
                    -0.5856325626373291,
                    -0.5090887546539307,
                    -0.7173229455947876,
                    -0.4678632616996765,
                    0.14444893598556519,
                    0.16884012520313263,
                    0.10932620614767075,
                    0.5040938258171082,
                    -0.0566096194088459,
                    0.11849389225244522,
                    -0.078373022377491,
                    0.270494669675827,
                    0.2688696086406708,
                    -0.5205119252204895,
                    -0.17348909378051758,
                    -0.13229171931743622,
                    -0.27181655168533325,
                    -0.6551454067230225,
                    -0.28230518102645874,
                    -0.45734110474586487,
                    -0.06173275038599968,
                    0.7050723433494568,
                    -0.5869637131690979,
                    -1.1261667013168335,
                    0.3441475033760071,
                    0.9177155494689941,
                    0.6360803246498108,
                    -0.19637081027030945,
                    0.1795058399438858,
                    -0.06894746422767639,
                    -0.34177473187446594,
                    0.048616454005241394,
                    0.19192828238010406,
                    -0.387012779712677,
                    -0.023417096585035324,
                    0.20462191104888916,
                    0.6668214201927185,
                    -0.21494774520397186,
                    -0.007927537895739079,
                    0.4321763217449188,
                    0.0075898258946835995,
                    0.5728102326393127,
                    -0.03674847260117531,
                    -0.27391770482063293,
                    -0.4252629578113556,
                    -0.14219450950622559,
                    0.35272783041000366,
                    0.4658324718475342,
                    0.04389968141913414,
                    0.28391313552856445,
                    -0.5524539351463318,
                    -0.09423411637544632,
                    0.24885649979114532,
                    -0.16955161094665527,
                    0.7940596342086792,
                    0.11199591308832169,
                    -0.7484905123710632,
                    -0.37841305136680603,
                    -0.11808208376169205,
                    -0.31082883477211,
                    -0.22496233880519867,
                    0.12293028086423874,
                    0.26606428623199463,
                    0.2754994332790375,
                    -0.35655176639556885,
                    0.4665687382221222,
                    -0.28590452671051025,
                    -0.0299917571246624,
                    -0.11779514700174332,
                    0.06944948434829712,
                    0.44480693340301514,
                    -0.20180422067642212,
                    -0.09156482666730881,
                    0.12860587239265442,
                    0.4998335838317871,
                    0.20795868337154388,
                    0.19302679598331451,
                    -0.7894392609596252,
                    0.1086929515004158,
                    -0.6157181859016418,
                    -0.34595558047294617,
                    0.08669950067996979,
                    -0.8096555471420288,
                    0.03169061616063118,
                    0.5021818280220032,
                    -0.16208775341510773,
                    -0.322354257106781,
                    -0.12841440737247467,
                    0.4729912579059601,
                    0.25830909609794617,
                    0.062284912914037704,
                    -0.15690581500530243,
                    -0.690135657787323,
                    -0.3002852499485016,
                    0.6855993270874023,
                    -0.188064306974411,
                    0.24660883843898773,
                    0.02846303954720497,
                    0.5581750869750977,
                    -0.4435601234436035,
                    0.3678123354911804,
                    -0.436289519071579,
                    0.7350960969924927,
                    0.7195358276367188,
                    0.08870688825845718,
                    1.3398712873458862,
                    -0.09553088992834091,
                    0.2529985010623932,
                    -0.3802468478679657,
                    0.029221825301647186,
                    -0.5481225848197937,
                    -0.41671428084373474,
                    -0.1393655389547348,
                    -0.21714918315410614,
                    -1.051388144493103,
                    0.45672982931137085,
                    -0.9146602153778076,
                    -0.48342040181159973,
                    1.222677230834961,
                    -0.29842066764831543,
                    0.10856617242097855,
                    -0.10305330902338028,
                    0.2989395558834076,
                    -0.05510220676660538,
                    -1.1144338846206665,
                    0.3193691670894623,
                    0.07505152374505997,
                    0.486650675535202,
                    0.7137375473976135,
                    -0.11547069251537323,
                    0.54140305519104,
                    -0.5808863043785095,
                    0.26923733949661255,
                    0.5853477120399475,
                    -0.18402400612831116,
                    0.3887846767902374,
                    0.06147082522511482,
                    0.638767421245575,
                    -0.04629761725664139,
                    -0.515347421169281,
                    -0.17003560066223145,
                    0.37522488832473755,
                    0.07231318205595016,
                    0.1942766159772873,
                    0.352994441986084,
                    -0.8568952679634094
                ],
                [
                    -0.5234204530715942,
                    0.4177919924259186,
                    0.5685833692550659,
                    0.15213434398174286,
                    0.38319334387779236,
                    0.5436691045761108,
                    -0.15485231578350067,
                    0.5195558071136475,
                    -0.07919275015592575,
                    -0.9380694031715393,
                    0.4931589961051941,
                    0.0005020411917939782,
                    0.2986736595630646,
                    0.26046666502952576,
                    -0.16820362210273743,
                    0.13447339832782745,
                    -0.255995512008667,
                    0.015222306363284588,
                    -0.5364717245101929,
                    0.22136390209197998,
                    0.3139394521713257,
                    0.5379505157470703,
                    0.32702675461769104,
                    -0.3296191990375519,
                    -0.06327942758798599,
                    0.13989493250846863,
                    0.4591594934463501,
                    0.056485507637262344,
                    0.41106876730918884,
                    -0.22841697931289673,
                    -0.11019562184810638,
                    0.42851218581199646,
                    0.47598204016685486,
                    0.2119065374135971,
                    -0.4703705608844757,
                    0.5511970520019531,
                    -0.9472637176513672,
                    0.2692870497703552,
                    -0.500877320766449,
                    -0.11602496355772018,
                    -0.3034495413303375,
                    -0.07466942071914673,
                    0.2350340634584427,
                    0.5586399435997009,
                    0.21365705132484436,
                    0.013874084688723087,
                    -0.026210587471723557,
                    -0.3989964723587036,
                    -0.2762691080570221,
                    0.15162165462970734,
                    0.3144746720790863,
                    -0.31155121326446533,
                    -0.3185669481754303,
                    -0.6061591506004333,
                    -0.34448057413101196,
                    0.4625197649002075,
                    0.09036239236593246,
                    -0.016808878630399704,
                    -0.6329070925712585,
                    0.5760404467582703,
                    0.21849825978279114,
                    -0.1723552793264389,
                    -0.3081168234348297,
                    -0.09737132489681244,
                    -0.02637055516242981,
                    0.32248035073280334,
                    -0.1575794667005539,
                    -0.21612673997879028,
                    0.07823497802019119,
                    0.507763147354126,
                    -0.36423012614250183,
                    0.26687145233154297,
                    0.044134996831417084,
                    -0.17780640721321106,
                    -0.8740323185920715,
                    0.006969282403588295,
                    0.49727702140808105,
                    -0.3417251408100128,
