{
    "layers": [
        {
            "weights": [
                [
                    -0.4304400384426117,
                    -0.47373491525650024,
                    -0.47550055384635925,
                    -0.11787381768226624,
                    0.809447169303894,
                    -0.4831526577472687,
                    0.08008681982755661,
                    -0.165992870926857,
                    0.03181278705596924,
                    -0.06400874257087708,
                    -0.2967830002307892,
                    -0.9263469576835632,
                    0.5848764181137085,
                    0.09218760579824448,
                    -0.8744052648544312,
                    0.946662187576294,
                    -0.3435869812965393,
                    0.41459062695503235,
                    1.023719310760498,
                    -0.7475622296333313,
                    -0.41998210549354553,
                    0.6691288948059082,
                    -0.6257151961326599,
                    -0.5855507254600525,
                    0.9572411775588989,
                    1.1441601514816284,
                    -0.5189579725265503,
                    0.9398053288459778,
                    0.6291898488998413,
                    0.08920473605394363,
                    -0.6299736499786377,
                    -0.12299957126379013,
                    2.2868762016296387,
                    0.3311149477958679,
                    -0.021651452407240868,
                    -0.19247353076934814,
                    0.7792319059371948,
                    -0.3875894844532013,
                    -0.015840301290154457,
                    0.83428555727005,
                    -0.8936290144920349,
                    -0.26342180371284485,
                    0.14032082259655,
                    -1.6247090101242065,
                    1.200592041015625,
                    -0.533958375453949,
                    1.1380136013031006,
                    0.5968690514564514,
                    -0.40475064516067505,
                    0.26916059851646423,
                    -0.0749870091676712,
                    -1.4334022998809814,
                    -0.30838119983673096,
                    -0.6676486730575562,
                    -0.5822689533233643,
                    -0.7835471630096436,
                    0.3104058802127838,
                    -0.6884239912033081,
                    0.44785645604133606,
                    0.03718600049614906,
                    0.03212864324450493,
                    -0.665544867515564,
                    0.4891672134399414,
                    -0.3833584487438202,
                    -1.24525785446167,
                    -0.12273704260587692,
                    -0.3827238082885742,
                    -0.6155686378479004,
                    -0.035846319049596786,
                    0.3192683458328247,
                    0.8669574856758118,
                    -0.029736848548054695,
                    1.2657256126403809,
                    -0.05874057114124298,
                    0.6648815274238586,
                    -0.18330033123493195,
                    -0.43665653467178345,
                    0.003037715330719948,
                    0.2179785519838333,
                    -1.0245509147644043,
                    0.3738570809364319,
                    1.1673635244369507,
                    -0.21435876190662384,
                    -1.5086098909378052,
                    0.2534089684486389,
                    -0.018963096663355827,
                    -0.028234047815203667,
                    0.007199084386229515,
                    -0.482793390750885,
                    -1.5846388339996338,
                    0.4988371729850769,
                    -0.2971324920654297,
                    0.6981310248374939,
                    1.0629550218582153,
                    0.3468063175678253,
                    0.12160899490118027,
                    0.7126585245132446,
                    -0.07062893360853195,
                    -0.1896137148141861,
                    -0.18827712535858154,
                    1.0624940395355225,
                    0.3675711154937744,
                    0.45348718762397766,
                    -0.21296581625938416,
                    -0.2988832890987396,
                    0.2522961497306824,
                    -0.37450888752937317,
                    -0.4324771761894226,
                    -1.1796444654464722,
                    -0.6073263883590698,
                    -0.831945538520813,
                    -0.16972148418426514,
                    1.806141972541809,
                    0.7179186344146729,
                    -0.18175211548805237,
                    -0.0010648776078596711,
                    -0.9226720333099365,
                    0.008652550168335438,
                    0.36191245913505554,
                    0.3264457881450653,
                    -0.43059518933296204,
                    -0.20004552602767944,
                    -0.9650623202323914,
                    0.06850965321063995,
                    0.5896297097206116,
                    -0.5247111320495605,
                    -0.5717380046844482,
                    1.299761176109314,
                    -0.5895432233810425,
                    -0.21270106732845306,
                    0.976948618888855,
                    0.3342316746711731,
                    -0.062369007617235184,
                    -0.5425583124160767,
                    -0.28139716386795044,
                    -0.7676852345466614,
                    0.04682708904147148,
                    0.5867260098457336,
                    0.501880407333374,
                    -0.040620941668748856,
                    -0.614747166633606,
                    -0.2687491774559021,
                    0.05373191088438034,
                    0.3163033127784729,
                    -0.672357439994812,
                    -0.40562042593955994,
                    -0.23829607665538788,
                    1.2927066087722778,
                    0.35771074891090393,
                    0.363352507352829,
                    0.12735392153263092,
                    0.07366102188825607,
                    0.31908249855041504,
                    0.5010820627212524,
                    -0.22230780124664307,
                    0.04642597958445549,
                    0.685802161693573,
                    -0.9090805649757385,
                    0.16071473062038422,
                    1.1762852668762207,
                    -0.5469305515289307,
                    -0.0719197690486908,
                    1.0244615077972412,
                    -0.18786166608333588,
                    0.48193320631980896,
                    0.21972119808197021,
                    0.5083146691322327,
                    -1.7567253112792969,
                    0.21333709359169006,
                    -0.9090030193328857,
                    1.0592000484466553,
                    0.06189703196287155,
                    0.8935094475746155,
                    -0.7629395723342896,
                    0.7611486315727234,
                    1.5303139686584473,
                    0.4416031837463379,
                    0.10309804230928421,
                    0.24918700754642487,
                    -0.9004511833190918,
                    -0.1250981092453003,
                    0.9851874113082886,
                    0.1496967375278473,
                    1.1820734739303589,
                    0.16051499545574188,
                    -0.576214075088501,
                    -0.049295373260974884,
                    0.32274752855300903,
                    -0.8270618915557861,
                    0.3228258490562439,
                    0.4574471712112427,
                    0.06798409670591354,
                    -0.2340163290500641,
                    -0.7017127871513367,
                    -0.2347363382577896,
                    -0.5916606187820435,
                    -0.2413741648197174,
                    -0.2560383379459381,
                    -0.10117393732070923,
                    -0.005520909558981657,
                    0.27637505531311035,
                    0.34271183609962463,
                    -0.6128482818603516,
                    0.4091823995113373,
                    0.49293965101242065,
                    0.6998852491378784,
                    -0.1364780217409134,
                    -0.7839877009391785,
                    -0.021277958527207375,
                    0.8174488544464111,
                    0.9065015316009521,
                    -0.2615847587585449,
                    -1.4401675462722778,
                    0.6346693634986877,
                    0.6551417112350464,
                    -0.9127433896064758,
                    -0.7067867517471313,
                    0.15925085544586182,
                    0.03364380821585655,
                    0.08568080514669418,
                    0.906665027141571,
                    0.282638281583786,
                    0.359430193901062,
                    -0.17704875767230988,
                    -0.3465120792388916,
                    0.8394138216972351,
                    0.05158926174044609,
                    -1.861952304840088,
                    0.10932435095310211,
                    1.4185785055160522,
                    -0.36762505769729614,
                    -0.3596869707107544,
                    0.863849937915802,
                    -0.6546728610992432,
                    -0.2905302941799164,
                    0.07316718995571136,
                    0.5973461866378784,
                    -1.0871353149414062,
                    0.06401192396879196,
                    0.7239906191825867,
                    -0.014804389327764511,
                    0.34203532338142395,
                    0.4371545612812042,
                    0.3655531108379364,
                    0.021226320415735245,
                    -1.1623494625091553,
                    -0.24906697869300842,
                    -1.5354117155075073,
                    -0.9474878907203674,
                    -1.7013638019561768,
                    0.537904679775238,
                    0.5719342827796936,
                    1.2906980514526367,
                    -0.18195661902427673,
                    1.094003438949585,
                    -0.09955421090126038,
                    0.06138716638088226,
                    0.7650114297866821,
                    0.36778590083122253,
                    -0.07337286323308945,
                    -0.8883750438690186,
                    -0.42365673184394836,
                    -0.16885808110237122,
                    1.6783905029296875,
                    -0.8585802912712097,
                    -0.29732879996299744,
                    -0.06327598541975021,
                    -0.7832663655281067,
                    0.30933597683906555,
                    -0.05165456235408783,
                    0.6491605043411255,
                    -0.4843588173389435,
                    0.14713722467422485,
                    0.6657936573028564,
                    2.0729587078094482,
                    0.21174436807632446,
                    1.0457038879394531,
                    -0.8632826805114746,
                    0.4652046859264374,
                    0.32252180576324463,
                    -1.164923071861267,
                    0.43309450149536133,
                    -0.6894460916519165,
                    -0.6228280067443848,
                    -0.6256600618362427,
                    -1.3234970569610596,
                    0.9746369123458862,
                    -0.3905946612358093,
                    0.2555844187736511,
                    0.1661534458398819,
                    -0.6086690425872803,
                    -0.20825091004371643,
                    -0.01026858203113079,
                    -0.5082153677940369,
                    0.3117300271987915,
                    -0.20081764459609985,
                    -0.16570919752120972,
                    -0.09867557883262634,
                    0.7489267587661743,
                    0.06506902724504471,
                    -0.6341776847839355,
                    -0.29742905497550964,
                    -0.1738886684179306,
                    0.32224953174591064,
                    -1.5335787534713745,
                    -0.9344355463981628,
                    -0.41400033235549927,
                    0.26486244797706604,
                    0.6335448622703552,
                    0.7091099619865417,
                    0.2904227375984192,
                    -0.043735697865486145,
                    -1.0571459531784058,
                    0.10748358070850372,
                    -0.12691619992256165,
                    0.928718090057373,
                    1.5749764442443848,
                    0.13650135695934296,
                    -0.9905163645744324,
                    -0.8025397062301636,
                    -0.08922044932842255,
                    1.0867698192596436,
                    -0.5444161891937256,
                    0.3918142318725586,
                    0.2675042152404785,
                    0.9768823981285095,
                    -0.04558109864592552,
                    0.46420368552207947,
                    -0.012149964459240437,
                    0.09810388833284378,
                    0.30891522765159607,
                    1.6569445133209229,
                    -0.15952853858470917,
                    -0.8356615304946899,
                    0.756440281867981,
                    -0.44221946597099304,
                    -0.38343629240989685,
                    -0.705177903175354,
                    -0.308032363653183,
                    -0.299471914768219,
                    0.1765526980161667,
                    0.42160752415657043,
                    -0.009030412882566452,
                    -0.3156851530075073,
                    -1.4702205657958984,
                    -0.7068933844566345,
                    1.2792750597000122,
                    0.40629568696022034,
                    -0.8742764592170715,
                    -0.42585060000419617,
                    -0.9103577136993408,
                    -0.8109616637229919,
                    -1.0035938024520874,
                    -1.524834156036377,
                    0.658164381980896,
                    0.5626574754714966,
                    0.6630308628082275,
                    0.6730753183364868,
                    0.1364223212003708,
                    -0.41068413853645325,
                    -0.45014363527297974,
                    0.6325749754905701,
                    -0.1580885350704193,
                    -0.9042829275131226,
                    -0.31510478258132935,
                    0.12994569540023804,
                    -0.5600131154060364,
                    0.35951778292655945,
                    0.9529297351837158,
                    -1.5171922445297241,
                    -1.7660527229309082,
                    0.06396818906068802,
                    -0.6014832258224487,
                    0.3472292423248291,
                    -0.3156508803367615,
                    0.9625635147094727,
                    -1.2602146863937378,
                    -1.279853343963623,
                    -1.0384544134140015,
                    -0.48750773072242737,
                    -0.020834768190979958,
                    -0.26304760575294495,
                    -0.38258135318756104,
                    0.36095112562179565,
                    0.7684001326560974,
                    0.4890516400337219,
                    0.09259089082479477,
                    1.03343665599823,
                    0.08635721355676651,
                    0.2065262645483017,
                    0.5310077667236328,
                    0.05640321597456932,
                    -0.7442848682403564,
                    -0.06920476257801056,
                    0.6533286571502686,
                    -0.31480321288108826,
                    -0.5745530128479004,
                    0.30465155839920044,
                    0.8720300793647766,
                    0.7573859691619873,
                    0.3390379846096039,
                    0.19554468989372253,
                    -0.20176072418689728,
                    0.503498911857605,
                    -0.27283233404159546,
                    -0.2812483310699463,
                    -0.6955661177635193,
                    -0.02376927062869072,
                    -0.1243656799197197,
                    -0.6358379125595093,
                    -0.44506365060806274,
                    -0.016188930720090866,
                    0.11930465698242188,
                    0.9082435965538025,
                    -0.46840187907218933,
                    0.34443747997283936,
                    0.6107819676399231,
                    0.24463734030723572,
                    -0.4673806130886078,
                    1.8083600997924805,
                    -1.7051351070404053,
                    0.09925026446580887,
                    0.24191318452358246,
                    1.0254307985305786,
                    -0.14170539379119873,
                    -0.33213719725608826,
                    0.7634798884391785,
                    -2.2466394901275635,
                    -0.22621332108974457,
                    1.1676548719406128,
                    0.5889875888824463,
                    0.06141669303178787,
                    -0.38675034046173096,
                    0.13590124249458313,
                    -0.4488711655139923,
                    -0.14860107004642487,
                    0.4398902952671051,
                    0.823972761631012,
                    0.38476550579071045,
                    0.616768479347229,
                    0.40719959139823914,
                    -0.6895407438278198,
                    0.5907180309295654,
                    0.34778544306755066,
                    -0.010544370859861374,
                    0.6303033828735352,
                    -0.12256263941526413,
                    -0.46089065074920654,
                    0.19214527308940887,
                    -0.5362646579742432,
                    0.8721750974655151,
                    -0.4826880991458893,
                    1.3328291177749634,
                    0.36873626708984375,
                    0.5514783263206482,
                    0.8998494148254395,
                    0.394165575504303,
                    0.23718290030956268,
                    1.7391350269317627,
                    1.2699122428894043,
                    -0.23117277026176453,
                    -0.686514675617218,
                    -1.5508874654769897,
                    1.548283576965332,
                    -0.19963745772838593,
                    -0.07191140204668045,
                    1.4878140687942505,
                    1.2668521404266357,
                    0.1799355149269104,
                    0.9678313136100769,
                    -0.10503122955560684,
                    -0.48061996698379517,
                    0.038124702870845795,
                    0.7725649476051331,
                    -0.1751118004322052,
                    -0.5869895219802856,
                    0.7125306129455566,
                    0.728005051612854,
                    1.0832489728927612,
                    -1.0362036228179932,
                    0.6088598370552063,
                    0.36957472562789917,
                    0.1232350543141365,
                    1.4987014532089233,
                    0.5433939099311829,
                    -0.1659853458404541,
                    1.4433766603469849,
                    0.05773414298892021,
                    -0.607151985168457,
                    0.9003092646598816,
                    -0.15424825251102448,
                    1.0024396181106567,
                    -0.624843180179596,
                    -0.4660346806049347,
                    1.8848694562911987,
                    -0.29845860600471497,
                    1.0432565212249756,
                    1.2448053359985352,
                    1.2954318523406982,
                    -0.9805421829223633,
                    1.146897554397583,
                    -0.5856304168701172,
                    -0.0011440827511250973,
                    0.8259906768798828,
                    1.1025644540786743,
                    0.7523170709609985,
                    0.5333873629570007,
                    -1.6271036863327026,
                    -0.420779824256897,
                    -0.5464314222335815,
                    0.9716175198554993,
                    1.0361610651016235,
                    -0.4800144135951996,
                    0.7707278728485107,
                    0.011060679331421852,
                    0.416331946849823,
                    0.2825876474380493,
                    0.46290355920791626,
                    -0.02937502972781658,
                    0.8660649061203003,
                    -0.04845481365919113,
                    0.2303156554698944,
                    -0.07711701095104218,
                    -0.7235143780708313,
                    0.17219696938991547,
                    0.4087146520614624,
                    -1.0608608722686768,
                    0.3389649987220764,
                    1.3950096368789673,
                    0.0026704214978963137,
                    0.4144965708255768,
                    1.0572153329849243,
                    -0.5277964472770691,
                    -0.5518999099731445,
                    0.2020585536956787,
                    -1.1478227376937866,
                    0.10098375380039215,
                    -0.21456652879714966,
                    0.881375789642334,
                    0.7466105818748474,
                    0.45740118622779846,
                    0.2867034375667572,
                    0.9888148307800293,
                    1.424615502357483,
                    0.7165083885192871,
                    0.029251620173454285,
                    0.6623547077178955,
                    0.8353425860404968,
                    -0.11794953048229218,
                    0.6229568123817444,
                    -0.42348334193229675,
                    0.7898037433624268,
                    1.0479888916015625,
                    -0.8943108320236206,
                    0.8441476225852966,
                    0.06131597235798836,
                    0.42921650409698486,
                    -0.7767055034637451,
                    0.40841755270957947,
                    -0.13878515362739563,
                    -0.10419037193059921,
                    -0.01125374622642994,
                    0.3924204111099243,
                    -0.8238207101821899,
                    -0.44296252727508545,
                    0.2483128160238266,
                    0.3754628598690033,
                    0.30319562554359436,
                    0.7083936333656311,
                    1.130279302597046,
                    -0.16758988797664642,
                    1.2486958503723145,
                    -0.11837640404701233,
                    0.4620966911315918,
                    1.7238363027572632,
                    1.2126566171646118,
                    0.7433809041976929,
                    0.6037907600402832,
                    0.7839341759681702,
                    0.508525550365448,
                    -0.39661192893981934,
                    0.7203441858291626,
                    0.2767980098724365,
                    -1.951492428779602,
                    0.43555837869644165,
                    0.050966717302799225,
                    0.17747822403907776,
                    0.4958495795726776,
                    -1.0690628290176392,
                    -0.4619157910346985,
                    0.31083062291145325,
                    -0.28247347474098206,
                    1.5414830446243286,
                    0.43898990750312805,
                    0.9112550020217896,
                    0.330767422914505,
                    0.5548311471939087,
                    0.1637718826532364,
                    0.386936753988266,
                    0.8526435494422913,
                    0.177841916680336,
                    0.3228139579296112,
                    0.5714234709739685,
                    0.6612574458122253,
                    0.18281149864196777,
                    0.3091340661048889,
                    -0.3697492778301239,
                    -1.3240864276885986,
                    1.671269416809082,
                    0.2203207015991211,
                    -0.10056005418300629,
                    0.36394041776657104,
                    0.00917667243629694,
                    0.013473904691636562,
                    -0.10269752144813538,
                    -0.760944664478302,
                    -1.0794819593429565,
                    -0.8710561394691467,
                    -1.129859447479248,
                    -0.7102395296096802,
                    -1.1613103151321411,
                    0.831231951713562,
                    0.49352210760116577,
                    -1.6327528953552246,
                    -0.09894745796918869,
                    0.8112103939056396,
                    0.18069489300251007,
                    -0.4446744918823242,
                    0.7911449074745178,
                    0.5597134232521057,
                    -0.42918792366981506,
                    -1.3685916662216187,
                    -0.9189336895942688,
                    -0.8949573636054993,
                    -0.6285190582275391,
                    -1.3869516849517822,
                    1.34031081199646,
                    0.8213443160057068,
                    0.6356492042541504,
                    0.3272661566734314,
                    -1.1189075708389282,
                    -0.2117042988538742,
                    1.0128564834594727,
                    -0.10029669851064682,
                    -1.393489956855774,
                    -0.5463299751281738,
                    -0.8337661623954773,
                    -0.4745410084724426,
                    -1.2491682767868042,
                    0.12752407789230347,
                    -0.5400435924530029,
                    0.1857955902814865,
                    -0.2620411217212677,
                    -0.057632505893707275,
                    -0.9956008791923523,
                    -0.4900073707103729,
                    -0.3648523986339569,
                    0.4314614236354828,
                    0.04849429801106453,
                    0.15676835179328918,
                    -0.7134839296340942,
                    1.12964928150177,
                    -0.28783318400382996,
                    0.3009510338306427,
                    -0.11705243587493896,
                    -0.04277102276682854,
                    -1.1396617889404297,
                    0.5797944664955139,
                    -0.8195412158966064,
                    -0.2716151475906372,
                    -0.8173134922981262,
                    0.5378527641296387,
                    -0.6156021356582642,
                    0.33496686816215515,
                    -0.6338812112808228,
                    -0.34941908717155457,
                    -0.6015457510948181,
                    0.9532154202461243,
                    0.4254029393196106,
                    -0.6350260376930237,
                    -0.4520888924598694,
                    -0.8165715336799622,
                    0.25843602418899536,
                    -1.0886971950531006,
                    -0.18649818003177643,
                    0.9639304280281067,
                    0.07045772671699524,
                    -0.5399669408798218,
                    -0.37753385305404663,
                    -0.8617687821388245,
                    0.33457931876182556,
                    -0.8293055891990662,
                    0.36235207319259644,
                    0.09973558038473129,
                    -0.10587406903505325,
                    -0.012801800854504108,
                    -0.06254860758781433,
                    1.0647432804107666,
                    -0.982166051864624,
                    0.617108166217804,
                    0.0067869690246880054,
                    0.5718319416046143,
                    0.03341875970363617,
                    0.38178548216819763,
                    -0.9220168590545654,
                    -0.5888016223907471,
                    0.6511440277099609,
                    -0.6983537077903748,
                    -0.7792555093765259,
                    -0.06263803690671921,
                    -1.0011264085769653,
                    -1.2900872230529785,
                    -0.8651297092437744,
                    -1.5763458013534546,
                    -0.26810264587402344,
                    0.2695271968841553,
                    -0.11428777128458023,
                    -0.7759342193603516,
                    0.2632579207420349,
                    0.9219393134117126,
                    0.22970721125602722,
                    0.3254660964012146,
                    0.7187583446502686,
                    0.6791235208511353,
                    -0.6833193302154541,
                    -0.4980821907520294,
                    -0.5231779217720032,
                    -0.2178775519132614,
                    1.462947130203247,
                    0.3492887616157532,
                    -0.4622442424297333,
                    -1.0818082094192505,
                    0.8773311376571655,
                    0.6059845089912415,
                    0.6734166741371155,
                    -0.696053683757782,
                    0.21451321244239807,
                    -0.5911557674407959,
                    -0.7614806890487671,
                    -0.4193396270275116,
                    -0.18664894998073578,
                    -0.4108090102672577,
                    -0.09126710146665573,
                    -0.25952038168907166,
                    1.1003350019454956,
                    -0.10094152390956879,
                    -0.8732858300209045,
                    -0.20056967437267303,
                    -0.402587890625,
                    0.19910943508148193,
                    0.1908060610294342,
                    -0.6561490893363953,
                    -0.8682684898376465,
                    -0.8885610103607178,
                    0.4506285488605499,
                    0.7084665298461914,
                    -0.562321662902832,
                    0.3138136863708496,
                    -0.6926549077033997,
                    0.3891024887561798,
                    0.4537823796272278,
                    0.27646759152412415,
                    -0.4700782597064972,
                    0.14165586233139038,
                    -0.5552886724472046,
                    -0.4326729476451874,
                    -0.8135623931884766,
                    -0.9598203301429749,
                    0.04900779202580452,
                    -0.5346434116363525,
                    0.21585559844970703,
                    -1.0085363388061523,
                    -0.23350350558757782,
                    -0.7855752110481262,
                    0.30339139699935913,
                    0.15858076512813568,
                    0.10241583734750748,
                    0.6401715874671936,
                    0.581345796585083,
                    -0.4608174264431,
                    -0.5431020259857178,
                    -0.41740742325782776,
                    -0.13043954968452454,
                    0.4479306936264038
                ],
                [
                    0.9919305443763733,
                    -0.07446566224098206,
                    -0.022385306656360626,
                    0.3028770089149475,
                    -0.9411643147468567,
                    0.7127244472503662,
                    -1.0866804122924805,
                    0.09450828284025192,
                    -0.3337688446044922,
                    -0.20257458090782166,
                    -0.07152147591114044,
                    -0.35822367668151855,
                    0.1566247195005417,
                    -0.5961771011352539,
                    0.27661243081092834,
                    -0.7271320819854736,
                    -0.6745798587799072,
                    -0.29063940048217773,
                    1.6565181016921997,
                    0.5082555413246155,
                    0.02694028615951538,
                    -1.235817313194275,
                    -0.33167704939842224,
                    -0.5001363158226013,
                    -1.0922404527664185,
                    0.8994347453117371,
                    0.9196770191192627,
                    -0.6230663061141968,
                    1.0077934265136719,
                    -0.2339847981929779,
                    0.8505184054374695,
                    1.1562789678573608,
                    -1.0365206003189087,
                    0.03986313194036484,
                    0.34656161069869995,
                    -0.20823214948177338,
                    1.4739925861358643,
                    -0.29692620038986206,
                    0.12824131548404694,
                    0.29491207003593445,
                    0.0009280588710680604,
                    0.5737538933753967,
                    -1.1950762271881104,
                    0.08913280069828033,
                    -0.22740960121154785,
                    -0.650465190410614,
                    -0.952901303768158,
                    0.6640779972076416,
                    0.4881477355957031,
                    -0.3251269459724426,
                    0.7368456721305847,
                    0.08070305734872818,
                    0.2556605637073517,
                    1.6952463388442993,
                    -0.07533935457468033,
                    -0.36261579394340515,
                    0.5140422582626343,
                    0.996441662311554,
                    1.743333101272583,
                    -0.011183670721948147,
                    1.0123143196105957,
                    -0.6436596512794495,
                    -0.4003112018108368,
                    0.5266887545585632,
                    -0.5616028904914856,
                    -0.49710750579833984,
                    0.5087285041809082,
                    -0.15360695123672485,
                    -0.22369523346424103,
                    0.005423127673566341,
                    -0.6877957582473755,
                    0.8768763542175293,
                    -0.49377384781837463,
                    0.6131153106689453,
                    -0.6788604259490967,
                    1.5094996690750122,
                    -0.48050060868263245,
                    0.0713849738240242,
                    0.03174465894699097,
                    -0.45103004574775696,
                    0.3886174261569977,
                    -0.35457825660705566,
                    0.5740405321121216,
                    -0.2194250524044037,
                    -0.24159379303455353,
                    -0.1663963794708252,
                    0.2819896638393402,
                    -0.8250394463539124,
                    -0.8210582733154297,
                    -0.983966052532196,
                    -0.232791468501091,
                    -0.04956425353884697,
                    0.9973080158233643,
                    0.8110209107398987,
                    -0.4996846318244934,
                    -0.08834018558263779,
                    0.7924082279205322,
                    0.0799955427646637,
                    -1.3985602855682373,
                    0.5516983270645142,
                    0.4496957063674927,
                    0.22260057926177979,
                    0.2011021077632904,
                    -0.39063552021980286,
                    0.5189989805221558,
                    1.0245354175567627,
                    0.17777001857757568,
                    -1.5239851474761963,
                    0.16567391157150269,
                    -0.15418343245983124,
                    -0.6333358287811279,
                    -0.2333264946937561,
                    0.6252222657203674,
                    -0.3878757655620575,
                    -0.1666533499956131,
                    0.24457833170890808,
                    -1.718141794204712,
                    0.3300532400608063,
                    0.3167528510093689,
                    -0.44758522510528564,
                    -0.29006528854370117,
                    1.0894873142242432,
                    0.8788300156593323,
                    -0.029056748375296593,
                    0.8536058068275452,
                    0.7097969651222229,
                    0.19735242426395416,
                    -1.5573924779891968,
                    0.7542460560798645,
                    -0.21334956586360931,
                    -0.408527672290802,
                    0.45267438888549805,
                    -0.7426247596740723,
                    -0.3179752826690674,
                    -1.1974953413009644,
                    0.6935138702392578,
                    -1.2675738334655762,
                    0.24529968202114105,
                    -0.025288844481110573,
                    0.8751116991043091,
                    0.3714600205421448,
                    -0.14734865725040436,
                    0.9341626763343811,
                    2.0621371269226074,
                    -0.27888914942741394,
                    1.2329835891723633,
                    0.2555161118507385,
                    0.9168909192085266,
                    0.4180372953414917,
                    0.4878869354724884,
                    1.3584214448928833,
                    0.2978906035423279,
                    1.264593243598938,
                    1.0014909505844116,
                    0.5378661155700684,
                    0.5197803974151611,
                    -0.3513953387737274,
                    -0.4955415427684784,
                    -0.7095012664794922,
                    -0.7807245254516602,
                    0.05651548132300377,
                    0.2057429403066635,
                    0.7271397709846497,
                    0.3639233410358429,
                    -0.14475786685943604,
                    0.7960863709449768,
                    -0.5268872976303101,
                    -0.061871595680713654,
                    0.01703941449522972,
                    0.9704070091247559,
                    2.311748504638672,
                    0.2591341435909271,
                    -0.6410011649131775,
                    0.4349382817745209,
                    -0.7924701571464539,
                    0.2982499599456787,
                    -0.2518664598464966,
                    0.4114401936531067,
                    0.10794484615325928,
                    -1.1986180543899536,
                    1.5426700115203857,
                    1.3231608867645264,
                    1.121161937713623,
                    1.3852990865707397,
                    -0.31913238763809204,
                    0.9565204977989197,
                    1.2783509492874146,
                    0.8874026536941528,
                    0.12011529505252838,
                    1.223209023475647,
                    -0.580383837223053,
                    0.4976959824562073,
                    -0.3140866458415985,
                    0.8233587145805359,
                    -0.5788986086845398,
                    -0.26399627327919006,
                    -0.9540808796882629,
                    -0.7114659547805786,
                    -0.2637500464916229,
                    0.49646690487861633,
                    -0.14968112111091614,
                    -0.2204212248325348,
                    0.45852920413017273,
                    -0.029946375638246536,
                    0.3749474883079529,
                    0.3024575114250183,
                    -0.0462876595556736,
                    0.9761872887611389,
                    0.657877504825592,
                    1.2560631036758423,
                    1.2961435317993164,
                    0.6446572542190552,
                    0.2991393506526947,
                    0.6922966837882996,
                    -0.17853544652462006,
                    0.4188086688518524,
                    -0.19265024363994598,
                    1.487815499305725,
                    0.08464028686285019,
                    -0.19893425703048706,
                    -1.444205641746521,
                    0.6895796656608582,
                    0.41200944781303406,
                    -0.03301636874675751,
                    0.11181719601154327,
                    0.6574920415878296,
                    -0.04947281628847122,
                    0.9615556597709656,
                    0.3968425989151001,
                    -0.4598475992679596,
                    0.8343810439109802,
                    -0.44452840089797974,
                    1.0729047060012817,
                    -0.009604417718946934,
                    0.5013968348503113,
                    -0.28305768966674805,
                    1.6358145475387573,
                    0.36998751759529114,
                    1.1578478813171387,
                    0.19572538137435913,
                    1.6626967191696167,
                    0.08344008028507233,
                    1.3790030479431152,
                    2.0656442642211914,
                    0.04766153171658516,
                    0.5687209963798523,
                    1.3275433778762817,
                    0.692750096321106,
                    -0.030040571466088295,
                    -0.9293766617774963,
                    0.03665585070848465,
                    -0.4530511796474457,
                    0.17847594618797302,
                    0.2185019701719284,
                    -0.39726635813713074,
                    -0.11379117518663406,
                    0.877988338470459,
                    0.5378161072731018,
                    1.2149525880813599,
                    -1.1332340240478516,
                    0.29702502489089966,
                    0.42396488785743713,
                    0.9590682983398438,
                    -0.20912262797355652,
                    0.016813848167657852,
                    1.1915818452835083,
                    -0.72052001953125,
                    -0.31529098749160767,
                    0.7006015181541443,
                    0.8982412815093994,
                    0.6540517210960388,
                    2.215031147003174,
                    0.5409325361251831,
                    -0.22582420706748962,
                    -0.2172372043132782,
                    0.5318223237991333,
                    0.5045323371887207,
                    1.1492451429367065,
                    -0.8098773956298828,
                    0.2625117599964142,
                    1.5783259868621826,
                    -0.03344835713505745,
                    0.8078197836875916,
                    1.4781030416488647,
                    -0.975048303604126,
                    1.1665287017822266,
                    0.9538582563400269,
                    0.8395957350730896,
                    0.7353509664535522,
                    -0.0050080688670277596,
                    -0.34354257583618164,
                    -0.5432815551757812,
                    0.47676560282707214,
                    0.9268203377723694,
                    0.8994634747505188,
                    0.5669057369232178,
                    0.6068443655967712,
                    0.17116308212280273,
                    1.2618991136550903,
                    0.4374772906303406,
                    0.5443103313446045,
                    0.7636568546295166,
                    0.9841358065605164,
                    -0.37349647283554077,
                    -0.3179377615451813,
                    0.8653499484062195,
                    -0.10162193328142166,
                    -0.8966732621192932,
                    0.32409507036209106,
                    -0.5232658982276917,
                    -0.2049674093723297,
                    0.17413827776908875,
                    -0.16479966044425964,
                    -0.5291807651519775,
                    -0.33058682084083557,
                    -0.3154652416706085,
                    -0.9248480796813965,
                    0.7419297099113464,
                    -1.0350602865219116,
                    0.37711623311042786,
                    -0.4742361903190613,
                    1.060507893562317,
                    1.6920491456985474,
                    0.9826067686080933,
                    0.9767246842384338,
                    -0.5571754574775696,
                    0.624744176864624,
                    0.21830330789089203,
                    0.2886368930339813,
                    0.5547091960906982,
                    0.9102855920791626,
                    -0.5023612976074219,
                    -0.6240025162696838,
                    0.24429388344287872,
                    0.46968913078308105,
                    -0.4465148150920868,
                    0.8403298854827881,
                    -0.1581476628780365,
                    0.1404956430196762,
                    -0.6624543070793152,
                    0.06304976344108582,
                    0.4151711165904999,
                    0.04162042960524559,
                    -0.49121707677841187,
                    0.2754133641719818,
                    -0.12742772698402405,
                    -0.39195317029953003,
                    -0.9429646134376526,
                    -1.2269583940505981,
                    -0.40422531962394714,
                    1.2352122068405151,
                    0.4344940781593323,
                    1.0115456581115723,
                    -0.08563493937253952,
                    0.6154618859291077,
                    -0.10246651619672775,
                    -0.030212752521038055,
                    0.7332308888435364,
                    0.3070727586746216,
                    -0.36584189534187317,
                    1.3414169549942017,
                    0.17724062502384186,
                    -0.06927597522735596,
                    0.6511772274971008,
                    0.3975174129009247,
                    0.37322407960891724,
                    -1.6000932455062866,
                    -0.37549030780792236,
                    -0.11905765533447266,
                    -0.09886655956506729,
                    -0.349980890750885,
                    0.12133514881134033,
                    -0.6049995422363281,
                    -0.5284798741340637,
                    1.5916128158569336,
                    -0.011172303929924965,
                    -0.8547561764717102,
                    0.7094354033470154,
                    0.8354659080505371,
                    0.4976595342159271,
                    -0.279937744140625,
                    0.19071194529533386,
                    0.1880146861076355,
                    -0.2114405781030655,
                    0.7736417651176453,
                    0.416141152381897,
                    -0.5558546781539917,
                    -0.3727206885814667,
                    0.31198227405548096,
                    0.5230157375335693,
                    0.27406084537506104,
                    0.9896823167800903,
                    -0.15410301089286804,
                    -0.457340270280838,
                    0.14556984603405,
                    -0.36567825078964233,
                    -0.09904974699020386,
                    -1.1901311874389648,
                    0.3657573163509369,
                    -0.45855575799942017,
                    -1.366682767868042,
                    0.49321168661117554,
                    -1.0031450986862183,
                    -1.0467963218688965,
                    0.12612177431583405,
                    1.2679744958877563,
                    1.1188524961471558,
                    2.2337634563446045,
                    -0.38791537284851074,
                    -0.13516905903816223,
                    0.387882262468338,
                    -1.1321722269058228,
                    -0.767206609249115,
                    -0.574221134185791,
                    -0.6813781261444092,
                    -0.5855715274810791,
                    0.4955475330352783,
                    0.9586852192878723,
                    1.2211353778839111,
                    -0.30063849687576294,
                    0.5677534341812134,
                    -0.9439415335655212,
                    -1.2775987386703491,
                    0.9045718312263489,
                    0.051977165043354034,
                    -0.16535326838493347,
                    -0.7290181517601013,
                    -1.6835832595825195,
                    -1.1483601331710815,
                    -0.4778275191783905,
                    -0.44353845715522766,
                    -0.5987549424171448,
                    0.12643647193908691,
                    1.295357346534729,
                    0.018659722059965134,
                    -1.2134743928909302,
                    0.6506494283676147,
                    0.3850997984409332,
                    -0.030839866027235985,
                    1.3453304767608643,
                    0.9015738368034363,
                    -0.40147197246551514,
                    -1.1295812129974365,
                    -0.9187734723091125,
                    0.2394857555627823,
                    -0.049654655158519745,
                    0.1855332851409912,
                    0.7091584205627441,
                    0.20784185826778412,
                    -0.38771575689315796,
                    0.2156861126422882,
                    0.49419307708740234,
                    0.6806492805480957,
                    -0.5781380534172058,
                    -0.7624941468238831,
                    0.1853603720664978,
                    -0.2968832552433014,
                    -0.015024474821984768,
                    -0.2525954842567444,
                    -0.9076570868492126,
                    0.8428177833557129,
                    1.1798982620239258,
                    0.619290292263031,
                    -0.33207640051841736,
                    -0.6401419043540955,
                    -0.19444026052951813,
                    0.8933749198913574,
                    -1.0378888845443726,
                    0.12024056911468506,
                    -0.4543633460998535,
                    -1.3451406955718994,
                    -0.43605515360832214,
                    -0.28554677963256836,
                    0.030189331620931625,
                    1.269025206565857,
                    0.7316666841506958,
                    -0.9961475729942322,
                    1.0006235837936401,
                    -0.9526525139808655,
                    -0.00222251215018332,
                    0.628724217414856,
                    -0.527653157711029,
                    -0.20923715829849243,
                    -0.4028928875923157,
                    0.4422464966773987,
                    0.7253291606903076,
                    -1.3754962682724,
                    -1.0441354513168335,
                    0.12123484909534454,
                    -1.0359735488891602,
                    -0.861272931098938,
                    0.8546927571296692,
                    0.003377174725756049,
                    -0.14605633914470673,
                    0.1544116586446762,
                    0.5183827877044678,
                    -0.45886367559432983,
                    1.0187047719955444,
                    0.3756578266620636,
                    0.1391715705394745,
                    -0.06340232491493225,
                    0.5784465670585632,
                    1.1198266744613647,
                    -0.08046021312475204,
                    -1.0540509223937988,
                    0.04415721818804741,
                    -1.123806357383728,
                    0.2169339507818222,
                    0.17470276355743408,
                    -0.26470330357551575,
                    0.019161144271492958,
                    -0.7388426661491394,
                    -0.8073172569274902,
                    -0.9343132972717285,
                    -1.1793694496154785,
                    0.004047161899507046,
                    -0.26671674847602844,
                    0.540643036365509,
                    1.3902496099472046,
                    0.21239419281482697,
                    0.6310334801673889,
                    -0.3437296450138092,
                    -0.9567002654075623,
                    -0.5145497918128967,
                    -0.8902684450149536,
                    -0.8910385370254517,
                    -0.5715775489807129,
                    0.9782229065895081,
                    0.13230499625205994,
                    -0.6740497350692749,
                    -1.3713120222091675,
                    0.5551382899284363,
                    -0.5039007067680359,
                    0.46023866534233093,
                    0.0343933179974556,
                    0.9191808104515076,
                    0.7487581968307495,
                    -0.14999428391456604,
                    1.3393903970718384,
                    0.5907615423202515,
                    0.44076409935951233,
                    -0.756680428981781,
                    0.5831068754196167,
                    -0.31592071056365967,
                    -0.695493221282959,
                    -1.4905070066452026,
                    -0.35002532601356506,
                    -0.4389466345310211,
                    -0.4168857932090759,
                    -0.8820093870162964,
                    0.9433603286743164,
                    0.8263912796974182,
                    -0.5775215029716492,
                    0.1032429188489914,
                    0.15862855315208435,
                    0.44340869784355164,
                    -0.4882313311100006,
                    0.609396755695343,
                    0.08620762825012207,
                    1.1386168003082275,
                    0.07546620070934296,
                    -0.9705779552459717,
                    0.22719447314739227,
                    0.6119787693023682,
                    1.0446500778198242,
                    0.5247387886047363,
                    0.4538523554801941,
                    1.8180683851242065,
                    0.4150751233100891,
                    0.8255846500396729,
                    0.24711132049560547,
                    0.35102421045303345,
                    -1.1393871307373047,
                    0.501161515712738,
                    0.26510563492774963,
                    0.4047509431838989,
                    0.7612531781196594,
                    -0.16993115842342377,
                    -0.03877033293247223,
                    0.9165688157081604,
                    0.796766996383667,
                    1.0085039138793945,
                    0.42053213715553284,
                    0.15025274455547333,
                    -0.2703287899494171,
                    -0.12281269580125809,
                    -0.8706731796264648,
                    -1.1083877086639404,
                    -0.6699451208114624,
                    1.189544916152954,
                    -0.49749755859375,
                    0.22267915308475494,
                    0.15502431988716125,
                    -0.2732027471065521,
                    0.816914975643158,
                    0.909480094909668,
                    1.161298155784607,
                    -0.16061103343963623,
                    -0.8512709736824036,
                    -1.0039947032928467,
                    -0.5881979465484619,
                    -0.21790768206119537,
                    -1.5679211616516113,
                    -0.4484981596469879,
                    -0.6145715713500977,
                    0.2021634727716446,
                    -0.755263090133667,
                    0.8496759533882141,
                    -0.37304362654685974,
                    -1.1312134265899658,
                    -1.1921807527542114,
                    0.737403929233551,
                    1.0176633596420288,
                    -0.2048046737909317,
                    0.7131943106651306,
                    1.6965581178665161,
                    -0.23458412289619446,
                    -0.8015613555908203,
                    -1.4200844764709473,
                    1.4474787712097168,
                    0.3443513810634613,
                    0.5852749943733215,
                    -0.0778956338763237,
                    0.7236375212669373,
                    1.4490880966186523,
                    -0.6448912620544434,
                    0.7004022598266602,
                    0.649116039276123,
                    1.3748754262924194,
                    0.17751604318618774,
                    0.7730265259742737,
                    0.16147950291633606,
                    0.0962468609213829,
                    -0.5075170993804932,
                    -0.6882829070091248,
                    0.2597317099571228,
                    -0.13315922021865845,
                    -0.23331761360168457,
                    1.2676491737365723,
                    -1.6538738012313843,
                    -0.061659447848796844,
                    0.9337358474731445,
                    -0.022866573184728622,
                    -0.21274156868457794,
                    0.9924071431159973,
                    0.4113783538341522,
                    0.04289211332798004,
                    0.18225471675395966,
                    0.01448118221014738,
                    1.0163040161132812,
                    2.2150614261627197,
                    -0.02628183923661709,
                    0.8502499461174011,
                    0.7324101328849792,
                    -0.28830260038375854,
                    0.774665117263794,
                    -0.15454280376434326,
                    -1.2906615734100342,
                    0.7321495413780212,
                    -0.6699829697608948,
                    1.3313558101654053,
                    0.9157437086105347,
                    0.07682617008686066,
                    0.6391869783401489,
                    0.14424733817577362,
                    -0.8510208129882812,
                    -0.42656055092811584,
                    0.42845991253852844,
                    -0.5268345475196838,
                    0.1074693351984024,
                    -0.26044678688049316,
                    -0.07283566147089005,
                    -0.48523956537246704,
                    1.3104572296142578,
                    0.5122507810592651,
                    0.6733648777008057,
                    -0.4144212305545807,
                    -0.7233203053474426,
                    -0.6392478942871094,
                    0.4994862675666809,
                    0.2071068435907364,
                    -0.689957857131958,
                    -0.9531954526901245,
                    0.5838460922241211,
                    1.028956651687622,
                    0.9902140498161316,
                    1.3546583652496338,
                    -0.03752317652106285,
                    0.10503051429986954,
                    0.2595716714859009,
                    -0.5366341471672058,
                    0.6945605874061584,
                    -0.25960615277290344,
                    1.1498912572860718,
                    -1.148217797279358,
                    -0.7259812355041504,
                    -1.348171353340149,
                    -0.03272021934390068,
                    0.6416733860969543,
                    -0.8516467809677124,
                    0.9206804037094116,
                    -0.567811906337738,
                    0.1909279078245163,
                    1.060752272605896,
                    1.0745846033096313,
                    0.2079414576292038,
                    0.30703651905059814,
                    0.6094000935554504,
                    0.5665320754051208,
                    1.269031047821045,
                    1.207721471786499,
                    0.33260130882263184,
                    -0.14800569415092468,
                    -0.17555966973304749,
                    0.307904988527298,
                    0.8315414190292358,
                    0.7219120860099792,
                    0.5128400325775146,
                    0.4474971890449524,
                    0.08812911063432693,
                    -0.09522383660078049,
                    -0.84014493227005,
                    -0.25163233280181885,
                    -0.20552478730678558,
                    -0.8876360058784485,
                    -1.222347378730774,
                    -0.7111895680427551,
                    -0.22316527366638184,
                    0.3331792652606964,
                    -0.9170972108840942,
                    -1.1247349977493286,
                    0.6716442108154297,
                    0.5009346008300781,
                    -0.753406822681427,
                    0.4392065405845642,
                    0.6684685349464417,
                    -0.18015149235725403,
                    0.16513210535049438,
                    0.05540136992931366,
                    -0.16145774722099304,
                    0.6231197118759155,
                    0.44540703296661377,
                    -0.15116563439369202,
                    0.6838807463645935,
                    0.9396827220916748,
                    -0.004179072100669146,
                    0.693013608455658,
                    -1.3588892221450806,
                    0.4994584619998932,
                    1.2968268394470215,
                    -0.3662242591381073,
                    0.04040982574224472,
                    0.8768234848976135,
                    -1.702832579612732,
                    -0.8800743818283081,
                    -0.43552348017692566,
                    -0.6007580161094666,
                    -0.3987145721912384,
                    0.41781294345855713,
                    0.6299710273742676,
                    -0.09319563955068588,
                    0.5109128952026367,
                    -0.6044210195541382,
                    -0.46060672402381897,
                    0.3895716369152069,
                    0.2516383230686188,
                    0.34555476903915405,
                    -1.018986701965332,
                    0.26853427290916443,
                    0.32280391454696655,
                    0.36669281125068665,
                    -0.3899979293346405,
                    -0.6435623168945312,
                    0.6273096799850464,
                    1.0296896696090698,
                    -0.2674050033092499,
                    0.705716609954834,
                    1.0241328477859497,
                    -1.330647349357605,
                    -0.5147008299827576,
                    0.08733852952718735,
                    -1.5715103149414062,
                    0.1835283786058426,
                    -0.5976895689964294
                ],
                [
                    1.4916014671325684,
                    -0.749866783618927,
                    1.5410820245742798,
                    -0.41224512457847595,
                    -1.600644588470459,
                    -0.8875830173492432,
                    -0.7261138558387756,
                    -1.0824294090270996,
                    0.0724758729338646,
                    1.634696125984192,
                    0.040612827986478806,
                    -0.5734876394271851,
                    -0.7840690016746521,
                    -0.5804251432418823,
                    0.3902550935745239,
                    -1.0212219953536987,
                    -1.7380938529968262,
                    -1.5464656352996826,
                    1.0894216299057007,
                    1.215461015701294,
                    0.806151807308197,
                    0.34969085454940796,
                    1.1063857078552246,
                    0.8527669310569763,
                    0.5473245978355408,
                    0.3310725688934326,
                    -0.1151486411690712,
                    0.35388439893722534,
                    -0.31453344225883484,
                    -0.5065677762031555,
                    0.23992277681827545,
                    0.635665237903595,
                    0.9217661619186401,
                    -0.39224547147750854,
                    0.04989584907889366,
                    -0.02318214438855648,
                    -0.3456496298313141,
                    -1.5117615461349487,
                    -0.404449999332428,
                    -0.31325769424438477,
                    -0.835137128829956,
                    -0.8113391399383545,
                    0.3302159309387207,
                    0.011449666693806648,
                    0.5427095293998718,
                    -0.31493133306503296,
                    -1.4149824380874634,
                    0.10692501068115234,
                    0.666558563709259,
                    1.054821491241455,
                    -0.25561609864234924,
                    -0.10494106262922287,
                    0.11597397923469543,
                    0.10972194373607635,
                    0.3009848892688751,
                    1.176523208618164,
                    -0.06359486281871796,
                    -0.6734623312950134,
                    -0.8502466082572937,
                    0.22979490458965302,
                    0.9423139095306396,
                    -0.43571746349334717,
                    -0.8747393488883972,
                    0.9955856800079346,
                    -0.6900320649147034,
                    -0.06281853467226028,
                    -1.1091132164001465,
                    -0.3195715546607971,
                    -0.00892544724047184,
                    -0.20049461722373962,
                    -0.7531576156616211,
                    0.5435848832130432,
                    0.21309687197208405,
                    -0.3697180151939392,
                    -0.1350671350955963,
                    0.49788179993629456,
                    -0.5986284613609314,
                    0.6669018268585205,
                    0.7787590622901917,
                    0.6777188777923584,
                    0.3517339527606964,
                    -0.7577911615371704,
                    -0.550634503364563,
                    -1.2095460891723633,
                    0.0879305750131607,
                    0.43781667947769165,
                    -0.8241173624992371,
                    -0.06461784243583679,
                    0.1551668643951416,
                    1.2754265069961548,
                    -0.64654940366745,
                    -0.028809037059545517,
                    0.597155749797821,
                    -0.339317262172699,
                    -0.02171570062637329,
                    -0.5731359124183655,
                    0.8618748188018799,
                    0.41094037890434265,
                    -0.3204704821109772,
                    -0.9313730001449585,
                    0.14717768132686615,
                    0.4239220917224884,
                    -0.6382227540016174,
                    1.297802448272705,
                    0.17998182773590088,
                    0.1880917102098465,
                    0.17582647502422333,
                    0.3104427456855774,
                    -0.1815406084060669,
                    0.2729262709617615,
                    -0.2926078140735626,
                    -0.7258890271186829,
                    -0.4173511862754822,
                    -0.1825047731399536,
                    0.6578803658485413,
                    0.7922642827033997,
                    0.21355020999908447,
                    -1.3209298849105835,
                    -1.4848957061767578,
                    -1.1834405660629272,
                    0.6260840892791748,
                    -0.27753108739852905,
                    0.5212569236755371,
                    0.10145970433950424,
                    -1.8072980642318726,
                    1.1471121311187744,
                    -0.11394000053405762,
                    0.4228743612766266,
                    0.7859170436859131,
                    0.11678850650787354,
                    0.6564498543739319,
                    0.05105847492814064,
                    -0.16298577189445496,
                    0.13874146342277527,
                    1.9234808683395386,
                    -1.4845072031021118,
                    1.156628131866455,
                    -1.551218867301941,
                    0.2715664207935333,
                    -0.23456589877605438,
                    1.1662874221801758,
                    -0.17530670762062073,
                    -1.2986735105514526,
                    0.18870824575424194,
                    0.2602198123931885,
                    -0.7235697507858276,
                    0.02817641757428646,
                    -1.5231118202209473,
                    0.3418189585208893,
                    -0.09138329327106476,
                    -0.49758410453796387,
                    1.5113160610198975,
                    0.2895772159099579,
                    -0.6296295523643494,
                    0.3444898724555969,
                    -0.6494468450546265,
                    -0.36902448534965515,
                    0.49848514795303345,
                    -0.9948452115058899,
                    0.011002838611602783,
                    -0.4515915811061859,
                    -0.8966603875160217,
                    -0.6148020029067993,
                    0.04265653342008591,
                    -0.43900036811828613,
                    0.6357501745223999,
                    -1.1212559938430786,
                    -0.13275136053562164,
                    0.9334827065467834,
                    -0.020013069733977318,
                    1.1662877798080444,
                    1.4174765348434448,
                    -0.1161455512046814,
                    1.0811550617218018,
                    -0.30240705609321594,
                    0.4949832856655121,
                    -1.394315481185913,
                    0.7218393087387085,
                    0.16800738871097565,
                    0.6116076111793518,
                    -0.28668445348739624,
                    -0.0457899384200573,
                    0.2908082902431488,
                    -0.08966497331857681,
                    -0.004559564404189587,
                    1.621500849723816,
                    -0.6354067325592041,
                    -1.0252395868301392,
                    -0.013918234035372734,
                    0.7387085556983948,
                    -1.0524013042449951,
                    -0.12225080281496048,
                    1.0196597576141357,
                    -1.2006744146347046,
                    -0.41088417172431946,
                    -0.3017387092113495,
                    0.1872081458568573,
                    -0.7847818732261658,
                    0.24399800598621368,
                    -1.161935567855835,
                    -0.6484038233757019,
                    -0.04668339341878891,
                    0.026791080832481384,
                    -0.4680488407611847,
                    0.10410716384649277,
                    -0.07984639704227448,
                    0.40162044763565063,
                    -0.6350389122962952,
                    -0.9872127771377563,
                    0.6686291694641113,
                    -0.1337757706642151,
                    0.13949204981327057,
                    0.20223872363567352,
                    0.41502538323402405,
                    0.14904913306236267,
                    2.2130722999572754,
                    -0.42110908031463623,
                    -1.918487310409546,
                    1.366724967956543,
                    0.776540219783783,
                    -0.298332154750824,
                    1.538291335105896,
                    -1.191943883895874,
                    -0.6253337264060974,
                    -0.7177866101264954,
                    0.25589755177497864,
                    -0.6006157994270325,
                    -0.16964936256408691,
                    -1.330013632774353,
                    1.0113626718521118,
                    -0.4702913761138916,
                    -0.5055328011512756,
                    0.5145865678787231,
                    0.5861866474151611,
                    0.1627746969461441,
                    0.5938141942024231,
                    0.5490975975990295,
                    1.0511623620986938,
                    -1.0679316520690918,
                    -0.7780854105949402,
                    1.4232206344604492,
                    0.29088038206100464,
                    0.38933852314949036,
                    0.4324808120727539,
                    0.1631409376859665,
                    0.5052153468132019,
                    0.6298784017562866,
                    -0.9355171918869019,
                    -0.4690849781036377,
                    0.2495797574520111,
                    -0.4375714659690857,
                    -0.07016753405332565,
                    -0.5336321592330933,
                    0.8983070850372314,
                    0.06744541972875595,
                    -0.29084086418151855,
                    -0.33711203932762146,
                    0.9024885296821594,
                    0.5043919682502747,
                    -0.3196887969970703,
                    -0.2208930104970932,
                    0.7894447445869446,
                    0.3978210389614105,
                    -1.1058299541473389,
                    0.29560473561286926,
                    -0.06052379682660103,
                    -0.28428396582603455,
                    -0.22209572792053223,
                    -0.2498999685049057,
                    0.21800702810287476,
                    -0.299736887216568,
                    1.118103265762329,
                    0.7233481407165527,
                    -1.167461633682251,
                    -2.627570867538452,
                    0.7121044993400574,
                    0.8802046179771423,
                    0.004182323347777128,
                    -1.7223972082138062,
                    0.39247456192970276,
                    1.521451711654663,
                    0.8860904574394226,
                    0.5807816386222839,
                    1.0424244403839111,
                    -1.0471926927566528,
                    -0.01618790253996849,
                    1.2544125318527222,
                    1.1448900699615479,
                    -0.809689998626709,
                    0.8654766082763672,
                    -0.20795364677906036,
                    -0.27534863352775574,
                    1.4517556428909302,
                    1.1592272520065308,
                    -0.9070485234260559,
                    -0.5490425229072571,
                    -0.9816796183586121,
                    0.29549890756607056,
                    1.066568374633789,
                    0.9299731850624084,
                    0.34601834416389465,
                    0.723487377166748,
                    0.7846259474754333,
                    0.5735707879066467,
                    0.49807488918304443,
                    -0.6753761768341064,
                    -0.630982518196106,
                    0.027724798768758774,
                    -0.34148332476615906,
                    -0.4129306972026825,
                    0.43994075059890747,
                    0.27703458070755005,
                    0.708032488822937,
                    0.36357808113098145,
                    -0.33852487802505493,
                    1.3494338989257812,
                    -0.07119637727737427,
                    -0.27535519003868103,
                    0.2574572265148163,
                    0.5390114188194275,
                    0.6342805624008179,
                    0.8152744770050049,
                    0.19866116344928741,
                    -0.40924718976020813,
                    -0.12220296263694763,
                    1.2274662256240845,
                    0.3053860068321228,
                    0.013095969334244728,
                    -0.7102131247520447,
                    -0.31857314705848694,
                    -1.2876574993133545,
                    0.13899146020412445,
                    0.25300630927085876,
                    -0.3788817226886749,
                    0.13033539056777954,
                    0.34584322571754456,
                    -0.8799828886985779,
                    -0.4646534323692322,
                    -0.05805961787700653,
                    -0.6490030288696289,
                    -0.00889577716588974,
                    -0.023521199822425842,
                    0.4775563180446625,
                    -1.5586642026901245,
                    -1.0193284749984741,
                    0.5735767483711243,
                    0.4155147671699524,
                    -0.4806453287601471,
                    -0.2948853075504303,
                    -0.3396548330783844,
                    0.6769318580627441,
                    0.3229759633541107,
                    0.6311606764793396,
                    -0.56416916847229,
                    -0.08969297260046005,
                    0.5276150703430176,
                    -1.1461678743362427,
                    0.7934408783912659,
                    0.4621170163154602,
                    1.1763538122177124,
                    -0.35618406534194946,
                    -0.4967188537120819,
                    1.3881688117980957,
                    -0.6286187171936035,
                    -0.444769948720932,
                    0.6439164876937866,
                    0.5225163102149963,
                    1.43323814868927,
                    -0.5854620337486267,
                    0.3896602988243103,
                    -0.35277795791625977,
                    1.1465823650360107,
                    0.515091598033905,
                    0.046964529901742935,
                    -0.28016361594200134,
                    -0.271708220243454,
                    -0.7410708665847778,
                    -0.4077218770980835,
                    0.11955752968788147,
                    -0.43497011065483093,
                    -0.23622144758701324,
                    -0.2970881760120392,
                    1.024537205696106,
                    0.7391433119773865,
                    -0.009498337283730507,
                    0.25638189911842346,
                    0.28830599784851074,
                    0.644585132598877,
                    0.6008222699165344,
                    -0.7749272584915161,
                    -0.7525637745857239,
                    -1.060074806213379,
                    2.157893419265747,
                    1.3604265451431274,
                    -2.3637452125549316,
                    1.0510220527648926,
                    0.36410024762153625,
                    0.3091981112957001,
                    0.09074942022562027,
                    -0.6681838631629944,
                    -0.5165188908576965,
                    -0.8226764798164368,
                    -0.7702767252922058,
                    -0.3410350978374481,
                    -0.20888257026672363,
                    -1.096071720123291,
                    -0.05709012970328331,
                    0.27233973145484924,
                    -0.43169456720352173,
                    1.5492278337478638,
                    0.7432686686515808,
                    -1.0298490524291992,
                    0.41974756121635437,
                    0.4536777138710022,
                    0.5654049515724182,
                    1.1424225568771362,
                    0.7012878060340881,
                    -0.787361204624176,
                    -0.6260888576507568,
                    0.745789647102356,
                    0.6727818846702576,
                    0.9033964276313782,
                    0.9523544907569885,
                    0.33389410376548767,
                    0.9518995881080627,
                    0.04636840522289276,
                    0.04778154566884041,
                    -0.6714054942131042,
                    0.4632469117641449,
                    -0.5897181630134583,
                    -0.0126260444521904,
                    0.584807276725769,
                    1.041845679283142,
                    0.2725054919719696,
                    -0.7209591269493103,
                    -0.2703264057636261,
                    -0.5668624043464661,
                    -0.43987733125686646,
                    -0.40105772018432617,
                    0.3766319751739502,
                    -0.8573294281959534,
                    0.16383834183216095,
                    -0.6361653208732605,
                    -0.003540839534252882,
                    1.5779281854629517,
                    -1.0934919118881226,
                    0.9001935124397278,
                    -0.25596630573272705,
                    0.2604075074195862,
                    -0.48435643315315247,
                    0.13473844528198242,
                    0.8330492973327637,
                    0.6895411610603333,
                    0.42105743288993835,
                    -0.6012080311775208,
                    0.3644082844257355,
                    1.1295206546783447,
                    0.16298645734786987,
                    1.0896894931793213,
                    -0.0713205337524414,
                    0.04465093836188316,
                    -0.8275855183601379,
                    0.10092758387327194,
                    1.4792630672454834,
                    -0.5585875511169434,
                    0.10999422520399094,
                    0.4713752269744873,
                    -0.7732666730880737,
                    0.34058019518852234,
                    0.837404727935791,
                    1.1220577955245972,
                    0.01760270819067955,
                    -0.10277437418699265,
                    -1.416878342628479,
                    0.46202951669692993,
                    -1.152430534362793,
                    0.43782714009284973,
                    0.5339376330375671,
                    0.43064606189727783,
                    0.36189329624176025,
                    -0.16171975433826447,
                    -0.027203859761357307,
                    0.7011489272117615,
                    0.4931722581386566,
                    0.4218793213367462,
                    1.4976845979690552,
                    0.8391589522361755,
                    0.5826613306999207,
                    0.589338481426239,
                    -0.9067240357398987,
                    -0.27695801854133606,
                    0.08768358081579208,
                    0.627389669418335,
                    -1.0365625619888306,
                    0.18650613725185394,
                    -0.4457433819770813,
                    0.5846322178840637,
                    -0.15179498493671417,
                    0.15625715255737305,
                    -0.9270676970481873,
                    -0.31577175855636597,
                    -0.5633175373077393,
                    -0.1620149463415146,
                    -0.529834508895874,
                    -1.0055134296417236,
                    0.5391243696212769,
                    -0.9510704278945923,
                    -0.4426901936531067,
                    -0.13234233856201172,
                    -0.01868950016796589,
                    -0.6489157676696777,
                    0.683354914188385,
                    0.18017123639583588,
                    0.9463329315185547,
                    0.27379775047302246,
                    0.5038085579872131,
                    -0.5014204382896423,
                    0.2971530556678772,
                    0.4578864872455597,
                    -0.3895329236984253,
                    -0.3945468068122864,
                    -0.4293852150440216,
                    -0.6791722774505615,
                    -0.9496922492980957,
                    0.18902646005153656,
                    0.6596821546554565,
                    -0.3013194799423218,
                    0.3564636707305908,
                    -0.3323417603969574,
                    -0.3194723129272461,
                    0.1997227966785431,
                    0.1966944932937622,
                    -0.35497233271598816,
                    0.5440223813056946,
                    0.4524407386779785,
                    -0.08326443284749985,
                    -0.1401345133781433,
                    0.4009160101413727,
                    -0.5217919945716858,
                    0.02870565839111805,
                    0.08773596584796906,
                    -0.1202184408903122,
                    -0.26914742588996887,
                    1.2725272178649902,
                    -0.04210749268531799,
                    0.8158981204032898,
                    -0.9674261212348938,
                    -0.5725774168968201,
                    0.9174648523330688,
                    0.5387744307518005,
                    -0.43921589851379395,
                    0.013649318367242813,
                    -0.2938041388988495,
                    0.7003034949302673,
                    -0.477241575717926,
                    -0.24491408467292786,
                    0.36229050159454346,
                    0.14722414314746857,
                    1.6324844360351562,
                    -0.672487199306488,
                    -0.7025294303894043,
                    0.5635035634040833,
                    0.5584202408790588,
                    -0.29737865924835205,
                    1.0053744316101074,
                    -0.9194098114967346,
                    0.02801341935992241,
                    -0.21449622511863708,
                    -1.2014648914337158,
                    -0.029839927330613136,
                    1.1894056797027588,
                    -0.7341786026954651,
                    -0.22230646014213562,
                    1.1366838216781616,
                    0.3424322009086609,
                    -1.2261031866073608,
                    0.1576511710882187,
                    0.8895702958106995,
                    -0.6462835073471069,
                    -1.4374200105667114,
                    0.9120001196861267,
                    -0.06972889602184296,
                    0.5941078066825867,
                    0.995533287525177,
                    0.8471732139587402,
                    0.7207046747207642,
                    -0.628704845905304,
                    -0.3030640482902527,
                    0.16024886071681976,
                    0.8461660742759705,
                    -0.6132186055183411,
                    0.2079671323299408,
                    0.19294042885303497,
                    -0.1109514981508255,
                    0.38093364238739014,
                    0.45444607734680176,
                    -0.18344809114933014,
                    -0.027597183361649513,
                    1.2667882442474365,
                    1.6624720096588135,
                    0.39420270919799805,
                    -0.8664910197257996,
                    -1.0329617261886597,
                    0.418337881565094,
                    1.8827158212661743,
                    -1.2260297536849976,
                    -0.4229491651058197,
                    1.166534423828125,
                    0.1609775871038437,
                    -0.23029634356498718,
                    -1.094916820526123,
                    -0.5968774557113647,
                    -0.05642615631222725,
                    -0.6706095337867737,
                    -0.30659449100494385,
                    0.1620463877916336,
                    1.258072853088379,
                    -1.0837328433990479,
                    1.710985541343689,
                    -0.3050529360771179,
                    -0.9519668817520142,
                    -0.474529892206192,
                    0.7561023831367493,
                    0.20995157957077026,
                    -0.14779940247535706,
                    0.9093448519706726,
                    0.8866058588027954,
                    -0.2791464626789093,
                    0.08844713121652603,
                    0.4742182791233063,
                    -0.21026380360126495,
                    -0.5295282006263733,
                    0.10631660372018814,
                    -0.5846765041351318,
                    0.3575649857521057,
                    -0.4327990412712097,
                    0.804101288318634,
                    0.38714149594306946,
                    0.04456464946269989,
                    -0.3603438138961792,
                    0.772513210773468,
                    -1.0478041172027588,
                    -1.4360380172729492,
                    0.40589627623558044,
                    -1.2459509372711182,
                    -0.7484869360923767,
                    -0.497281938791275,
                    0.08769062906503677,
                    1.2613939046859741,
                    0.11796519160270691,
                    -0.6436249017715454,
                    -0.7800502777099609,
                    1.003172755241394,
                    0.099830262362957,
                    0.8050137162208557,
                    1.2259529829025269,
                    1.5261574983596802,
                    -1.4762821197509766,
                    1.3805195093154907,
                    0.37657448649406433,
                    -1.0952101945877075,
                    0.33053722977638245,
                    0.22583380341529846,
                    -1.2748090028762817,
                    -0.3895355761051178,
                    0.7473722100257874,
                    -0.7404946684837341,
                    -0.3333829641342163,
                    0.4353308379650116,
                    0.3135124742984772,
                    -0.3152006268501282,
                    0.014846405014395714,
                    -0.0679134726524353,
                    -0.596870481967926,
                    0.5595044493675232,
                    -0.06854984909296036,
                    0.25478771328926086,
                    -0.8138478398323059,
                    0.2112932950258255,
                    -0.17924779653549194,
                    0.007941845804452896,
                    0.4338292181491852,
                    0.41707655787467957,
                    0.9440445899963379,
                    -0.02723923698067665,
                    0.7670841217041016,
                    1.2516416311264038,
                    -0.42755424976348877,
                    -0.7443397641181946,
                    -0.3286401033401489,
                    0.11270134896039963,
                    -0.184388667345047,
                    0.8253474235534668,
                    -0.21204493939876556,
                    0.03574134409427643,
                    -1.2771626710891724,
                    0.8828256726264954,
                    -0.29133573174476624,
                    0.2481870800256729,
                    0.26525118947029114,
                    -0.11202634125947952,
                    0.6819191575050354,
                    0.6327058672904968,
                    -0.2446567267179489,
                    -0.1226954385638237,
                    0.7101466059684753,
                    -0.09625758975744247,
                    0.3427698016166687,
                    1.1305903196334839,
                    -0.15995004773139954,
                    0.3029126822948456,
                    -1.3044452667236328,
                    -0.5471113324165344,
                    -1.0302010774612427,
                    0.8136290907859802,
                    0.568519115447998,
                    -1.8853405714035034,
                    1.4353891611099243,
                    -0.8963938355445862,
                    0.9130828976631165,
                    -0.19790120422840118,
                    -0.9495304226875305,
                    -0.31243211030960083,
                    -1.7957028150558472,
                    0.5465071201324463,
                    0.038703493773937225,
                    -1.0020790100097656,
                    -0.9977352619171143,
                    -0.2814295291900635,
                    -1.4224460124969482,
                    -0.2400367259979248,
                    0.38989153504371643,
                    -0.38953056931495667,
                    -0.7073453068733215,
                    -0.886393666267395,
                    -0.16167287528514862,
                    0.2893625497817993,
                    0.8889070153236389,
                    -1.032664179801941,
                    0.0065156202763319016,
                    -0.21151673793792725,
                    0.17140613496303558,
                    0.045244503766298294,
                    0.23285052180290222,
                    0.1774829477071762,
                    0.6861814856529236,
                    -0.10894089192152023,
                    0.5011186599731445,
                    0.7172592878341675,
                    -0.07027806341648102,
                    0.4081280827522278,
                    0.001176718738861382,
                    -1.2406212091445923,
                    0.08631286770105362,
                    -0.2001151740550995,
                    -0.06716711074113846,
                    0.3171437084674835,
                    -1.5957614183425903,
                    -0.8831123113632202,
                    -0.04469120502471924,
                    0.21478603780269623,
                    0.24050499498844147,
                    0.829447329044342,
                    0.7066954970359802,
                    0.4233177900314331,
                    -0.13986045122146606,
                    -0.22386528551578522,
                    -0.5186019539833069,
                    0.5312257409095764,
                    -0.6853817105293274,
                    0.6356114745140076,
                    0.45535898208618164,
                    -0.12501920759677887,
                    0.5190559029579163,
                    -0.04093022644519806,
                    -0.2793600559234619,
                    -0.9417385458946228,
                    0.17781750857830048,
                    -1.198007583618164,
                    0.3891746699810028,
                    0.7414417862892151,
                    -0.5505266785621643,
                    0.7562597990036011,
                    1.1646603345870972
                ],
                [
                    -1.066314458847046,
                    -0.1570139229297638,
                    0.3165379464626312,
                    0.7774158716201782,
                    -1.008385181427002,
                    -0.7736981511116028,
                    0.342395544052124,
                    0.14437322318553925,
                    0.45416414737701416,
                    -0.30835869908332825,
                    -0.21766772866249084,
                    0.8371046185493469,
                    0.22346647083759308,
                    -0.06456609815359116,
                    1.664067029953003,
                    0.380463570356369,
                    -0.8625065684318542,
                    1.3229314088821411,
                    -0.021644480526447296,
                    0.5204193592071533,
                    -0.007585081737488508,
                    0.6803920269012451,
                    -0.6117014288902283,
                    0.35301363468170166,
                    0.6376636028289795,
                    0.8814014792442322,
                    -1.1608812808990479,
                    -0.5417090654373169,
                    -0.2372719794511795,
                    0.08508336544036865,
                    -0.12178933620452881,
                    1.1352814435958862,
                    0.17453019320964813,
                    -0.16693010926246643,
                    -0.37393903732299805,
                    0.08667534589767456,
                    -0.6229450702667236,
                    0.8606785535812378,
                    -0.7012628316879272,
                    0.028744753450155258,
                    0.8202568292617798,
                    0.39234745502471924,
                    0.16209203004837036,
                    0.5283469557762146,
                    -0.38168081641197205,
                    -0.959525465965271,
                    -1.0577791929244995,
                    0.05378050357103348,
                    -0.6938345432281494,
                    -0.07443919777870178,
                    -0.954835832118988,
                    -1.3468692302703857,
                    -0.3186613917350769,
                    -0.5312805771827698,
                    -0.5422872304916382,
                    1.086618423461914,
                    -0.13729678094387054,
                    -0.09882308542728424,
                    0.8489799499511719,
                    0.017508482560515404,
                    1.1206445693969727,
                    0.5439030528068542,
                    -1.1656607389450073,
                    1.2862964868545532,
                    -1.508515477180481,
                    0.23634368181228638,
                    -0.04140011593699455,
                    0.36666256189346313,
                    1.062431812286377,
                    0.8685534596443176,
                    -0.07603379338979721,
                    0.45776963233947754,
                    1.650235652923584,
                    -0.2608706057071686,
                    -0.4661361277103424,
                    1.0118550062179565,
                    -0.22391515970230103,
                    0.29876208305358887,
                    1.3876961469650269,
                    0.37210068106651306,
                    -1.4724680185317993,
                    -1.0153638124465942,
                    0.44415009021759033,
                    -0.19201883673667908,
                    0.649182915687561,
                    -0.14282092452049255,
                    -0.6554354429244995,
                    0.11014845967292786,
                    0.363532155752182,
                    -0.40751171112060547,
                    0.12049488723278046,
                    0.7476072907447815,
                    0.44282934069633484,
                    -1.0126214027404785,
                    1.2648581266403198,
                    1.2825781106948853,
                    -0.0602492019534111,
                    0.021133026108145714,
