{
    "layers": [
        {
            "weights": [
                [
                    -0.43073028326034546,
                    -0.47373685240745544,
                    -0.4753933250904083,
                    -0.117599256336689,
                    0.8097319602966309,
                    -0.4828498363494873,
                    0.07998804748058319,
                    -0.16591742634773254,
                    0.03170447796583176,
                    -0.06404949724674225,
                    -0.2967027723789215,
                    -0.9264533519744873,
                    0.5849722027778625,
                    0.09217830747365952,
                    -0.8744588494300842,
                    0.9466776251792908,
                    -0.34368643164634705,
                    0.4144299626350403,
                    1.0239276885986328,
                    -0.7476128339767456,
                    -0.4197927415370941,
                    0.6683493852615356,
                    -0.625586986541748,
                    -0.5856313109397888,
                    0.9573006629943848,
                    1.1441469192504883,
                    -0.519072413444519,
                    0.9398889541625977,
                    0.6292458772659302,
                    0.08871807157993317,
                    -0.6299261450767517,
                    -0.12311048805713654,
                    2.28684401512146,
                    0.3309761583805084,
                    -0.02167440950870514,
                    -0.19270984828472137,
                    0.7795193791389465,
                    -0.3874085247516632,
                    -0.015995608642697334,
                    0.834426999092102,
                    -0.8936668038368225,
                    -0.2635258734226227,
                    0.14023050665855408,
                    -1.6249524354934692,
                    1.2005161046981812,
                    -0.5340616703033447,
                    1.1381710767745972,
                    0.5969339609146118,
                    -0.4045943319797516,
                    0.2691206634044647,
                    -0.07502615451812744,
                    -1.4334616661071777,
                    -0.30860045552253723,
                    -0.6674392223358154,
                    -0.5824419260025024,
                    -0.7834005355834961,
                    0.3103155791759491,
                    -0.6886804699897766,
                    0.44797614216804504,
                    0.037199705839157104,
                    0.03191214054822922,
                    -0.6655440330505371,
                    0.4894197881221771,
                    -0.38330408930778503,
                    -1.2455885410308838,
                    -0.1226908266544342,
                    -0.3826243281364441,
                    -0.615558922290802,
                    -0.03575350344181061,
                    0.319986492395401,
                    0.8667770028114319,
                    -0.02992566116154194,
                    1.2657151222229004,
                    -0.058783158659935,
                    0.6648396253585815,
                    -0.1833549588918686,
                    -0.4364626705646515,
                    0.0030708187259733677,
                    0.21797503530979156,
                    -1.0248228311538696,
                    0.3737387955188751,
                    1.1676760911941528,
                    -0.21441927552223206,
                    -1.5089232921600342,
                    0.25343552231788635,
                    -0.018744926899671555,
                    -0.028272442519664764,
                    0.007328914012759924,
                    -0.4826190769672394,
                    -1.584330439567566,
                    0.4989252984523773,
                    -0.2970586121082306,
                    0.6982852816581726,
                    1.0627137422561646,
                    0.34679532051086426,
                    0.12161286175251007,
                    0.7126076221466064,
                    -0.07076627016067505,
                    -0.18964241445064545,
                    -0.18819887936115265,
                    1.062625765800476,
                    0.3675706386566162,
                    0.45343440771102905,
                    -0.2130173295736313,
                    -0.29887855052948,
                    0.25242382287979126,
                    -0.37463417649269104,
                    -0.4324702024459839,
                    -1.1794989109039307,
                    -0.6073693633079529,
                    -0.8318713307380676,
                    -0.16992931067943573,
                    1.806126594543457,
                    0.7179310321807861,
                    -0.18159854412078857,
                    -0.0012343900743871927,
                    -0.9229421019554138,
                    0.008542290888726711,
                    0.3620782196521759,
                    0.3263489603996277,
                    -0.4305371940135956,
                    -0.19998687505722046,
                    -0.9652075171470642,
                    0.06843787431716919,
                    0.5895357131958008,
                    -0.5251060724258423,
                    -0.5716414451599121,
                    1.2997620105743408,
                    -0.589432954788208,
                    -0.2129567712545395,
                    0.9770882725715637,
                    0.33410584926605225,
                    -0.0621805414557457,
                    -0.5428683757781982,
                    -0.2811617851257324,
                    -0.7676207423210144,
                    0.04697638005018234,
                    0.586976945400238,
                    0.5018324851989746,
                    -0.040831081569194794,
                    -0.6149219870567322,
                    -0.26902684569358826,
                    0.05377089977264404,
                    0.3162907063961029,
                    -0.6724188327789307,
                    -0.40549319982528687,
                    -0.23825803399085999,
                    1.2926894426345825,
                    0.3577284514904022,
                    0.36336320638656616,
                    0.12737706303596497,
                    0.07367002964019775,
                    0.31907200813293457,
                    0.501126229763031,
                    -0.22222056984901428,
                    0.046564798802137375,
                    0.685933530330658,
                    -0.9091194868087769,
                    0.16043969988822937,
                    1.1761356592178345,
                    -0.546780526638031,
                    -0.07177987694740295,
                    1.024526834487915,
                    -0.18779125809669495,
                    0.4820432662963867,
                    0.2200467437505722,
                    0.5082074999809265,
                    -1.7565945386886597,
                    0.21335525810718536,
                    -0.9091558456420898,
                    1.0591206550598145,
                    0.06195264682173729,
                    0.89345383644104,
                    -0.7626885175704956,
                    0.7610118389129639,
                    1.5303279161453247,
                    0.4415757954120636,
                    0.1031259074807167,
                    0.24923862516880035,
                    -0.900316596031189,
                    -0.12524528801441193,
                    0.9851671457290649,
                    0.1496513932943344,
                    1.1821249723434448,
                    0.1602856069803238,
                    -0.5762348175048828,
                    -0.04920051619410515,
                    0.32277384400367737,
                    -0.8269119262695312,
                    0.3228535056114197,
                    0.45763128995895386,
                    0.0678824856877327,
                    -0.2341662496328354,
                    -0.7016196250915527,
                    -0.23474957048892975,
                    -0.5921041369438171,
                    -0.24148352444171906,
                    -0.2558249533176422,
                    -0.10114838927984238,
                    -0.005391914863139391,
                    0.2764441668987274,
                    0.3425498604774475,
                    -0.6128264665603638,
                    0.40929365158081055,
                    0.49288198351860046,
                    0.6999461650848389,
                    -0.13639479875564575,
                    -0.7839346528053284,
                    -0.021356305107474327,
                    0.8170202374458313,
                    0.9062958359718323,
                    -0.2615223526954651,
                    -1.4400157928466797,
                    0.6344549655914307,
                    0.655195415019989,
                    -0.9130357503890991,
                    -0.7069732546806335,
                    0.15905438363552094,
                    0.03352898359298706,
                    0.08577753603458405,
                    0.9065685272216797,
                    0.2825593948364258,
                    0.3592374920845032,
                    -0.17698268592357635,
                    -0.34653741121292114,
                    0.8393975496292114,
                    0.051478806883096695,
                    -1.8619492053985596,
                    0.10938352346420288,
                    1.4184340238571167,
                    -0.3675840497016907,
                    -0.3597646951675415,
                    0.8637458086013794,
                    -0.6544414758682251,
                    -0.2905840277671814,
                    0.07326799631118774,
                    0.5971003770828247,
                    -1.0870617628097534,
                    0.06393441557884216,
                    0.7240198254585266,
                    -0.014840192161500454,
                    0.3419853746891022,
                    0.43701890110969543,
                    0.3650455176830292,
                    0.021203599870204926,
                    -1.162533164024353,
                    -0.24919411540031433,
                    -1.5354472398757935,
                    -0.9473491907119751,
                    -1.7014281749725342,
                    0.5377055406570435,
                    0.5719566941261292,
                    1.2905921936035156,
                    -0.1822601556777954,
                    1.0940871238708496,
                    -0.09974520653486252,
                    0.06141424924135208,
                    0.7649973630905151,
                    0.3679243326187134,
                    -0.07303842157125473,
                    -0.8885254859924316,
                    -0.4236660599708557,
                    -0.16886931657791138,
                    1.6785898208618164,
                    -0.8584867715835571,
                    -0.2974205017089844,
                    -0.06335383653640747,
                    -0.7833011746406555,
                    0.30933335423469543,
                    -0.05182236060500145,
                    0.6489243507385254,
                    -0.4841579794883728,
                    0.14669162034988403,
                    0.6659225821495056,
                    2.0728931427001953,
                    0.21195374429225922,
                    1.0455083847045898,
                    -0.8632112741470337,
                    0.4652959108352661,
                    0.3227680027484894,
                    -1.1648757457733154,
                    0.4329500198364258,
                    -0.6891692876815796,
                    -0.6229135394096375,
                    -0.6254098415374756,
                    -1.3236684799194336,
                    0.9746719002723694,
                    -0.390534371137619,
                    0.255607932806015,
                    0.1661604344844818,
                    -0.6085662841796875,
                    -0.208456888794899,
                    -0.010321448557078838,
                    -0.5080950856208801,
                    0.31179824471473694,
                    -0.20081761479377747,
                    -0.16572503745555878,
                    -0.09868325293064117,
                    0.7488862872123718,
                    0.06492939591407776,
                    -0.6342095732688904,
                    -0.29720863699913025,
                    -0.1742110699415207,
                    0.32192468643188477,
                    -1.5333341360092163,
                    -0.9344764947891235,
                    -0.4141039252281189,
                    0.2647944390773773,
                    0.6335272192955017,
                    0.7090911269187927,
                    0.290625661611557,
                    -0.04374614730477333,
                    -1.0572386980056763,
                    0.10737635940313339,
                    -0.1269877701997757,
                    0.9285735487937927,
                    1.5749635696411133,
                    0.13648881018161774,
                    -0.99076247215271,
                    -0.8023862242698669,
                    -0.0890762209892273,
                    1.086976170539856,
                    -0.5444053411483765,
                    0.3918305039405823,
                    0.2675072252750397,
                    0.9771038293838501,
                    -0.04553794860839844,
                    0.464019775390625,
                    -0.012101606465876102,
                    0.09790186583995819,
                    0.3088652193546295,
                    1.6563715934753418,
                    -0.15965324640274048,
                    -0.8356795310974121,
                    0.7563775181770325,
                    -0.44213634729385376,
                    -0.3834313154220581,
                    -0.7052766680717468,
                    -0.30806276202201843,
                    -0.29914429783821106,
                    0.1763531118631363,
                    0.4216289520263672,
                    -0.009428763762116432,
                    -0.3155843913555145,
                    -1.470294713973999,
                    -0.7067066431045532,
                    1.2793704271316528,
                    0.40630829334259033,
                    -0.8742988109588623,
                    -0.4255925118923187,
                    -0.9102616906166077,
                    -0.8112010359764099,
                    -1.0037988424301147,
                    -1.5248898267745972,
                    0.6582223773002625,
                    0.5627639293670654,
                    0.6628257036209106,
                    0.6730900406837463,
                    0.13630105555057526,
                    -0.41042011976242065,
                    -0.4501532316207886,
                    0.6327192187309265,
                    -0.1580706089735031,
                    -0.9040806889533997,
                    -0.31500738859176636,
                    0.12996238470077515,
                    -0.5599978566169739,
                    0.35977548360824585,
                    0.9532103538513184,
                    -1.517257809638977,
                    -1.7659683227539062,
                    0.06405005604028702,
                    -0.6014705300331116,
                    0.3470940589904785,
                    -0.31577226519584656,
                    0.9624615907669067,
                    -1.2602578401565552,
                    -1.2798850536346436,
                    -1.0382734537124634,
                    -0.48739904165267944,
                    -0.02067161723971367,
                    -0.26289355754852295,
                    -0.3820413053035736,
                    0.3610357642173767,
                    0.7688019275665283,
                    0.48904791474342346,
                    0.09279396384954453,
                    1.0332391262054443,
                    0.08652912080287933,
                    0.20645251870155334,
                    0.530932605266571,
                    0.05608941242098808,
                    -0.7442131638526917,
                    -0.06889613717794418,
                    0.6531750559806824,
                    -0.3146361708641052,
                    -0.5744117498397827,
                    0.30470478534698486,
                    0.8720737099647522,
                    0.7573744654655457,
                    0.33910447359085083,
                    0.1954527050256729,
                    -0.20179007947444916,
                    0.5035476684570312,
                    -0.27277010679244995,
                    -0.2811315357685089,
                    -0.695597767829895,
                    -0.024116098880767822,
                    -0.1245693564414978,
                    -0.635810136795044,
                    -0.444959431886673,
                    -0.016251759603619576,
                    0.11923608183860779,
                    0.9084003567695618,
                    -0.4687267243862152,
                    0.3445960581302643,
                    0.6107129454612732,
                    0.24459391832351685,
                    -0.46734023094177246,
                    1.808045506477356,
                    -1.7051972150802612,
                    0.09923055768013,
                    0.2418447732925415,
                    1.0253390073776245,
                    -0.14170566201210022,
                    -0.3320644199848175,
                    0.763439953327179,
                    -2.2460625171661377,
                    -0.2261229306459427,
                    1.16749107837677,
                    0.5891733169555664,
                    0.06150380149483681,
                    -0.38682952523231506,
                    0.13569018244743347,
                    -0.4488890469074249,
                    -0.14863921701908112,
                    0.43996042013168335,
                    0.824045717716217,
                    0.38461822271347046,
                    0.6165865063667297,
                    0.4070824980735779,
                    -0.6894726753234863,
                    0.5906966924667358,
                    0.3478962779045105,
                    -0.010364756919443607,
                    0.6304152607917786,
                    -0.12229569256305695,
                    -0.4607565999031067,
                    0.19233860075473785,
                    -0.5361859798431396,
                    0.8721752762794495,
                    -0.48264533281326294,
                    1.3327759504318237,
                    0.36860793828964233,
                    0.551772952079773,
                    0.8998281359672546,
                    0.3942110240459442,
                    0.23725193738937378,
                    1.738783836364746,
                    1.2699137926101685,
                    -0.23124979436397552,
                    -0.686713695526123,
                    -1.550721526145935,
                    1.5484693050384521,
                    -0.19955676794052124,
                    -0.0719892606139183,
                    1.4875726699829102,
                    1.266554355621338,
                    0.17971469461917877,
                    0.968000590801239,
                    -0.10523412376642227,
                    -0.4806172549724579,
                    0.03812875971198082,
                    0.772756040096283,
                    -0.17533889412879944,
                    -0.5869360566139221,
                    0.7126381397247314,
                    0.7281398773193359,
                    1.0830477476119995,
                    -1.0363664627075195,
                    0.6089069247245789,
                    0.36969247460365295,
                    0.1232156753540039,
                    1.4987421035766602,
                    0.5429448485374451,
                    -0.16606499254703522,
                    1.4432343244552612,
                    0.0576544813811779,
                    -0.6070261001586914,
                    0.9000455141067505,
                    -0.1542035937309265,
                    1.0022562742233276,
                    -0.62517249584198,
                    -0.46609067916870117,
                    1.8853752613067627,
                    -0.29853346943855286,
                    1.043178915977478,
                    1.2450276613235474,
                    1.295401692390442,
                    -0.980571448802948,
                    1.146654486656189,
                    -0.5856945514678955,
                    -0.0009749556193128228,
                    0.8260146975517273,
                    1.1024277210235596,
                    0.7526729106903076,
                    0.5335516929626465,
                    -1.6272505521774292,
                    -0.420758455991745,
                    -0.5464301705360413,
                    0.9717887043952942,
                    1.0360336303710938,
                    -0.4803299903869629,
                    0.770294189453125,
                    0.011018974706530571,
                    0.4161958396434784,
                    0.28275710344314575,
                    0.46318772435188293,
                    -0.029245946556329727,
                    0.8659327626228333,
                    -0.04872822016477585,
                    0.23062124848365784,
                    -0.07694774121046066,
                    -0.723298192024231,
                    0.1722356677055359,
                    0.4088095724582672,
                    -1.0609173774719238,
                    0.3388058543205261,
                    1.3950616121292114,
                    0.0027124686166644096,
                    0.41449230909347534,
                    1.0572278499603271,
                    -0.5279097557067871,
                    -0.5518152117729187,
                    0.20180517435073853,
                    -1.1478357315063477,
                    0.10118860751390457,
                    -0.21411269903182983,
                    0.8811718821525574,
                    0.7465127110481262,
                    0.4575471878051758,
                    0.28663620352745056,
                    0.9886634945869446,
                    1.4245818853378296,
                    0.7164363861083984,
                    0.02930607832968235,
                    0.6623669266700745,
                    0.8350439071655273,
                    -0.11810865998268127,
                    0.6231116056442261,
                    -0.42349594831466675,
                    0.7899224162101746,
                    1.048010230064392,
                    -0.894182026386261,
                    0.8441363573074341,
                    0.06128501519560814,
                    0.429211288690567,
                    -0.7766268253326416,
                    0.40818509459495544,
                    -0.1387740522623062,
                    -0.10423281043767929,
                    -0.011016654781997204,
                    0.3925323188304901,
                    -0.8231806755065918,
                    -0.4429735243320465,
                    0.24821966886520386,
                    0.37546318769454956,
                    0.3028240501880646,
                    0.7084624767303467,
                    1.130173921585083,
                    -0.16776949167251587,
                    1.2486374378204346,
                    -0.11846377700567245,
                    0.4620261490345001,
                    1.7240673303604126,
                    1.2125627994537354,
                    0.7432325482368469,
                    0.6036986112594604,
                    0.7840678095817566,
                    0.508800208568573,
                    -0.3964084982872009,
                    0.7201772928237915,
                    0.276734322309494,
                    -1.9511364698410034,
                    0.43537527322769165,
                    0.050849150866270065,
                    0.17740273475646973,
                    0.4959639012813568,
                    -1.0690066814422607,
                    -0.462055504322052,
                    0.3105969727039337,
                    -0.28248870372772217,
                    1.5414292812347412,
                    0.4390358030796051,
                    0.9117031097412109,
                    0.3305887281894684,
                    0.5550174117088318,
                    0.16375049948692322,
                    0.38677576184272766,
                    0.852634608745575,
                    0.17780359089374542,
                    0.3229038119316101,
                    0.5714209079742432,
                    0.6611629128456116,
                    0.1827412247657776,
                    0.3089609146118164,
                    -0.3696111738681793,
                    -1.3241630792617798,
                    1.67124342918396,
                    0.22034218907356262,
                    -0.10069327056407928,
                    0.3638938367366791,
                    0.009248070418834686,
                    0.01346161961555481,
                    -0.10294989496469498,
                    -0.761096715927124,
                    -1.0794326066970825,
                    -0.8711291551589966,
                    -1.129894495010376,
                    -0.7102755308151245,
                    -1.1613335609436035,
                    0.8312913179397583,
                    0.49319708347320557,
                    -1.6327505111694336,
                    -0.09863957017660141,
                    0.8112762570381165,
                    0.1809310019016266,
                    -0.4446564316749573,
                    0.7911843061447144,
                    0.5597570538520813,
                    -0.429275780916214,
                    -1.36879563331604,
                    -0.9189788699150085,
                    -0.8950556516647339,
                    -0.6283856630325317,
                    -1.3867740631103516,
                    1.3401840925216675,
                    0.8213654160499573,
                    0.6357868909835815,
                    0.32715123891830444,
                    -1.1188569068908691,
                    -0.2116067260503769,
                    1.0132359266281128,
                    -0.10025129467248917,
                    -1.3936325311660767,
                    -0.5464310646057129,
                    -0.8337820768356323,
                    -0.4745523929595947,
                    -1.2491315603256226,
                    0.12771522998809814,
                    -0.5402066707611084,
                    0.18568602204322815,
                    -0.2620980441570282,
                    -0.0575563870370388,
                    -0.9953768253326416,
                    -0.49028393626213074,
                    -0.3649680018424988,
                    0.43134909868240356,
                    0.048364415764808655,
                    0.15690764784812927,
                    -0.7133968472480774,
                    1.1296706199645996,
                    -0.2877933084964752,
                    0.3009321093559265,
                    -0.11703251302242279,
                    -0.042913760989904404,
                    -1.1397411823272705,
                    0.5796912908554077,
                    -0.819572925567627,
                    -0.27169013023376465,
                    -0.816907525062561,
                    0.5377944111824036,
                    -0.6156026721000671,
                    0.33469724655151367,
                    -0.6339726448059082,
                    -0.3492588698863983,
                    -0.6016219854354858,
                    0.9533757567405701,
                    0.42528828978538513,
                    -0.6349390745162964,
                    -0.4520896077156067,
                    -0.8168337345123291,
                    0.25831061601638794,
                    -1.0887254476547241,
                    -0.18648619949817657,
                    0.9640730023384094,
                    0.07055716216564178,
                    -0.5398815870285034,
                    -0.3775474429130554,
                    -0.8618249297142029,
                    0.33453917503356934,
                    -0.828742504119873,
                    0.3622385859489441,
                    0.09992001950740814,
                    -0.1057078018784523,
                    -0.012890111654996872,
                    -0.06275103241205215,
                    1.0649675130844116,
                    -0.9820182919502258,
                    0.6169450283050537,
                    0.007092424668371677,
                    0.5719334483146667,
                    0.03348729386925697,
                    0.38178691267967224,
                    -0.9219257235527039,
                    -0.5887475609779358,
                    0.6513716578483582,
                    -0.6983221769332886,
                    -0.7790938019752502,
                    -0.06276141852140427,
                    -1.0010401010513306,
                    -1.290151834487915,
                    -0.8653198480606079,
                    -1.5764155387878418,
                    -0.26816803216934204,
                    0.2697572410106659,
                    -0.11436940729618073,
                    -0.7757936120033264,
                    0.2632848024368286,
                    0.9218658208847046,
                    0.22988879680633545,
                    0.3258044421672821,
                    0.7186976075172424,
                    0.679034948348999,
                    -0.6833694577217102,
                    -0.49782639741897583,
                    -0.5231110453605652,
                    -0.21788789331912994,
                    1.462967872619629,
                    0.34942954778671265,
                    -0.46231576800346375,
                    -1.081950306892395,
                    0.8773379325866699,
                    0.605905294418335,
                    0.6732746958732605,
                    -0.695945143699646,
                    0.21425631642341614,
                    -0.5910894870758057,
                    -0.7615528106689453,
                    -0.4197618067264557,
                    -0.18697582185268402,
                    -0.41072598099708557,
                    -0.09131306409835815,
                    -0.2596541941165924,
                    1.1004407405853271,
                    -0.10087022185325623,
                    -0.8730030059814453,
                    -0.20056232810020447,
                    -0.4026520252227783,
                    0.19884657859802246,
                    0.19093412160873413,
                    -0.6565139889717102,
                    -0.8682259321212769,
                    -0.8886725306510925,
                    0.45061537623405457,
                    0.7084652185440063,
                    -0.5621045827865601,
                    0.3138865828514099,
                    -0.6925745606422424,
                    0.388863742351532,
                    0.4538325071334839,
                    0.2764747440814972,
                    -0.47028398513793945,
                    0.1416141390800476,
                    -0.5554345846176147,
                    -0.43243810534477234,
                    -0.8131126165390015,
                    -0.9598078727722168,
                    0.04900289699435234,
                    -0.5346260070800781,
                    0.21592365205287933,
                    -1.0086004734039307,
                    -0.2336374968290329,
                    -0.7855547070503235,
                    0.30344271659851074,
                    0.15832775831222534,
                    0.10207891464233398,
                    0.6401957869529724,
                    0.5812376737594604,
                    -0.46103402972221375,
                    -0.543052613735199,
                    -0.4174383282661438,
                    -0.1302584707736969,
                    0.44805192947387695
                ],
                [
                    0.9918971657752991,
                    -0.07441464066505432,
                    -0.02233956940472126,
                    0.3027147650718689,
                    -0.941513180732727,
                    0.7126649022102356,
                    -1.086710810661316,
                    0.0943879634141922,
                    -0.3336711823940277,
                    -0.20268648862838745,
                    -0.07137070596218109,
                    -0.35804134607315063,
                    0.15667109191417694,
                    -0.5960819125175476,
                    0.27658548951148987,
                    -0.7272945642471313,
                    -0.6744805574417114,
                    -0.2907858192920685,
                    1.6563804149627686,
                    0.5083187222480774,
                    0.026819569990038872,
                    -1.2358243465423584,
                    -0.33167555928230286,
                    -0.5000816583633423,
                    -1.092041015625,
                    0.8994664549827576,
                    0.9194650650024414,
                    -0.6231975555419922,
                    1.0079903602600098,
                    -0.23399002850055695,
                    0.8502799868583679,
                    1.1562358140945435,
                    -1.0364712476730347,
                    0.03963792324066162,
                    0.34674885869026184,
                    -0.20842373371124268,
                    1.4737138748168945,
                    -0.29716458916664124,
                    0.12813006341457367,
                    0.29514604806900024,
                    0.0009485947666689754,
                    0.5737499594688416,
                    -1.1950966119766235,
                    0.08905697613954544,
                    -0.22731468081474304,
                    -0.6503381729125977,
                    -0.9528443813323975,
                    0.6641594171524048,
                    0.4881850481033325,
                    -0.32503223419189453,
                    0.7367066740989685,
                    0.08086306601762772,
                    0.2557355761528015,
                    1.6949057579040527,
                    -0.0750674456357956,
                    -0.36275169253349304,
                    0.5141023993492126,
                    0.9963775873184204,
                    1.7432610988616943,
                    -0.011148623190820217,
                    1.012304425239563,
                    -0.6437839865684509,
                    -0.4002470374107361,
                    0.5266163349151611,
                    -0.5615997314453125,
                    -0.4968929886817932,
                    0.5091915726661682,
                    -0.15374429523944855,
                    -0.2237023562192917,
                    0.005438325926661491,
                    -0.6877741813659668,
                    0.8769127130508423,
                    -0.49375173449516296,
                    0.6129282712936401,
                    -0.6789570450782776,
                    1.5093107223510742,
                    -0.48064517974853516,
                    0.07125911861658096,
                    0.03162394091486931,
                    -0.45107144117355347,
                    0.3886120021343231,
                    -0.35463565587997437,
                    0.5738194584846497,
                    -0.21949085593223572,
                    -0.24160820245742798,
                    -0.1664210855960846,
                    0.2820357084274292,
                    -0.8249754309654236,
                    -0.8207995891571045,
                    -0.9838829636573792,
                    -0.2322719842195511,
                    -0.04969484731554985,
                    0.9972630739212036,
                    0.8110771179199219,
                    -0.4994552433490753,
                    -0.08838462829589844,
                    0.7921759486198425,
                    0.07991575449705124,
                    -1.3984410762786865,
                    0.5515451431274414,
                    0.4498240351676941,
                    0.22252729535102844,
                    0.20128625631332397,
                    -0.3911031186580658,
                    0.5190218091011047,
                    1.0246459245681763,
                    0.1779574304819107,
                    -1.5241795778274536,
                    0.1660563051700592,
                    -0.15410567820072174,
                    -0.6334429979324341,
                    -0.23321804404258728,
                    0.6253159046173096,
                    -0.3877590298652649,
                    -0.16659066081047058,
                    0.24466031789779663,
                    -1.7183611392974854,
                    0.32999569177627563,
                    0.3159851133823395,
                    -0.4475981891155243,
                    -0.2900905907154083,
                    1.0896049737930298,
                    0.8787441849708557,
                    -0.02908855862915516,
                    0.8535251617431641,
                    0.7095920443534851,
                    0.19747507572174072,
                    -1.5572205781936646,
                    0.754240095615387,
                    -0.21326252818107605,
                    -0.40859946608543396,
                    0.4528729021549225,
                    -0.7429518699645996,
                    -0.3179279565811157,
                    -1.1977505683898926,
                    0.693482518196106,
                    -1.2675589323043823,
                    0.24505531787872314,
                    -0.025218361988663673,
                    0.8752982020378113,
                    0.37146666646003723,
                    -0.1474568396806717,
                    0.9342929720878601,
                    2.06195068359375,
                    -0.27894315123558044,
                    1.2330527305603027,
                    0.255481481552124,
                    0.9170531034469604,
                    0.4179251492023468,
                    0.48818254470825195,
                    1.3583769798278809,
                    0.2977552115917206,
                    1.2645394802093506,
                    1.0016525983810425,
                    0.5379048585891724,
                    0.5196959972381592,
                    -0.3513818085193634,
                    -0.49550116062164307,
                    -0.7095136642456055,
                    -0.7806731462478638,
                    0.0564543791115284,
                    0.20578022301197052,
                    0.72725909948349,
                    0.36379319429397583,
                    -0.14475300908088684,
                    0.7961984872817993,
                    -0.5269910097122192,
                    -0.06202082708477974,
                    0.017000678926706314,
                    0.9704161882400513,
                    2.3117480278015137,
                    0.25921452045440674,
                    -0.6409093737602234,
                    0.4350128769874573,
                    -0.7927712202072144,
                    0.29817715287208557,
                    -0.25177136063575745,
                    0.4115086495876312,
                    0.10788725316524506,
                    -1.1987227201461792,
                    1.5424782037734985,
                    1.3231717348098755,
                    1.121370553970337,
                    1.3853110074996948,
                    -0.31916743516921997,
                    0.9563473463058472,
                    1.2781089544296265,
                    0.8872649073600769,
                    0.12020856142044067,
                    1.222969889640808,
                    -0.580313503742218,
                    0.4978261888027191,
                    -0.3141007125377655,
                    0.823376476764679,
                    -0.5790283679962158,
                    -0.2640129327774048,
                    -0.95394366979599,
                    -0.7118435502052307,
                    -0.26360079646110535,
                    0.49638810753822327,
                    -0.1495073437690735,
                    -0.22040364146232605,
                    0.4585821330547333,
                    -0.02979891560971737,
                    0.3749447464942932,
                    0.3023786246776581,
                    -0.04599347338080406,
                    0.975624680519104,
                    0.6579659581184387,
                    1.2564524412155151,
                    1.296309232711792,
                    0.6447385549545288,
                    0.2990659475326538,
                    0.6922732591629028,
                    -0.17831557989120483,
                    0.41889771819114685,
                    -0.1923452466726303,
                    1.4881399869918823,
                    0.08453629910945892,
                    -0.19888147711753845,
                    -1.4438977241516113,
                    0.6898177862167358,
                    0.41186606884002686,
                    -0.03320169448852539,
                    0.11154160648584366,
                    0.657498836517334,
                    -0.04917782172560692,
                    0.9615603685379028,
                    0.39698103070259094,
                    -0.45976531505584717,
                    0.8342099189758301,
                    -0.44431954622268677,
                    1.072940468788147,
                    -0.009409555234014988,
                    0.501531183719635,
                    -0.28302404284477234,
                    1.6357872486114502,
                    0.36992910504341125,
                    1.1579684019088745,
                    0.19559185206890106,
                    1.6627075672149658,
                    0.08323293179273605,
                    1.3788373470306396,
                    2.065596103668213,
                    0.04758721590042114,
                    0.5687505602836609,
                    1.3274273872375488,
                    0.6929063200950623,
                    -0.03000236116349697,
                    -0.9296480417251587,
                    0.0366196446120739,
                    -0.45294010639190674,
                    0.17852653563022614,
                    0.2184067815542221,
                    -0.39733776450157166,
                    -0.11383695155382156,
                    0.8779163360595703,
                    0.5376746654510498,
                    1.2152398824691772,
                    -1.1335184574127197,
                    0.2971160411834717,
                    0.4239984452724457,
                    0.9590145945549011,
                    -0.2092086523771286,
                    0.016868818551301956,
                    1.1917487382888794,
                    -0.7207463979721069,
                    -0.31505492329597473,
                    0.7003405690193176,
                    0.8982306122779846,
                    0.6542104482650757,
                    2.2152481079101562,
                    0.5409653782844543,
                    -0.22571516036987305,
                    -0.21708077192306519,
                    0.5317695140838623,
                    0.5049046277999878,
                    1.1492578983306885,
                    -0.8100290894508362,
                    0.2626171112060547,
                    1.5783355236053467,
                    -0.03345054015517235,
                    0.8078485727310181,
                    1.4781215190887451,
                    -0.9750127792358398,
                    1.1665235757827759,
                    0.953996479511261,
                    0.8394929766654968,
                    0.7354843020439148,
                    -0.005014448426663876,
                    -0.34361886978149414,
                    -0.5432653427124023,
                    0.4766646921634674,
                    0.9268763661384583,
                    0.8993822336196899,
                    0.5666750073432922,
                    0.6066875457763672,
                    0.17119014263153076,
                    1.2619508504867554,
                    0.4375505745410919,
                    0.5445051193237305,
                    0.7636339664459229,
                    0.9841551780700684,
                    -0.373733252286911,
                    -0.31797510385513306,
                    0.8655506372451782,
                    -0.10171295702457428,
                    -0.8967557549476624,
                    0.3240535855293274,
                    -0.5233993530273438,
                    -0.20502911508083344,
                    0.17396464943885803,
                    -0.16469281911849976,
                    -0.5295734405517578,
                    -0.33078432083129883,
                    -0.31546512246131897,
                    -0.9251435399055481,
                    0.7418873906135559,
                    -1.0347422361373901,
                    0.3772469758987427,
                    -0.4740658402442932,
                    1.0605411529541016,
                    1.6917845010757446,
                    0.9825965166091919,
                    0.9768701195716858,
                    -0.5571035742759705,
                    0.6248062252998352,
                    0.21830224990844727,
                    0.2887396514415741,
                    0.5547523498535156,
                    0.9102833271026611,
                    -0.5022664666175842,
                    -0.6236559748649597,
                    0.24449867010116577,
                    0.4696500897407532,
                    -0.44636666774749756,
                    0.8403113484382629,
                    -0.15805326402187347,
                    0.14053575694561005,
                    -0.6624183058738708,
                    0.06302672624588013,
                    0.41483354568481445,
                    0.04153626412153244,
                    -0.49091506004333496,
                    0.27514222264289856,
                    -0.12736870348453522,
                    -0.39198487997055054,
                    -0.942749559879303,
                    -1.2269688844680786,
                    -0.40439727902412415,
                    1.2352014780044556,
                    0.43462517857551575,
                    1.0116260051727295,
                    -0.08545705676078796,
                    0.6155163049697876,
                    -0.10269588977098465,
                    -0.03033175691962242,
                    0.733167290687561,
                    0.3072356879711151,
                    -0.36609143018722534,
                    1.3413337469100952,
                    0.17734475433826447,
                    -0.06910175830125809,
                    0.6512908935546875,
                    0.39751195907592773,
                    0.3730175495147705,
                    -1.5999757051467896,
                    -0.37537533044815063,
                    -0.11904185265302658,
                    -0.09849274903535843,
                    -0.3496001362800598,
                    0.12126720696687698,
                    -0.6053175330162048,
                    -0.5285964012145996,
                    1.5914630889892578,
                    -0.011135473847389221,
                    -0.8547428250312805,
                    0.7095419764518738,
                    0.8356467485427856,
                    0.4976178705692291,
                    -0.279869943857193,
                    0.19058234989643097,
                    0.1877513825893402,
                    -0.21152201294898987,
                    0.773717999458313,
                    0.4158438742160797,
                    -0.5555349588394165,
                    -0.3728192448616028,
                    0.3123127222061157,
                    0.5231319665908813,
                    0.27394169569015503,
                    0.9898467063903809,
                    -0.15429000556468964,
                    -0.4573023319244385,
                    0.1455322951078415,
                    -0.3657718598842621,
                    -0.09909079223871231,
                    -1.1898858547210693,
                    0.3657051920890808,
                    -0.45857349038124084,
                    -1.3669195175170898,
                    0.4932321310043335,
                    -1.003110408782959,
                    -1.046964406967163,
                    0.12614966928958893,
                    1.2679269313812256,
                    1.1188509464263916,
                    2.2337474822998047,
                    -0.38774117827415466,
                    -0.1351304054260254,
                    0.3880064785480499,
                    -1.1321941614151,
                    -0.767216145992279,
                    -0.5741862058639526,
                    -0.6812456846237183,
                    -0.5857726335525513,
                    0.49573227763175964,
                    0.9587214589118958,
                    1.2209810018539429,
                    -0.30090126395225525,
                    0.5675582885742188,
                    -0.9439666867256165,
                    -1.2779160737991333,
                    0.9044654965400696,
                    0.052053023129701614,
                    -0.1653575301170349,
                    -0.728934109210968,
                    -1.683464765548706,
                    -1.1484336853027344,
                    -0.47794458270072937,
                    -0.4435708820819855,
                    -0.5985629558563232,
                    0.1264074295759201,
                    1.295470118522644,
                    0.018613407388329506,
                    -1.2135155200958252,
                    0.6507397890090942,
                    0.3851012587547302,
                    -0.03077937290072441,
                    1.3454532623291016,
                    0.9015657901763916,
                    -0.40111836791038513,
                    -1.129730463027954,
                    -0.9185978174209595,
                    0.23952913284301758,
                    -0.04961783066391945,
                    0.18566901981830597,
                    0.7091262340545654,
                    0.20795589685440063,
                    -0.38764694333076477,
                    0.21567361056804657,
                    0.4940829575061798,
                    0.6809080839157104,
                    -0.5780941247940063,
                    -0.7624185681343079,
                    0.18516001105308533,
                    -0.2969158887863159,
                    -0.015064154751598835,
                    -0.25255581736564636,
                    -0.907649576663971,
                    0.8431529402732849,
                    1.1800681352615356,
                    0.6193954944610596,
                    -0.33200374245643616,
                    -0.6401492357254028,
                    -0.19408167898654938,
                    0.8932980298995972,
                    -1.0379587411880493,
                    0.12009011954069138,
                    -0.45448634028434753,
                    -1.3451316356658936,
                    -0.4359112083911896,
                    -0.28581929206848145,
                    0.03020213544368744,
                    1.2688387632369995,
                    0.7313617467880249,
                    -0.996268630027771,
                    1.0006197690963745,
                    -0.952606201171875,
                    -0.002351233968511224,
                    0.628559947013855,
                    -0.5275945663452148,
                    -0.2094630002975464,
                    -0.4028643071651459,
                    0.44191405177116394,
                    0.7252982258796692,
                    -1.3754061460494995,
                    -1.0444867610931396,
                    0.1211676150560379,
                    -1.0362197160720825,
                    -0.8613042831420898,
                    0.8545133471488953,
                    0.003312263172119856,
                    -0.14629116654396057,
                    0.1543741077184677,
                    0.518191397190094,
                    -0.45872044563293457,
                    1.018652081489563,
                    0.375567764043808,
                    0.1390589475631714,
                    -0.06334096193313599,
                    0.5782192945480347,
                    1.1197994947433472,
                    -0.08078894764184952,
                    -1.0540724992752075,
                    0.04423150420188904,
                    -1.123809814453125,
                    0.2168298065662384,
                    0.17430567741394043,
                    -0.2646487057209015,
                    0.01904367096722126,
                    -0.7389222979545593,
                    -0.8076869249343872,
                    -0.9343133568763733,
                    -1.179430365562439,
                    0.004037805367261171,
                    -0.26678895950317383,
                    0.5405739545822144,
                    1.3902533054351807,
                    0.21242795884609222,
                    0.6312023997306824,
                    -0.3437356650829315,
                    -0.9567803740501404,
                    -0.5146111845970154,
                    -0.890312910079956,
                    -0.8910818099975586,
                    -0.5712253451347351,
                    0.9782655835151672,
                    0.13234080374240875,
                    -0.6740248799324036,
                    -1.3716000318527222,
                    0.5550536513328552,
                    -0.5038977265357971,
                    0.4605403542518616,
                    0.03441622108221054,
                    0.9190032482147217,
                    0.7486271262168884,
                    -0.15005308389663696,
                    1.3394150733947754,
                    0.5907686352729797,
                    0.44119271636009216,
                    -0.7568402290344238,
                    0.583400547504425,
                    -0.3157528340816498,
                    -0.6954421401023865,
                    -1.4906896352767944,
                    -0.3501395881175995,
                    -0.43897294998168945,
                    -0.4167912006378174,
                    -0.882103681564331,
                    0.9433203339576721,
                    0.8261335492134094,
                    -0.5776208639144897,
                    0.10315275192260742,
                    0.15879309177398682,
                    0.4433189630508423,
                    -0.4882492423057556,
                    0.6093069911003113,
                    0.08623635768890381,
                    1.1385053396224976,
                    0.07544239610433578,
                    -0.9708365201950073,
                    0.2271074652671814,
                    0.6118717789649963,
                    1.0447105169296265,
                    0.5248934626579285,
                    0.45387935638427734,
                    1.8181712627410889,
                    0.4149205684661865,
                    0.8256632089614868,
                    0.24730198085308075,
                    0.3512229323387146,
                    -1.1392130851745605,
                    0.5009152293205261,
                    0.2649124562740326,
                    0.4047911465167999,
                    0.7610016465187073,
                    -0.16967588663101196,
                    -0.03885000944137573,
                    0.9165825247764587,
                    0.7968763709068298,
                    1.0081994533538818,
                    0.4207175076007843,
                    0.15029175579547882,
                    -0.270235151052475,
                    -0.1229027807712555,
                    -0.870603621006012,
                    -1.1083753108978271,
                    -0.6697384715080261,
                    1.1897157430648804,
                    -0.49734750390052795,
                    0.2226482480764389,
                    0.15491916239261627,
                    -0.2731531262397766,
                    0.8169829845428467,
                    0.9095603823661804,
                    1.1612666845321655,
                    -0.1605365127325058,
                    -0.8514018058776855,
                    -1.0039173364639282,
                    -0.5882325172424316,
                    -0.21809139847755432,
                    -1.5678203105926514,
                    -0.4486538767814636,
                    -0.6147011518478394,
                    0.20232298970222473,
                    -0.7557117938995361,
                    0.8496066927909851,
                    -0.37313857674598694,
                    -1.1313426494598389,
                    -1.1923041343688965,
                    0.7378074526786804,
                    1.017638087272644,
                    -0.20493711531162262,
                    0.7131567597389221,
                    1.6963573694229126,
                    -0.23441754281520844,
                    -0.8015812039375305,
                    -1.4200643301010132,
                    1.4474257230758667,
                    0.3441755771636963,
                    0.5851372480392456,
                    -0.07759486883878708,
                    0.723761796951294,
                    1.4488341808319092,
                    -0.6447411775588989,
                    0.7004514336585999,
                    0.649065375328064,
                    1.3749256134033203,
                    0.17771463096141815,
                    0.7732259035110474,
                    0.16152779757976532,
                    0.09645743668079376,
                    -0.5076038837432861,
                    -0.6881381869316101,
                    0.25967907905578613,
                    -0.13347040116786957,
                    -0.23325400054454803,
                    1.2679909467697144,
                    -1.6537823677062988,
                    -0.06184883043169975,
                    0.9338418841362,
                    -0.0231827050447464,
                    -0.21276603639125824,
                    0.9923877120018005,
                    0.4111635088920593,
                    0.0431155189871788,
                    0.18232794106006622,
                    0.01473739743232727,
                    1.0164145231246948,
                    2.2150843143463135,
                    -0.0264313742518425,
                    0.8502842783927917,
                    0.7322570085525513,
                    -0.2882992625236511,
                    0.7744709849357605,
                    -0.15447986125946045,
                    -1.2903110980987549,
                    0.7322975993156433,
                    -0.6698726415634155,
                    1.3313523530960083,
                    0.9159055352210999,
                    0.0767790898680687,
                    0.638967752456665,
                    0.14436832070350647,
                    -0.8508607149124146,
                    -0.42638924717903137,
                    0.42835357785224915,
                    -0.5266966819763184,
                    0.10734441876411438,
                    -0.260163277387619,
                    -0.07287847995758057,
                    -0.48524969816207886,
                    1.310160517692566,
                    0.511971652507782,
                    0.6734635829925537,
                    -0.41432347893714905,
                    -0.7233836650848389,
                    -0.6392704248428345,
                    0.4995253086090088,
                    0.20710016787052155,
                    -0.6900415420532227,
                    -0.9530086517333984,
                    0.5840760469436646,
                    1.0290721654891968,
                    0.9901123046875,
                    1.3546464443206787,
                    -0.03744395449757576,
                    0.10506660491228104,
                    0.25958606600761414,
                    -0.5366083383560181,
                    0.6946696639060974,
                    -0.25979065895080566,
                    1.1498006582260132,
                    -1.1482435464859009,
                    -0.7261173129081726,
                    -1.3483128547668457,
                    -0.0327361635863781,
                    0.6415606737136841,
                    -0.8517131805419922,
                    0.9206765294075012,
                    -0.5677531361579895,
                    0.19071948528289795,
                    1.060745120048523,
                    1.0746276378631592,
                    0.20816507935523987,
                    0.3067263066768646,
                    0.6092627048492432,
                    0.566597044467926,
                    1.2687536478042603,
                    1.2077040672302246,
                    0.3327711820602417,
                    -0.14798009395599365,
                    -0.17544139921665192,
                    0.30784833431243896,
                    0.8312098383903503,
                    0.7220827341079712,
                    0.5126593708992004,
                    0.44750159978866577,
                    0.08816573768854141,
                    -0.09536801278591156,
                    -0.840330183506012,
                    -0.25152257084846497,
                    -0.20541170239448547,
                    -0.8876937627792358,
                    -1.222558856010437,
                    -0.7113502025604248,
                    -0.2231607735157013,
                    0.33329060673713684,
                    -0.9170550107955933,
                    -1.1246408224105835,
                    0.67177414894104,
                    0.5010669827461243,
                    -0.7535330653190613,
                    0.43924152851104736,
                    0.6683892011642456,
                    -0.17990712821483612,
                    0.16497290134429932,
                    0.055482905358076096,
                    -0.16119620203971863,
                    0.623153030872345,
                    0.44549137353897095,
                    -0.15090756118297577,
                    0.683905839920044,
                    0.9395149946212769,
                    -0.004266221076250076,
                    0.6929459571838379,
                    -1.3591119050979614,
                    0.4994411766529083,
                    1.296707272529602,
                    -0.36635592579841614,
                    0.04046609252691269,
                    0.8766274452209473,
                    -1.7023955583572388,
                    -0.8801888227462769,
                    -0.4358799457550049,
                    -0.6007735133171082,
                    -0.39885738492012024,
                    0.41788965463638306,
                    0.629810094833374,
                    -0.0928904265165329,
                    0.5107719898223877,
                    -0.6043655872344971,
                    -0.46052777767181396,
                    0.3895193934440613,
                    0.2515498399734497,
                    0.345528244972229,
                    -1.0191000699996948,
                    0.2687201499938965,
                    0.3224554657936096,
                    0.36655303835868835,
                    -0.3899247944355011,
                    -0.643714964389801,
                    0.626870334148407,
                    1.0299793481826782,
                    -0.2671687602996826,
                    0.7055705189704895,
                    1.0241613388061523,
                    -1.3303065299987793,
                    -0.5148614645004272,
                    0.08730427175760269,
                    -1.57156240940094,
                    0.18356826901435852,
                    -0.597489058971405
                ],
                [
                    1.49129319190979,
                    -0.7497797608375549,
                    1.5411219596862793,
                    -0.41227370500564575,
                    -1.6007510423660278,
                    -0.8876134753227234,
                    -0.726230263710022,
                    -1.0824702978134155,
                    0.07251669466495514,
                    1.6348029375076294,
                    0.040780942887067795,
                    -0.5735745429992676,
                    -0.7840756773948669,
                    -0.5803869962692261,
                    0.39033713936805725,
                    -1.0210137367248535,
                    -1.7382911443710327,
                    -1.5464301109313965,
                    1.0894801616668701,
                    1.2152749300003052,
                    0.8061855435371399,
                    0.3499792814254761,
                    1.1066867113113403,
                    0.8529167771339417,
                    0.5475263595581055,
                    0.3309771716594696,
                    -0.11515472829341888,
                    0.3538818359375,
                    -0.3146098554134369,
                    -0.5065706968307495,
                    0.24009111523628235,
                    0.6356520652770996,
                    0.9217969179153442,
                    -0.3919121325016022,
                    0.04976906627416611,
                    -0.023199444636702538,
                    -0.3456752598285675,
                    -1.5116450786590576,
                    -0.40431156754493713,
                    -0.3131926357746124,
                    -0.8349788188934326,
                    -0.8113113045692444,
                    0.3301793336868286,
                    0.011753624305129051,
                    0.5425558686256409,
                    -0.31495124101638794,
                    -1.4153056144714355,
                    0.10691288858652115,
                    0.6664741635322571,
                    1.0548776388168335,
                    -0.2555941939353943,
                    -0.10481318831443787,
                    0.11594069749116898,
                    0.10959366708993912,
                    0.3010317385196686,
                    1.1765388250350952,
                    -0.06369038671255112,
                    -0.6733080148696899,
                    -0.850351870059967,
                    0.22996744513511658,
                    0.9422842860221863,
                    -0.43573346734046936,
                    -0.8748777508735657,
                    0.9957178831100464,
                    -0.6901902556419373,
                    -0.06287866085767746,
                    -1.1089093685150146,
                    -0.3194947838783264,
                    -0.008810997009277344,
                    -0.20045794546604156,
                    -0.7529072165489197,
                    0.5435594320297241,
                    0.21321241557598114,
                    -0.36988481879234314,
                    -0.13522325456142426,
                    0.4979361295700073,
                    -0.598588228225708,
                    0.6671002507209778,
                    0.7787036299705505,
                    0.6775808930397034,
                    0.35190603137016296,
                    -0.7578907012939453,
                    -0.5506070852279663,
                    -1.2094922065734863,
                    0.08790253847837448,
                    0.43798208236694336,
                    -0.8238927125930786,
                    -0.06448553502559662,
                    0.15513749420642853,
                    1.2756187915802002,
                    -0.6467078328132629,
                    -0.028827600181102753,
                    0.5971460938453674,
                    -0.33923736214637756,
                    -0.021899204701185226,
                    -0.5732203125953674,
                    0.8618178367614746,
                    0.4111402630805969,
                    -0.32044655084609985,
                    -0.9317981004714966,
                    0.1472426801919937,
                    0.4239257276058197,
                    -0.6381825804710388,
                    1.2978434562683105,
                    0.17989811301231384,
                    0.18812339007854462,
                    0.17585092782974243,
                    0.31049519777297974,
                    -0.18128648400306702,
                    0.27298814058303833,
                    -0.29222461581230164,
                    -0.7257965803146362,
                    -0.4171953797340393,
                    -0.18269774317741394,
                    0.6573886871337891,
                    0.7922763824462891,
                    0.21341760456562042,
                    -1.3207956552505493,
                    -1.484728455543518,
                    -1.1833444833755493,
                    0.6261332035064697,
                    -0.27762874960899353,
                    0.5214126110076904,
                    0.1016848087310791,
                    -1.8075276613235474,
                    1.146984338760376,
                    -0.11396899074316025,
                    0.4226822853088379,
                    0.7859863638877869,
                    0.11691224575042725,
                    0.6564584970474243,
                    0.051384083926677704,
                    -0.16302983462810516,
                    0.138872429728508,
                    1.923258900642395,
                    -1.4845340251922607,
                    1.1566165685653687,
                    -1.5510915517807007,
                    0.2715859115123749,
                    -0.23461933434009552,
                    1.166148066520691,
                    -0.1752488911151886,
                    -1.2987079620361328,
                    0.18866871297359467,
                    0.25996190309524536,
                    -0.7234735488891602,
                    0.028163785114884377,
                    -1.523023009300232,
                    0.34172606468200684,
                    -0.0912918820977211,
                    -0.49766355752944946,
                    1.511207938194275,
                    0.28982704877853394,
                    -0.6296091079711914,
                    0.3445538282394409,
                    -0.6496297717094421,
                    -0.3691313862800598,
                    0.49858319759368896,
                    -0.9950738549232483,
                    0.01095897238701582,
                    -0.4515048563480377,
                    -0.8966534733772278,
                    -0.6148778796195984,
                    0.04235018417239189,
                    -0.43897515535354614,
                    0.6359860897064209,
                    -1.1212801933288574,
                    -0.13289757072925568,
                    0.9333937764167786,
                    -0.020015543326735497,
                    1.1661487817764282,
                    1.4172873497009277,
                    -0.11631390452384949,
                    1.0809811353683472,
                    -0.30251365900039673,
                    0.49483922123908997,
                    -1.3943215608596802,
                    0.7216765284538269,
                    0.16800160706043243,
                    0.6116997003555298,
                    -0.28681713342666626,
                    -0.04570582136511803,
                    0.2909599840641022,
                    -0.08971280604600906,
                    -0.004626077599823475,
                    1.6213438510894775,
                    -0.6352243423461914,
                    -1.025503396987915,
                    -0.01373285986483097,
                    0.7384058833122253,
                    -1.0523804426193237,
                    -0.12213950604200363,
                    1.0196222066879272,
                    -1.2005081176757812,
                    -0.4106437861919403,
                    -0.30206298828125,
                    0.18712109327316284,
                    -0.7848160862922668,
                    0.24388103187084198,
                    -1.1621294021606445,
                    -0.6483218669891357,
                    -0.046599797904491425,
                    0.026765991002321243,
                    -0.46804457902908325,
                    0.10427933931350708,
                    -0.07965824007987976,
                    0.4011073410511017,
                    -0.6351078748703003,
                    -0.9871873259544373,
                    0.6687653064727783,
                    -0.13369126617908478,
                    0.13963636755943298,
                    0.20209863781929016,
                    0.4150681495666504,
                    0.1488790363073349,
                    2.2131595611572266,
                    -0.4210761785507202,
                    -1.918656826019287,
                    1.3666048049926758,
                    0.7765954732894897,
                    -0.2983590066432953,
                    1.5381453037261963,
                    -1.1922519207000732,
                    -0.6254052519798279,
                    -0.7179737687110901,
                    0.25620824098587036,
                    -0.600422203540802,
                    -0.16955474019050598,
                    -1.3298176527023315,
                    1.0114784240722656,
                    -0.4704302251338959,
                    -0.5053359270095825,
                    0.5146469473838806,
                    0.5862303376197815,
                    0.16254191100597382,
                    0.5939111709594727,
                    0.5489528179168701,
                    1.0512725114822388,
                    -1.0680921077728271,
                    -0.7781097292900085,
                    1.4231524467468262,
                    0.29076212644577026,
                    0.38933265209198,
                    0.4325312077999115,
                    0.1629771739244461,
                    0.5053316354751587,
                    0.6297263503074646,
                    -0.9355307817459106,
                    -0.46868619322776794,
                    0.2494533360004425,
                    -0.4373176097869873,
                    -0.07020638883113861,
                    -0.5337691307067871,
                    0.8983410000801086,
                    0.0673762634396553,
                    -0.290754497051239,
                    -0.33716797828674316,
                    0.9025137424468994,
                    0.5042945146560669,
                    -0.3200349509716034,
                    -0.22047309577465057,
                    0.7898094058036804,
                    0.39820995926856995,
                    -1.1057102680206299,
                    0.29607391357421875,
                    -0.06057291105389595,
                    -0.2845272421836853,
                    -0.22235096991062164,
                    -0.25008657574653625,
                    0.21779359877109528,
                    -0.2997240126132965,
                    1.1179364919662476,
                    0.7233759164810181,
                    -1.1674728393554688,
                    -2.6274685859680176,
                    0.7121238112449646,
                    0.8804768919944763,
                    0.004189700353890657,
                    -1.7224310636520386,
                    0.3924165666103363,
                    1.5215150117874146,
                    0.8859421014785767,
                    0.5807993412017822,
                    1.0424058437347412,
                    -1.0472360849380493,
                    -0.016173791140317917,
                    1.2545045614242554,
                    1.1446974277496338,
                    -0.8095818758010864,
                    0.8655983209609985,
                    -0.20795290172100067,
                    -0.2752116620540619,
                    1.4517192840576172,
                    1.1593420505523682,
                    -0.9071137309074402,
                    -0.5492998361587524,
                    -0.9817821383476257,
                    0.2953326106071472,
                    1.0665006637573242,
                    0.9301319122314453,
                    0.3461337089538574,
                    0.7235206961631775,
                    0.7847074866294861,
                    0.5735964775085449,
                    0.49803227186203003,
                    -0.675187349319458,
                    -0.630957305431366,
                    0.02775689773261547,
                    -0.3416825830936432,
                    -0.41263869404792786,
                    0.4400861859321594,
                    0.27715352177619934,
                    0.7080314755439758,
                    0.3634296953678131,
                    -0.33852675557136536,
                    1.3493170738220215,
                    -0.07142313569784164,
                    -0.27520400285720825,
                    0.2578117251396179,
                    0.5388427376747131,
                    0.6347856521606445,
                    0.8153771758079529,
                    0.19853276014328003,
                    -0.4094274938106537,
                    -0.12234262377023697,
                    1.2275408506393433,
                    0.3053356409072876,
                    0.013034787029027939,
                    -0.7101994156837463,
                    -0.3185390532016754,
                    -1.2879856824874878,
                    0.139057919383049,
                    0.25302398204803467,
                    -0.37882140278816223,
                    0.13046246767044067,
                    0.3456868529319763,
                    -0.8800503015518188,
                    -0.46498870849609375,
                    -0.057800646871328354,
                    -0.6491329073905945,
                    -0.00878099910914898,
                    -0.023319212719798088,
                    0.4773067831993103,
                    -1.5588427782058716,
                    -1.0193054676055908,
                    0.5735231041908264,
                    0.41591155529022217,
                    -0.48074328899383545,
                    -0.2949075698852539,
                    -0.3396448791027069,
                    0.6770615577697754,
                    0.32291409373283386,
                    0.6313488483428955,
                    -0.5639469027519226,
                    -0.08987901359796524,
                    0.5276551842689514,
                    -1.1461516618728638,
                    0.7934034466743469,
                    0.461994469165802,
                    1.1763923168182373,
                    -0.3561975359916687,
                    -0.4967706799507141,
                    1.3882217407226562,
                    -0.6284867525100708,
                    -0.44527772068977356,
                    0.6437695622444153,
                    0.5226736068725586,
                    1.4331666231155396,
                    -0.5855589509010315,
                    0.38943129777908325,
                    -0.3529016375541687,
                    1.1465977430343628,
                    0.5150717496871948,
                    0.04698051139712334,
                    -0.28005287051200867,
                    -0.27174872159957886,
                    -0.7411332130432129,
                    -0.40765538811683655,
                    0.11938347667455673,
                    -0.4350890517234802,
                    -0.23616528511047363,
                    -0.2972555160522461,
                    1.0245336294174194,
                    0.739139199256897,
                    -0.009616472758352757,
                    0.2563704252243042,
                    0.28818824887275696,
                    0.6445814967155457,
                    0.6007240414619446,
                    -0.7747800946235657,
                    -0.7526372671127319,
                    -1.060285210609436,
                    2.1580729484558105,
                    1.3604165315628052,
                    -2.3637635707855225,
                    1.0513627529144287,
                    0.36399045586586,
                    0.30899083614349365,
                    0.09065417945384979,
                    -0.6681922674179077,
                    -0.5160730481147766,
                    -0.8227132558822632,
                    -0.7701566219329834,
                    -0.34149906039237976,
                    -0.20887954533100128,
                    -1.095955491065979,
                    -0.057287055999040604,
                    0.2723129093647003,
                    -0.4316187798976898,
                    1.5493861436843872,
                    0.743188738822937,
                    -1.0300389528274536,
                    0.41973215341567993,
                    0.4536811411380768,
                    0.5652521848678589,
                    1.142541766166687,
                    0.7010688781738281,
                    -0.7871865034103394,
                    -0.6258901357650757,
                    0.7457892298698425,
                    0.6727533340454102,
                    0.9034191966056824,
                    0.9524989128112793,
                    0.33380788564682007,
                    0.9520406126976013,
                    0.046358779072761536,
                    0.04781460016965866,
                    -0.6716490983963013,
                    0.4632663428783417,
                    -0.5898035168647766,
                    -0.012675104662775993,
                    0.5850244164466858,
                    1.0418483018875122,
                    0.27226847410202026,
                    -0.7209744453430176,
                    -0.27022069692611694,
                    -0.5668905377388,
                    -0.43955913186073303,
                    -0.40106382966041565,
                    0.37684112787246704,
                    -0.857326328754425,
                    0.163825124502182,
                    -0.6359699368476868,
                    -0.00354854972101748,
                    1.577853798866272,
                    -1.0933420658111572,
                    0.9000795483589172,
                    -0.25580084323883057,
                    0.2604740262031555,
                    -0.48422226309776306,
                    0.13489796221256256,
                    0.8329616785049438,
                    0.6896253228187561,
                    0.4212723672389984,
                    -0.601347029209137,
                    0.3645404279232025,
                    1.1294254064559937,
                    0.16303472220897675,
                    1.0894463062286377,
                    -0.07149336487054825,
                    0.044719111174345016,
                    -0.8274901509284973,
                    0.10109163075685501,
                    1.4791229963302612,
                    -0.5584406852722168,
                    0.11006227135658264,
                    0.47146838903427124,
                    -0.7732943892478943,
                    0.34073033928871155,
                    0.8373210430145264,
                    1.121869683265686,
                    0.01764075458049774,
                    -0.10252638161182404,
                    -1.4169756174087524,
                    0.4619092345237732,
                    -1.152726411819458,
                    0.43784087896347046,
                    0.5339236855506897,
                    0.43061360716819763,
                    0.361641526222229,
                    -0.16163481771945953,
                    -0.02711448445916176,
                    0.7012405395507812,
                    0.49316295981407166,
                    0.4219990372657776,
                    1.497779130935669,
                    0.8388911485671997,
                    0.5826728940010071,
                    0.5891566872596741,
                    -0.9067354202270508,
                    -0.27702945470809937,
                    0.08784373849630356,
                    0.6274015307426453,
                    -1.0367692708969116,
                    0.18664687871932983,
                    -0.4460473954677582,
                    0.5846702456474304,
                    -0.15166325867176056,
                    0.1561288684606552,
                    -0.9269410371780396,
                    -0.3158789873123169,
                    -0.5634530186653137,
                    -0.16174234449863434,
                    -0.5306212902069092,
                    -1.0056381225585938,
                    0.5390342473983765,
                    -0.9510275721549988,
                    -0.4426615536212921,
                    -0.13261672854423523,
                    -0.018350157886743546,
                    -0.6495101451873779,
                    0.6831066608428955,
                    0.18018211424350739,
                    0.9465960264205933,
                    0.2738266587257385,
                    0.5037190318107605,
                    -0.5014169812202454,
                    0.2972050905227661,
                    0.4579944312572479,
                    -0.3896421194076538,
                    -0.39478668570518494,
                    -0.42947787046432495,
                    -0.6792715191841125,
                    -0.9497706890106201,
                    0.18907228112220764,
                    0.6595379710197449,
                    -0.3013729751110077,
                    0.3564545214176178,
                    -0.332353800535202,
                    -0.31946998834609985,
                    0.19964498281478882,
                    0.19670169055461884,
                    -0.3550446331501007,
                    0.5440521836280823,
                    0.45258721709251404,
                    -0.08323784172534943,
                    -0.13999278843402863,
                    0.4009910821914673,
                    -0.522098958492279,
                    0.028773877769708633,
                    0.08774503320455551,
                    -0.12057172507047653,
                    -0.26922622323036194,
                    1.272742509841919,
                    -0.04191174730658531,
                    0.8159777522087097,
                    -0.9675254821777344,
                    -0.5723697543144226,
                    0.9175901412963867,
                    0.538973331451416,
                    -0.43916645646095276,
                    0.013285637833178043,
                    -0.2938302159309387,
                    0.7003143429756165,
                    -0.47726741433143616,
                    -0.24492645263671875,
                    0.36235520243644714,
                    0.14761100709438324,
                    1.6323039531707764,
                    -0.6722034811973572,
                    -0.7024930119514465,
                    0.5633846521377563,
                    0.5583060383796692,
                    -0.29722023010253906,
                    1.0052934885025024,
                    -0.9194351434707642,
                    0.028004713356494904,
                    -0.21463258564472198,
                    -1.2015243768692017,
                    -0.029733913019299507,
                    1.1895231008529663,
                    -0.7343047261238098,
                    -0.22238872945308685,
                    1.1364065408706665,
                    0.3422930836677551,
                    -1.22625732421875,
                    0.1578090935945511,
                    0.8893576860427856,
                    -0.64591383934021,
                    -1.43729567527771,
                    0.9118514060974121,
                    -0.0699024572968483,
                    0.5941306352615356,
                    0.9955927133560181,
                    0.8469746708869934,
                    0.7205265164375305,
                    -0.6286150813102722,
                    -0.30326566100120544,
                    0.16025227308273315,
                    0.8461757898330688,
                    -0.6130300164222717,
                    0.20793485641479492,
                    0.1929207444190979,
                    -0.11100892722606659,
                    0.3806692361831665,
                    0.4543988108634949,
                    -0.18359608948230743,
                    -0.02758055366575718,
                    1.266906976699829,
                    1.6624122858047485,
                    0.39422744512557983,
                    -0.8664600849151611,
                    -1.0328609943389893,
                    0.417847603559494,
                    1.8828521966934204,
                    -1.225451111793518,
                    -0.42300471663475037,
                    1.1665239334106445,
                    0.16104058921337128,
                    -0.23024269938468933,
                    -1.0950627326965332,
                    -0.5970028638839722,
                    -0.05670500546693802,
                    -0.6703372597694397,
                    -0.30678215622901917,
                    0.16226911544799805,
                    1.2581474781036377,
                    -1.0837366580963135,
                    1.7111538648605347,
                    -0.3050711154937744,
                    -0.9522315263748169,
                    -0.4745909571647644,
                    0.756288468837738,
                    0.20985093712806702,
                    -0.1475791335105896,
                    0.9095430374145508,
                    0.886795163154602,
                    -0.2793327867984772,
                    0.08848919719457626,
                    0.47419649362564087,
                    -0.21020697057247162,
                    -0.5295646786689758,
                    0.10647398233413696,
                    -0.5847339630126953,
                    0.3575335741043091,
                    -0.43281957507133484,
                    0.8044251799583435,
                    0.38724178075790405,
                    0.04444924369454384,
                    -0.3601949214935303,
                    0.7724111676216125,
                    -1.0476876497268677,
                    -1.4359779357910156,
                    0.4059484899044037,
                    -1.2459520101547241,
                    -0.7488820552825928,
                    -0.49738186597824097,
                    0.08789665997028351,
                    1.261367917060852,
                    0.11802209168672562,
                    -0.6437339186668396,
                    -0.7798853516578674,
                    1.0031771659851074,
                    0.09998995810747147,
                    0.8049123883247375,
                    1.2260582447052002,
                    1.5262789726257324,
                    -1.476135015487671,
                    1.380354642868042,
                    0.3763652443885803,
                    -1.0952891111373901,
                    0.33044829964637756,
                    0.22583764791488647,
                    -1.275048017501831,
                    -0.3896852731704712,
                    0.747362494468689,
                    -0.7404671907424927,
                    -0.3334061801433563,
                    0.4353388547897339,
                    0.31390321254730225,
                    -0.3152883052825928,
                    0.014900770038366318,
                    -0.06787177920341492,
                    -0.5967418551445007,
                    0.5595567226409912,
                    -0.06851845234632492,
                    0.2546451687812805,
                    -0.8139111399650574,
                    0.21146896481513977,
                    -0.1792081594467163,
                    0.007911495864391327,
                    0.4338677227497101,
                    0.4169744551181793,
                    0.9443846940994263,
                    -0.027225708588957787,
                    0.7672563195228577,
                    1.2515175342559814,
                    -0.42742520570755005,
                    -0.7443279027938843,
                    -0.3286571502685547,
                    0.1126825138926506,
                    -0.1844189316034317,
                    0.8256096243858337,
                    -0.2122989296913147,
                    0.035490889102220535,
                    -1.27720046043396,
                    0.8827502131462097,
                    -0.2912861406803131,
                    0.24823661148548126,
                    0.26545265316963196,
                    -0.11205918341875076,
                    0.6818777918815613,
                    0.6326131224632263,
                    -0.2446494847536087,
                    -0.12271594256162643,
                    0.7102366089820862,
                    -0.09632445871829987,
                    0.3426054120063782,
                    1.130668044090271,
                    -0.15990962088108063,
                    0.3031791150569916,
                    -1.304529070854187,
                    -0.547099232673645,
                    -1.0299216508865356,
                    0.8137737512588501,
                    0.5686465501785278,
                    -1.8852530717849731,
                    1.4354405403137207,
                    -0.8963971734046936,
                    0.913236141204834,
                    -0.1975913941860199,
                    -0.9495278596878052,
                    -0.31226277351379395,
                    -1.7954990863800049,
                    0.5463236570358276,
                    0.0387980192899704,
                    -1.0017156600952148,
                    -0.9977494478225708,
                    -0.28132739663124084,
                    -1.4225066900253296,
                    -0.24019291996955872,
                    0.38991671800613403,
                    -0.3892803490161896,
                    -0.7072871923446655,
                    -0.8861177563667297,
                    -0.1618434637784958,
                    0.2891603112220764,
                    0.8891328573226929,
                    -1.032496690750122,
                    0.00641441997140646,
                    -0.21141201257705688,
                    0.17153282463550568,
                    0.045407745987176895,
                    0.2327510267496109,
                    0.17751334607601166,
                    0.6861164569854736,
                    -0.10907863080501556,
                    0.5012137293815613,
                    0.7172481417655945,
                    -0.07028283923864365,
                    0.4086959660053253,
                    0.0011420395458117127,
                    -1.2402317523956299,
                    0.08606656640768051,
                    -0.20011168718338013,
                    -0.06711748242378235,
                    0.31712910532951355,
                    -1.595470666885376,
                    -0.8830521106719971,
                    -0.04462650418281555,
                    0.21478237211704254,
                    0.24027341604232788,
                    0.8294243812561035,
                    0.706718385219574,
                    0.4232076108455658,
                    -0.13958342373371124,
                    -0.22370141744613647,
                    -0.5185227990150452,
                    0.5315920114517212,
                    -0.6854073405265808,
                    0.635683000087738,
                    0.4551239609718323,
                    -0.12486496567726135,
                    0.5191153287887573,
                    -0.04087124019861221,
                    -0.2793568968772888,
                    -0.9417622685432434,
                    0.17771664261817932,
                    -1.1980767250061035,
                    0.3890818655490875,
                    0.7411357760429382,
                    -0.5507490038871765,
                    0.7561197876930237,
                    1.1644829511642456
                ],
                [
                    -1.0663045644760132,
                    -0.15712356567382812,
                    0.3164590001106262,
                    0.777465283870697,
                    -1.0083928108215332,
                    -0.7738045454025269,
                    0.34226155281066895,
                    0.14414161443710327,
                    0.4544371962547302,
                    -0.3082280457019806,
                    -0.21768923103809357,
                    0.8371009230613708,
                    0.2234421670436859,
                    -0.06452924013137817,
                    1.6640723943710327,
                    0.38049691915512085,
                    -0.8622899055480957,
                    1.3229209184646606,
                    -0.02168806456029415,
                    0.5205769538879395,
                    -0.007239817641675472,
                    0.6804351806640625,
                    -0.6117947101593018,
                    0.35297471284866333,
                    0.6375170946121216,
                    0.8817976117134094,
                    -1.1607600450515747,
                    -0.541407585144043,
                    -0.2373247742652893,
                    0.08504422008991241,
                    -0.12185303121805191,
                    1.1352301836013794,
                    0.17434318363666534,
                    -0.16681209206581116,
                    -0.3736989200115204,
                    0.08667279034852982,
                    -0.6229581236839294,
                    0.8606994152069092,
                    -0.7014521956443787,
                    0.028903409838676453,
                    0.8200595378875732,
                    0.3923478424549103,
                    0.16217637062072754,
                    0.5282250642776489,
                    -0.3817765712738037,
                    -0.9593639373779297,
                    -1.057580590248108,
                    0.05364454537630081,
                    -0.6938702464103699,
                    -0.07462357729673386,
                    -0.9550855755805969,
                    -1.3467957973480225,
                    -0.3187771737575531,
                    -0.5311056971549988,
                    -0.5423751473426819,
                    1.086620569229126,
                    -0.1372341364622116,
                    -0.09877131879329681,
                    0.8490328788757324,
                    0.017533743754029274,
                    1.1206181049346924,
                    0.5438168048858643,
                    -1.1655179262161255,
                    1.28634512424469,
                    -1.508104920387268,
                    0.2361930012702942,
                    -0.04137521609663963,
                    0.3667012155056,
                    1.0625423192977905,
                    0.8687440752983093,
                    -0.07622097432613373,
                    0.45788338780403137,
                    1.6502991914749146,
                    -0.2609831988811493,
                    -0.46621015667915344,
                    1.0119426250457764,
                    -0.22402270138263702,
                    0.2986467778682709,
                    1.387709140777588,
                    0.3720112442970276,
                    -1.4725171327590942,
                    -1.0153582096099854,
                    0.44409382343292236,
                    -0.19205015897750854,
                    0.649270236492157,
                    -0.14285695552825928,
                    -0.655432939529419,
                    0.11017404496669769,
                    0.3636281192302704,
                    -0.4076767861843109,
                    0.12090441584587097,
                    0.7476869225502014,
                    0.4426737427711487,
                    -1.0124046802520752,
                    1.26468825340271,
                    1.2828091382980347,
                    -0.060013629496097565,
                    0.021210256963968277,
